{"Layers": [["fc1", "Linear", 4, 6], ["fc2", "Linear", 6, 8], ["fc3", "Linear", 8, 3], ["fc4", "Linear", 3, 1]], "Activation functions": [["fc1", "ReLU"], ["fc2", "ReLU"], ["fc3", "ReLU"]], "Weights": [[[[0.199881911277771, 0.09586548805236816, 0.3956621289253235, -0.0495721697807312], [-0.09039521217346191, -0.2627302408218384, -0.22496110200881958, 0.41624557971954346], [-0.35692864656448364, -0.06715571880340576, 0.06487220525741577, -0.22233396768569946], [0.1856529712677002, -0.281333327293396, -0.4568483233451843, -0.4115670919418335], [0.2601941227912903, 0.4405667185783386, 0.4488782286643982, -0.178505539894104], [0.23994183540344238, -0.3309370279312134, -0.1254522204399109, 0.41135644912719727]], [0.10616821050643921, -0.391906201839447, -0.19719719886779785, -0.19231641292572021, -0.3802531957626343, -0.19171631336212158]], [[[-0.2853628396987915, 0.050669729709625244, -0.1508559286594391, -0.4066447913646698, 0.00541117787361145, -0.3013438582420349], [-0.09202688932418823, -0.1331423819065094, -0.23885539174079895, -0.3359020948410034, 0.26947349309921265, 0.16562265157699585], [-0.12456166744232178, -0.012569606304168701, -0.08101972937583923, -0.3277512490749359, 0.29680335521698, 0.18795281648635864], [-0.1888018399477005, -0.26054033637046814, -0.04198458790779114, 0.20662206411361694, -0.24175502359867096, 0.010895758867263794], [-0.004432260990142822, -0.1748560667037964, 0.2824707627296448, -0.29723793268203735, -0.0895458459854126, -0.36888587474823], [-0.14936718344688416, 0.11349213123321533, 0.34585756063461304, 0.34959322214126587, -0.29274946451187134, -0.3599611520767212], [-0.26850342750549316, -0.1444675326347351, 0.307824969291687, -0.2664121389389038, -0.29897430539131165, -0.09158873558044434], [0.3593202829360962, 0.2820163369178772, 0.3240365982055664, 0.23315036296844482, -0.2898392677307129, 0.026947021484375]], [0.1814224123954773, 0.17389506101608276, -0.38050445914268494, -0.2343742847442627, 0.24035358428955078, -0.2511099576950073, 0.24979102611541748, 0.1758122444152832]], [[[-0.06478601694107056, -0.1286342442035675, 0.1767577826976776, -0.052850544452667236, -0.13529984652996063, 0.1035807728767395, -0.27786785364151, -0.02264752984046936], [-0.04228585958480835, 0.2988449037075043, 0.20439115166664124, -0.1983705461025238, 0.23980149626731873, 0.16720083355903625, 0.15273597836494446, -0.3357711732387543], [0.2718571126461029, -0.24063152074813843, 0.2922331988811493, 0.1239849328994751, -0.021730363368988037, 0.0569186806678772, -0.24794349074363708, 0.18525591492652893]], [0.2523125112056732, 0.2649590075016022, 0.22460415959358215]], [[[-0.35486841201782227, -0.2792651057243347, 0.05082732439041138]], [-0.511788010597229]]]}