{"Layers": [["fc1", "Linear", 10, 30], ["fc2", "Linear", 30, 70], ["fc3", "Linear", 70, 20], ["fc4", "Linear", 20, 10]], "Activation functions": [["fc1", "ReLU"], ["fc2", "ReLU"], ["fc3", "ReLU"]], "Weights": [[[[-0.25942039489746094, -0.3090197443962097, -0.2809503376483917, 0.08086276054382324, 0.074148029088974, 0.27675333619117737, 0.17391353845596313, -0.3090956211090088, 0.22153297066688538, 0.032735615968704224], [0.14870649576187134, -0.03537902235984802, 0.1523144543170929, 0.29984280467033386, 0.16508162021636963, 0.12158069014549255, 0.10992544889450073, -0.31336450576782227, 0.16592171788215637, -0.2817022502422333], [-0.06389620900154114, -0.30295369029045105, 0.12574175000190735, 0.09080472588539124, -0.002959907054901123, 0.15898454189300537, -0.17062711715698242, -0.1921582669019699, -0.25743743777275085, -0.09224149584770203], [0.3075575530529022, 0.21516630053520203, -0.10336098074913025, 0.08790582418441772, -0.10194376111030579, -0.04203340411186218, 0.26132312417030334, 0.11497998237609863, 0.04554203152656555, -0.1907799392938614], [-0.10822705924510956, -0.21129442751407623, 0.08957603573799133, -0.09957750141620636, 0.2975434958934784, 0.29693272709846497, -0.2127455472946167, -0.27008959650993347, 0.24773076176643372, -0.308987021446228], [-0.2381732314825058, 0.14355573058128357, -0.06361794471740723, -0.3013959527015686, -0.27323639392852783, -0.19123023748397827, 0.19281253218650818, 0.16102242469787598, -0.24593839049339294, 0.19524505734443665], [-0.2594616115093231, 0.2101418673992157, 0.08408766984939575, -0.2458411157131195, 0.0134505033493042, -0.1479099839925766, 0.296352356672287, -0.07877911627292633, 0.07155513763427734, 0.22039195895195007], [-0.19121775031089783, -0.14912688732147217, -0.22990217804908752, -0.09393692016601562, -0.1778327226638794, -0.3063686490058899, -0.27033233642578125, 0.027626723051071167, -0.11065457761287689, 0.18583014607429504], [-0.28127479553222656, 0.053594380617141724, -0.2727952003479004, 0.05250048637390137, -0.2950008511543274, 0.12241601943969727, 0.17199230194091797, -0.2663068175315857, 0.06570562720298767, 0.14994308352470398], [0.15225401520729065, 0.25204893946647644, -0.11210528016090393, -0.16972942650318146, 0.27446994185447693, 0.22545143961906433, 0.14009767770767212, -0.26417097449302673, -0.16139060258865356, -0.2741985619068146], [0.22625258564949036, -0.2712128758430481, 0.044132769107818604, 0.0154954195022583, -0.056179434061050415, -0.20854444801807404, -0.048740923404693604, 0.16428357362747192, 0.007550865411758423, -0.18966937065124512], [-0.03855803608894348, -0.0973515510559082, -0.2242754101753235, -0.051991164684295654, -0.09593766927719116, -0.044626981019973755, -0.07523760199546814, 0.31531116366386414, -0.20556548237800598, 0.10464689135551453], [0.1971023976802826, -0.10419978201389313, -0.18502838909626007, -0.18673788011074066, 0.056803733110427856, -0.06023496389389038, -0.3017094135284424, -0.08080786466598511, -0.15640638768672943, 0.2597605884075165], [-0.21095898747444153, 0.18410173058509827, -0.31310874223709106, -0.10888431966304779, 0.11614379286766052, 0.22095444798469543, -0.08359746634960175, 0.2609879672527313, 0.09237346053123474, -0.2554899752140045], [-0.16501957178115845, -0.05469122529029846, 0.2460826337337494, -0.22329804301261902, 0.052247196435928345, -0.07409198582172394, -0.22132755815982819, -0.30727389454841614, -0.1935616135597229, -0.0017346441745758057], [-0.04194203019142151, -0.18622513115406036, 0.2867099940776825, -0.2538224458694458, 0.02436649799346924, -0.08781825006008148, 0.23791900277137756, -0.19784262776374817, -0.005429983139038086, -0.13624802231788635], [0.19395604729652405, 0.05574232339859009, 0.08427286148071289, -0.31512489914894104, -0.1893535852432251, 0.1254023015499115, 0.2761405408382416, 0.24557092785835266, 0.31391283869743347, 0.2119007408618927], [-0.1415121853351593, -0.3128444254398346, 0.12133321166038513, 0.18130561709403992, -0.15679503977298737, -0.24644532799720764, 0.23895123600959778, 0.12980642914772034, 0.28423604369163513, 0.2770231068134308], [-0.17023544013500214, -0.13982798159122467, 0.05860552191734314, -0.21278135478496552, -0.27993103861808777, -0.0317988395690918, 0.19401374459266663, 0.22250166535377502, -0.2993300259113312, 0.0694112479686737], [-0.23384931683540344, -0.2757824659347534, -0.22056257724761963, 0.28865954279899597, -0.010931015014648438, -0.16746827960014343, -0.06822843849658966, -0.30147692561149597, -0.22489549219608307, -0.021714001893997192], [-0.1409275382757187, -0.11311903595924377, -0.21038441359996796, 0.21079537272453308, -0.09565603733062744, 0.18211373686790466, 0.22258320450782776, 0.269022136926651, 0.02698493003845215, -0.024203717708587646], [0.18044304847717285, -0.13914671540260315, 0.19071701169013977, 0.11882403492927551, -0.29180508852005005, 0.2773061692714691, 0.18188518285751343, -0.16743141412734985, -0.03690698742866516, -0.1016460657119751], [0.08344614505767822, 0.2647450864315033, 0.1791388988494873, -0.12655775249004364, -0.05618700385093689, -0.22472041845321655, -0.26137518882751465, -0.2751055359840393, -0.2797105610370636, -0.26325350999832153], [0.282028466463089, 0.20869788527488708, 0.08256199955940247, -0.152777299284935, 0.06711527705192566, 0.04895058274269104, 0.16515249013900757, 0.2643587291240692, -0.0874471515417099, 0.07492685317993164], [0.31574150919914246, -0.1661473959684372, -0.09385049343109131, -0.30689293146133423, -0.06285181641578674, -0.07664811611175537, -0.3102046847343445, 0.15184703469276428, -0.27115142345428467, 0.3070731461048126], [0.13780128955841064, -0.03308558464050293, -0.19650517404079437, -0.1507866531610489, -0.13737136125564575, -0.16233454644680023, -0.05923277139663696, 0.10984241962432861, 0.18761220574378967, -0.09434439241886139], [0.22055533528327942, -0.2362794727087021, -0.1358366310596466, 0.07878535985946655, -0.12685909867286682, 0.17744728922843933, -0.04840266704559326, 0.20708128809928894, 0.08619198203086853, 0.002242952585220337], [0.1748645305633545, 0.1669602394104004, 0.2446310818195343, 0.2846633493900299, -0.027060657739639282, 0.20623502135276794, 0.14735740423202515, -0.2008865773677826, 0.024015724658966064, -0.25163546204566956], [0.1444264054298401, 0.1610489785671234, -0.29684773087501526, -0.03780829906463623, -0.2867104411125183, -0.11866356432437897, 0.10881635546684265, -0.19668880105018616, 0.2518227994441986, -0.19730111956596375], [0.047105103731155396, 0.029615163803100586, -0.17742085456848145, 0.10868388414382935, -0.25913506746292114, 0.312223345041275, 0.2689987123012543, -0.09533730149269104, 0.016601771116256714, -0.03868567943572998]], [0.22461596131324768, 0.2785708010196686, -0.13704867660999298, 0.15526747703552246, 0.0021088123321533203, -0.22382217645645142, -0.05591684579849243, 0.17276790738105774, 0.28115496039390564, -0.10640473663806915, 0.00963863730430603, -0.051497697830200195, -0.19953110814094543, -0.03181776404380798, -0.09724652767181396, -0.31522053480148315, -0.18849073350429535, -0.2680748999118805, -0.2083609402179718, -0.13109827041625977, 0.04677048325538635, 0.29570624232292175, -0.1449853479862213, -0.12134741246700287, -0.1475573629140854, 0.06435036659240723, -0.013599872589111328, 0.15944278240203857, 0.011977791786193848, 0.06086286902427673]], [[[0.008634760975837708, -0.16250590980052948, 0.1537277102470398, -0.17616502940654755, 0.11698108911514282, -0.009578287601470947, -0.03326568007469177, -0.15811751782894135, 0.150873601436615, 0.13117557764053345, -0.10733968019485474, 0.0672471821308136, -0.11457689106464386, -0.08911973237991333, 0.12216418981552124, 0.10439431667327881, -0.17885366082191467, -0.10793814063072205, 0.14437663555145264, 0.019389748573303223, -0.04273129999637604, -0.11586663126945496, -0.027712717652320862, -0.09659065306186676, 0.04938414692878723, 0.16557607054710388, 0.11732199788093567, 0.09763550758361816, 0.15400809049606323, 0.025673314929008484], [-0.016933247447013855, 0.07444831728935242, 0.0777745246887207, 0.1085643470287323, 0.11465957760810852, 0.028526410460472107, 0.062323927879333496, 0.07528164982795715, 0.15384426712989807, -0.16958171129226685, -0.17698152363300323, -0.048196032643318176, -0.07577633112668991, -0.1537197232246399, -0.11665383726358414, -0.04465419054031372, 0.17038074135780334, -0.13822108507156372, 0.1667787730693817, -0.1350240409374237, 0.014808177947998047, 0.15551972389221191, 0.14152535796165466, 0.07345473766326904, -0.03982396423816681, -0.07331082224845886, 0.06907084584236145, -0.022181198000907898, -0.04977227747440338, 0.026400819420814514], [-0.05020900070667267, 0.1487281620502472, -0.042922765016555786, -0.10654642432928085, -0.1465267837047577, 0.1086406409740448, 0.08626684546470642, -0.07207072526216507, -0.03135645389556885, 0.07376721501350403, 0.1216854453086853, -0.03326568007469177, -0.08782278746366501, 0.023781463503837585, 0.0795859694480896, 0.10991668701171875, -0.1681966632604599, -0.0027532577514648438, -0.0003547370433807373, -0.18173207342624664, 0.1367541253566742, 0.03406062722206116, -0.039431363344192505, 0.07128942012786865, -0.1703578531742096, -0.024011582136154175, -0.029284164309501648, 0.10423639416694641, 0.05304960906505585, -0.15369313955307007], [-0.17023946344852448, -0.034933432936668396, -0.15689276158809662, 0.10017639398574829, -0.00021854043006896973, -0.14319337904453278, -0.024882808327674866, 0.06407022476196289, -0.1457374393939972, -0.13530847430229187, -0.057396963238716125, 0.025735050439834595, 0.013122379779815674, -0.0576748326420784, 0.030066922307014465, -0.10105941444635391, 0.07938036322593689, -0.06672002375125885, 0.16283667087554932, -0.1000952199101448, 0.03296788036823273, 0.14331746101379395, 0.005387008190155029, -0.07071318477392197, -0.09115689247846603, -0.11239869147539139, 0.025135144591331482, 0.07662764191627502, 0.013523802161216736, -0.035070642828941345], [0.15382596850395203, -0.13353025913238525, 0.09970179200172424, -0.049768999218940735, -0.08851030468940735, 0.013574585318565369, -0.11935831606388092, -0.0656079426407814, 0.11907300353050232, 0.09504544734954834, 0.15906685590744019, -0.11675708740949631, 0.061793312430381775, -0.14504575729370117, 0.05276075005531311, -0.16512900590896606, 0.10839468240737915, -0.01735249161720276, 0.005604907870292664, 0.10890105366706848, -0.11709731072187424, -0.09620972722768784, 0.06494145095348358, -0.09620580822229385, -0.007873088121414185, -0.01152898371219635, -0.15995989739894867, 0.05542810261249542, 0.14229726791381836, 0.13047277927398682], [0.16121473908424377, -0.13646209239959717, 0.07750454545021057, 0.1330825686454773, 0.011454552412033081, 0.02276235818862915, -0.08178900182247162, 0.16419106721878052, -0.11185429990291595, -0.10039080679416656, 0.04702506959438324, -0.07372674345970154, -0.08498658239841461, -0.16358590126037598, -0.1648331731557846, -0.11662591248750687, 0.08206069469451904, -0.09221898019313812, -0.17611755430698395, -0.10013335198163986, 0.03850738704204559, -0.04488776624202728, -0.06333058327436447, 0.17981690168380737, 0.11915373802185059, 0.001570090651512146, -0.00879792869091034, -0.07022180408239365, -0.06770395487546921, -0.14390699565410614], [-0.1646251678466797, -0.02490316331386566, 0.1588439643383026, -0.13946135342121124, -0.1319599598646164, 0.1385699212551117, -0.04044763743877411, -0.14312900602817535, 0.01361776888370514, 0.1104799211025238, -0.04354189336299896, 0.05417643487453461, 0.025664910674095154, 0.14458957314491272, 0.10101428627967834, 0.1474652886390686, -0.10665148496627808, 0.02175857126712799, -0.12592296302318573, 0.010928690433502197, -0.02853672206401825, -0.16079506278038025, -0.10799986124038696, 0.11087828874588013, -0.031570225954055786, 0.07508137822151184, 0.05976061522960663, 0.04568028450012207, -0.08196455240249634, -0.11333202570676804], [0.1336156725883484, 0.14698290824890137, -0.14867062866687775, 0.1751064658164978, -0.11800482869148254, -0.16931261122226715, 0.014856696128845215, 0.10364013910293579, 0.09359189867973328, -0.0473581999540329, 0.12296247482299805, 0.05038972198963165, 0.08847060799598694, 0.048886850476264954, -0.047626793384552, 0.10870516300201416, 0.16182813048362732, 0.06906196475028992, -0.10316983610391617, 0.04719303548336029, -0.1276882439851761, 0.052478522062301636, -0.09487815201282501, 0.05664333701133728, 0.07695725560188293, -0.1325954645872116, 0.012228146195411682, -0.11357859522104263, 0.11736425757408142, -0.08719202876091003], [-0.013159498572349548, 0.16695398092269897, -0.111026331782341, 0.04575565457344055, -0.06497550755739212, -0.1242682933807373, 0.05318264663219452, 0.1160297691822052, -0.049322739243507385, 0.11551889777183533, -0.03088538348674774, -0.15204954147338867, -0.1774740070104599, 0.140409916639328, -0.1622200757265091, -0.03858165442943573, 0.16391810774803162, -0.03960941731929779, 0.059093132615089417, 0.17900875210762024, 0.10765239596366882, -0.1515955626964569, 0.14637619256973267, 0.17781546711921692, -0.16506388783454895, -0.10118971765041351, -0.18212169408798218, 0.035523638129234314, -0.035495683550834656, 0.1775040328502655], [-0.13589850068092346, -0.07191146910190582, -0.11992095410823822, 0.14952436089515686, 0.07799103856086731, 0.14566177129745483, -0.028197258710861206, 0.07900941371917725, 0.09472393989562988, -0.08289588242769241, 0.0001172870397567749, 0.09223619103431702, -0.15556621551513672, 0.1717018187046051, 0.04888491332530975, -0.18162482976913452, 0.07580018043518066, 0.04445311427116394, 0.11145603656768799, 0.033076345920562744, -0.07076030224561691, -0.0687175914645195, 0.0725351870059967, 0.12376222014427185, 0.10046786069869995, 0.01274476945400238, 0.02989506721496582, -0.02813573181629181, -0.07072608917951584, -0.06630196422338486], [0.09395626187324524, -0.16404753923416138, 0.15487048029899597, -0.10444969683885574, 0.11098113656044006, -0.1618463397026062, 0.161259263753891, 0.10401946306228638, 0.11938801407814026, -0.07542720437049866, -0.04447782039642334, -0.15453243255615234, 0.17790359258651733, -0.17078207433223724, 0.034200429916381836, -0.02825082838535309, 0.042452841997146606, -0.10634391009807587, -0.12616924941539764, 0.0931696891784668, 0.11012041568756104, -0.007022544741630554, -0.07262715697288513, 0.13613474369049072, -0.1455996036529541, 0.018884912133216858, 0.005089402198791504, 0.07570111751556396, -0.10582571476697922, -0.06537114083766937], [-0.09745372831821442, -0.12154091149568558, -0.09906893968582153, -0.10061942040920258, -0.07200562208890915, 0.033624857664108276, 0.010202303528785706, 0.08565759658813477, -0.11462912708520889, 0.09949618577957153, 0.1570003628730774, 0.06684912741184235, 0.06697401404380798, 0.18143117427825928, -0.020715638995170593, 0.01990404725074768, -0.0875517725944519, -0.03791145980358124, 0.1468908190727234, -0.14883223176002502, -0.08217965811491013, 0.17663291096687317, -0.06735735386610031, 0.10290807485580444, -0.09631483256816864, 0.12560278177261353, 0.16211926937103271, -0.06460615992546082, 0.06591938436031342, -0.13180449604988098], [0.1080847978591919, 0.1129656732082367, 0.016539379954338074, -0.12219540774822235, -0.13232704997062683, 0.05526033043861389, 0.08394372463226318, 0.1288895308971405, 0.12201172113418579, -0.1288040429353714, -0.09904453903436661, -0.1708398461341858, 0.14609026908874512, -0.07861832529306412, 0.17251834273338318, -0.009583652019500732, 0.11195740103721619, -0.13037967681884766, -0.16731072962284088, -0.17770227789878845, 0.03697584569454193, -0.1015390157699585, -0.09965410083532333, -0.11846762895584106, 0.08026522397994995, 0.1772533655166626, -0.09028857946395874, -0.18023079633712769, 0.06594942510128021, 0.04379904270172119], [-0.16545210778713226, 0.08105546236038208, -0.1567113995552063, -0.035731345415115356, -0.038159117102622986, -0.1755014955997467, 0.14058971405029297, 0.08579722046852112, -0.082115039229393, -0.1355157494544983, -0.1589096188545227, -0.024806350469589233, 0.035594820976257324, 0.09074175357818604, -0.14869269728660583, 0.000948593020439148, 0.13065683841705322, 0.046764835715293884, 0.1330326497554779, -0.026548147201538086, -0.06056102365255356, -0.1450788378715515, 0.006070688366889954, 0.13888880610466003, -0.0967453122138977, 0.01916453242301941, 0.15123656392097473, 0.12306138873100281, 0.07627934217453003, 0.1352314054965973], [-0.16478201746940613, 0.048476576805114746, -0.05393350124359131, 0.10989582538604736, 0.18176612257957458, 0.101103276014328, -0.0060469359159469604, 0.08139356970787048, 0.11211428046226501, 0.10527321696281433, -0.004686281085014343, 0.06184430420398712, 0.02932107448577881, -0.0756656602025032, -0.0892559364438057, -0.10886165499687195, -0.13004523515701294, -0.05783207714557648, -0.1088184043765068, 0.08223220705986023, -0.01030440628528595, -0.072064109146595, -0.005578279495239258, -0.14064697921276093, -0.11365683376789093, 0.09552225470542908, 0.08957213163375854, -0.048094794154167175, 0.16417407989501953, 0.016159802675247192], [-0.152153879404068, -0.06052696704864502, -0.010586842894554138, -0.02765747904777527, -0.1506224423646927, -0.10138387978076935, 0.05211415886878967, 0.03730398416519165, -0.0017625391483306885, 0.14116713404655457, 0.07557550072669983, -0.17871388792991638, -0.17188993096351624, -0.042509108781814575, 0.10589650273323059, -0.023282811045646667, -0.1140870749950409, -0.012506455183029175, -0.05785142630338669, -0.017905831336975098, -0.02828337252140045, -0.1606096774339676, 0.04377719759941101, -0.12491700053215027, 0.158599853515625, 0.11474451422691345, 0.1012866199016571, 0.10272803902626038, 0.009493827819824219, -0.14701056480407715], [0.04986998438835144, 0.01851014792919159, -0.020206496119499207, 0.0727618932723999, 0.09269177913665771, 0.005339711904525757, 0.1793363094329834, 0.05684220790863037, -0.15067747235298157, -0.05238449573516846, 0.13955500721931458, -0.1469135582447052, 0.17877352237701416, 0.07568702101707458, -0.0763864815235138, -0.07500695437192917, 0.13316714763641357, -0.16719113290309906, -0.15335464477539062, 0.040305644273757935, -0.04276150465011597, 0.010883092880249023, -0.02033562958240509, 0.10109224915504456, -0.14459747076034546, -0.11802969872951508, -0.029958948493003845, 0.036470070481300354, 0.16037428379058838, 0.08506456017494202], [-0.09850889444351196, 0.055613353848457336, -0.17276421189308167, -0.07426093518733978, -0.176048144698143, -0.038352251052856445, -0.016838550567626953, 0.06752818822860718, -0.007252797484397888, -0.14759264886379242, -0.1582760512828827, 0.04163582623004913, -0.03467865288257599, -0.12513244152069092, 0.010225832462310791, 0.16973736882209778, -0.01734146475791931, -0.15133747458457947, -0.0668867826461792, -0.07147642225027084, 0.015180855989456177, 0.05836644768714905, -0.13282819092273712, -0.06410052627325058, -0.07516098022460938, -0.014942899346351624, 0.041583284735679626, -0.11142416298389435, 0.09694120287895203, -0.1818273365497589], [0.13616052269935608, 0.01938338577747345, -0.10383106023073196, -0.11938402056694031, -0.08225607126951218, 0.16880640387535095, 0.017066553235054016, -0.03352212905883789, -0.036938101053237915, 0.14817014336585999, 0.08166015148162842, -0.07674270123243332, -0.08803635835647583, -0.040884971618652344, -0.17457935214042664, -0.10522688925266266, 0.12006440758705139, 0.054761841893196106, -0.11609866470098495, 0.14346051216125488, -0.012392818927764893, -0.10636018961668015, 0.057289332151412964, 0.017362549901008606, 0.132714182138443, -0.1289229840040207, -0.07458687573671341, -0.14459756016731262, 0.0655250996351242, -0.032620757818222046], [0.06452472507953644, -0.08938045054674149, 0.0383327454328537, 0.06826654076576233, 0.06935197114944458, 0.1349581778049469, 0.10577917098999023, 0.07478821277618408, 0.14140719175338745, 0.016656726598739624, -0.14538432657718658, -0.12153679132461548, 0.1801004707813263, -0.015349000692367554, 0.13933387398719788, 0.07319781184196472, 0.00668005645275116, 0.16670069098472595, 0.02858145534992218, -0.0013811588287353516, 0.14309898018836975, 0.1319696605205536, 0.03279323875904083, 0.0283488929271698, -0.12272797524929047, 0.10922271013259888, -0.1784541755914688, 0.09720605611801147, -0.09481751918792725, -0.14114214479923248], [0.06000463664531708, 0.056861117482185364, -0.14731425046920776, 0.03262434899806976, -0.169372096657753, 0.1638658344745636, -0.05563291907310486, -0.15232592821121216, 0.11118197441101074, 0.12325754761695862, 0.037959516048431396, -0.10820867121219635, -0.05103640258312225, 0.12304657697677612, -0.03297555446624756, -0.025291651487350464, -0.024893611669540405, 0.18193769454956055, 0.025667980313301086, 0.019336208701133728, -0.1680879443883896, -0.15865491330623627, -0.13001254200935364, -0.021286875009536743, 0.05659946799278259, -0.023603692650794983, 0.06578247249126434, -0.04088921844959259, 0.08070966601371765, 0.09758207201957703], [0.03347556293010712, 0.07937890291213989, 0.03139634430408478, 0.021900713443756104, -0.05998478829860687, -0.17898277938365936, -0.16927334666252136, -0.16277576982975006, -0.12567035853862762, 0.06475603580474854, -0.16765627264976501, -0.05195264518260956, 0.18130096793174744, -0.0963297188282013, 0.06540137529373169, -0.15111826360225677, 0.03671488165855408, -0.0930481031537056, 0.15605032444000244, -0.0012075155973434448, -0.0310681015253067, 0.07678571343421936, 0.18125897645950317, -0.07351360470056534, 0.13069504499435425, -0.08175202459096909, -0.18008899688720703, -0.06186944246292114, 0.007929801940917969, -0.03278157114982605], [0.028498023748397827, -0.17080102860927582, -0.034813135862350464, 0.133242666721344, -0.012275978922843933, -0.17942681908607483, 0.03402261435985565, 0.08073416352272034, -0.0671478882431984, 0.06305147707462311, -0.06952159851789474, 0.12583279609680176, -0.00589965283870697, -0.1726156622171402, -0.047933176159858704, -0.06844116002321243, 0.14662542939186096, -0.10538916289806366, 0.15251854062080383, -0.08710601180791855, 0.16792571544647217, 0.11782947182655334, 0.09180912375450134, 0.017128512263298035, 0.016212821006774902, 0.0392443984746933, 0.08425101637840271, -0.06609892845153809, 0.15799516439437866, 0.17377805709838867], [0.021894752979278564, 0.17657071352005005, 0.1302192211151123, -0.05291178822517395, 0.03677697479724884, -0.0523868054151535, 0.1446824073791504, 0.047500237822532654, -0.10543321073055267, -0.13704171776771545, -0.09674370288848877, 0.07859674096107483, -0.08678653091192245, -0.11667011678218842, -0.17202697694301605, 0.13263234496116638, -0.006052806973457336, -0.170513316988945, 0.14483579993247986, -0.16916994750499725, 0.009793654084205627, -0.10015929490327835, 0.0304519385099411, 0.14458706974983215, -0.01997523009777069, -0.06381754577159882, 0.11053833365440369, -0.002904832363128662, -0.17723329365253448, 0.13030275702476501], [-0.03478085994720459, -0.09148501604795456, 0.11322891712188721, 0.08757391571998596, 0.08805674314498901, 0.03163440525531769, 0.15384820103645325, 0.06010368466377258, 0.015192002058029175, -0.0017639696598052979, 0.07131487131118774, 0.014866337180137634, 0.010676667094230652, 0.04236769676208496, 0.04583330452442169, -0.13720586895942688, -0.1507861614227295, -0.0025907158851623535, -0.18071508407592773, -0.13881510496139526, -0.10685095936059952, 0.020626693964004517, -0.13043084740638733, -0.11006736010313034, -0.005151867866516113, 0.07446819543838501, -0.1561349481344223, -0.0673799216747284, 0.13020536303520203, -0.009679734706878662], [-0.02754950523376465, 0.15028876066207886, -0.08781512826681137, 0.13278153538703918, -0.03464826941490173, -0.1260979175567627, 0.019090354442596436, -0.08071757853031158, -0.04906518757343292, 0.11459705233573914, 0.13576561212539673, 0.03399781882762909, -0.07073573023080826, 0.1013910174369812, -0.11945880204439163, 0.0102967768907547, 0.06622390449047089, -0.16314628720283508, 0.1488036811351776, 0.08394566178321838, 0.12598702311515808, 0.014393150806427002, 0.15054357051849365, -0.08429007232189178, 0.16214898228645325, 0.11235412955284119, -0.006454572081565857, 0.16026932001113892, -0.15869706869125366, -0.16457673907279968], [-0.1417335569858551, 0.012726396322250366, 0.0272454172372818, 0.06997707486152649, -0.01468627154827118, 0.0086078941822052, -0.15755997598171234, 0.1538095474243164, 0.08348056674003601, 0.0055382102727890015, -0.1061871126294136, -0.17262081801891327, -0.09417884051799774, 0.1764296591281891, 0.06860339641571045, 0.158468097448349, 0.10916957259178162, -0.06917096674442291, 0.04169447720050812, -0.060761019587516785, 0.10731923580169678, -0.0731211006641388, -0.043638378381729126, -0.06867945939302444, 0.15832453966140747, 0.14795827865600586, 0.03424885869026184, -0.09654775261878967, -0.14986827969551086, -0.061228714883327484], [-0.14550241827964783, -0.1823076605796814, -0.03833302855491638, -0.031776681542396545, 0.1663874089717865, -0.011135265231132507, 0.006891191005706787, -0.10697531700134277, -0.11634381860494614, -0.028629273176193237, 0.15550410747528076, -0.0601922944188118, -0.1033528745174408, 0.058834269642829895, 0.152804434299469, -0.022481441497802734, -0.0780886635184288, 0.09779497981071472, -0.09929224103689194, -0.05702093243598938, 0.17245233058929443, -0.1254444718360901, 0.15237098932266235, 0.15264955163002014, 0.1637324094772339, 0.03661511838436127, 0.07820698618888855, -0.0970432460308075, -0.053223997354507446, -0.1583753228187561], [0.10611093044281006, -0.1343068778514862, -0.07447520643472672, 0.12791600823402405, -0.1617516279220581, -0.12519508600234985, 0.001227542757987976, 0.17328482866287231, 0.03496788442134857, 0.17118510603904724, 0.11323082447052002, 0.06375017762184143, -0.1542033851146698, 0.14234784245491028, 0.17256829142570496, -0.014788314700126648, 0.059407010674476624, 0.16235089302062988, -0.11408200860023499, 0.09324070811271667, 0.08744218945503235, -0.11298441886901855, -0.1394243836402893, 0.1065157949924469, -0.08659467846155167, 0.11268916726112366, 0.008503749966621399, 0.003034740686416626, 0.06766489148139954, -0.04061710834503174], [0.0825704038143158, 0.028989821672439575, 0.007713794708251953, -0.14457754790782928, 0.12266001105308533, -0.11657589673995972, 0.0836857259273529, 0.09099969267845154, -0.11554837226867676, -0.07195889949798584, 0.0123690664768219, 0.07704940438270569, -0.05357195436954498, 0.06438057124614716, -0.024955540895462036, -0.08560972660779953, -0.17425891757011414, -0.02367880940437317, 0.031400591135025024, 0.07247066497802734, 0.17232468724250793, 0.17785897850990295, -0.17429828643798828, -0.026460781693458557, 0.030239149928092957, -0.11348135024309158, 0.13938263058662415, 0.10051548480987549, -0.02671024203300476, 0.04250207543373108], [0.064191073179245, 0.10822474956512451, 0.14161086082458496, -0.156481072306633, -0.14089058339595795, 0.136845201253891, -0.11485497653484344, 0.0017052292823791504, 0.08767259120941162, 0.15148669481277466, -0.18109478056430817, 0.048524558544158936, 0.1295580267906189, -0.14194929599761963, -0.09409608691930771, -0.16553707420825958, -0.10895689576864243, -0.16384780406951904, -0.09775394201278687, 0.04262979328632355, -0.060999102890491486, 0.09064549207687378, 0.042597293853759766, 0.1788659691810608, 0.022526815533638, 0.10140916705131531, 0.12320607900619507, 0.034812167286872864, -0.04332651197910309, -0.05788716673851013], [-0.08075923472642899, -0.10436836630105972, -0.06510365754365921, 0.15335041284561157, -0.03077217936515808, -0.1784297376871109, 0.1573450267314911, 0.05255505442619324, 0.034337177872657776, 0.1592346727848053, 0.08443248271942139, -0.1468166708946228, 0.11065304279327393, 0.1254342496395111, 0.033698901534080505, 0.06202623248100281, 0.09002459049224854, 0.09007260203361511, -0.10309378802776337, 0.14848056435585022, -0.14404603838920593, 0.03550750017166138, 0.13798561692237854, -0.05206553637981415, -0.011485695838928223, 0.1657244861125946, -0.07936558872461319, 0.1216345727443695, 0.06734423339366913, -0.1733701527118683], [-0.17832402884960175, 0.09922337532043457, 0.07253295183181763, -0.13194242119789124, 0.05404558777809143, -0.10234425961971283, 0.12617048621177673, 0.030614107847213745, -0.17119565606117249, -0.16483978927135468, 0.038798779249191284, -0.08447808027267456, -0.011834874749183655, 0.060860902070999146, -0.07806050032377243, -0.09418506175279617, 0.1801474690437317, -0.048349812626838684, -0.1579093188047409, -0.10922017693519592, -0.10732468217611313, -0.05010591447353363, -0.07235564291477203, 0.01034913957118988, 0.05338890850543976, -0.10906998068094254, 0.0395902544260025, 0.06321479380130768, -0.06641723215579987, -0.01198984682559967], [-0.06274335831403732, 0.08617383241653442, 0.17954638600349426, -0.14923568069934845, 0.11777052283287048, 0.12086910009384155, 0.07228633761405945, -0.048176735639572144, 0.034295931458473206, 0.1679757535457611, -0.021144360303878784, -0.010257646441459656, -0.1505001336336136, -0.09355033934116364, 0.12164202332496643, 0.07992935180664062, 0.029662415385246277, -0.01949162781238556, 0.002310916781425476, 0.0992441475391388, 0.1465100347995758, -0.0538797527551651, 0.035584017634391785, -0.0308057963848114, 0.011073693633079529, 0.12909522652626038, 0.07675811648368835, -0.04408496618270874, 0.04231087863445282, -0.032776281237602234], [-0.08089524507522583, -0.0205523818731308, -0.06692586839199066, -0.16306233406066895, 0.05605247616767883, -0.08582586795091629, -0.03938227891921997, 0.1134428083896637, 0.01608651876449585, -0.09784168004989624, -0.058247022330760956, -0.17619158327579498, 0.15528127551078796, 0.0669274628162384, 0.1607499122619629, 0.05405057966709137, -0.03089912235736847, -0.13112768530845642, -0.03307756781578064, 0.12870776653289795, 0.09293460845947266, -0.0982772707939148, -0.17318466305732727, 0.12001651525497437, 0.04492262005805969, 0.051941514015197754, 0.07239276170730591, -0.08244811743497849, -0.0036596357822418213, 0.06851273775100708], [0.05077262222766876, 0.1437416970729828, -0.1236732006072998, 0.1821635365486145, 0.14850130677223206, 0.0012190043926239014, -0.03520500659942627, 0.16734576225280762, -0.0008916556835174561, -0.1534765213727951, 0.050352081656455994, -0.055605873465538025, 0.14851701259613037, -0.17517058551311493, 0.12918075919151306, 0.16279175877571106, -0.007596522569656372, -0.08432555198669434, -0.11654673516750336, -0.04969912767410278, -0.03549550473690033, 0.100412517786026, -0.054257407784461975, -0.18243800103664398, 0.013251513242721558, 0.0809418261051178, -0.16596980392932892, 0.1784822642803192, 0.060231685638427734, 0.17295947670936584], [-0.030470818281173706, -0.012556001543998718, -0.059055790305137634, 0.06840202212333679, 0.05639837682247162, -0.004363134503364563, 0.15910553932189941, 0.010899573564529419, 0.16682928800582886, -0.1268133968114853, 0.0407559871673584, 0.1475886106491089, 0.10404762625694275, 0.16407692432403564, 0.10072159767150879, -0.14347225427627563, -0.06140044331550598, 0.07491198182106018, 0.029090434312820435, 0.16171157360076904, -0.14567463099956512, 0.160417377948761, 0.13241195678710938, -0.07904969900846481, 0.0025818198919296265, -0.052286297082901, 0.07409226894378662, -0.0051978230476379395, -0.06933002173900604, 0.11650004982948303], [-0.07009519636631012, 0.15807276964187622, 0.15983045101165771, 0.125223308801651, -0.06738703697919846, 0.11819058656692505, 0.08638089895248413, 0.021351858973503113, 0.048360347747802734, 0.028410986065864563, 0.12606281042099, 0.1654122769832611, -0.042255327105522156, 0.017890840768814087, -0.06673834472894669, -0.05707809329032898, -0.18017162382602692, 0.16102692484855652, -0.13977445662021637, -0.12583355605602264, 0.07424235343933105, -0.010480955243110657, -0.1262504756450653, 0.09257376194000244, 0.101806640625, 0.030328169465065002, -0.13993029296398163, -0.0829567164182663, 0.01824745535850525, -0.11992733180522919], [-0.09054174274206161, 0.14583712816238403, -0.06169062852859497, 0.06345118582248688, 8.277595043182373e-05, 0.06311024725437164, 0.0629909336566925, 0.12507718801498413, 0.16527587175369263, -0.1295277327299118, 0.047368958592414856, -0.10010246932506561, -0.06318635493516922, -0.036269038915634155, -0.08838709443807602, -0.017617151141166687, -0.09999406337738037, 0.13394159078598022, -0.14232558012008667, 0.0388353168964386, -0.05182425677776337, -0.08051133900880814, 0.16099244356155396, 0.11564013361930847, -0.02594931423664093, -0.05788150429725647, -0.030717507004737854, 0.10934755206108093, -0.16327373683452606, -0.006090611219406128], [-0.015999868512153625, -0.013747572898864746, 0.0633191168308258, -0.025352299213409424, 0.13814601302146912, -0.07128535211086273, 0.07293593883514404, 0.05334031581878662, -0.019465774297714233, -0.012051835656166077, -0.11371294409036636, 0.07588264346122742, 0.1065123975276947, 0.11058700084686279, -0.15474069118499756, 0.009481161832809448, -0.16492226719856262, -0.031986042857170105, -0.10763846337795258, -0.007221147418022156, -0.01149509847164154, -0.09132106602191925, 0.09724119305610657, 0.14677831530570984, 0.11720195412635803, -0.15375098586082458, -0.00832819938659668, 0.023412391543388367, 0.13147997856140137, 0.11864560842514038], [0.10582166910171509, 0.05813807249069214, -0.08779053390026093, 0.07171723246574402, -0.08405344933271408, -0.06814549118280411, 0.09902364015579224, -0.023884668946266174, -0.15461581945419312, 0.039828673005104065, -0.017554685473442078, 0.14365801215171814, 0.09999224543571472, -0.033283546566963196, 0.12259051203727722, 0.07041209936141968, -0.0717819482088089, -0.16168344020843506, 0.10000565648078918, 0.05812333524227142, 0.06472517549991608, -0.00830008089542389, 0.0475093275308609, 0.1605592668056488, -0.03636375069618225, 0.022991463541984558, -0.1768282800912857, 0.13189974427223206, -0.10218890756368637, 0.1557077169418335], [0.17959851026535034, 0.15052300691604614, 0.17813608050346375, 0.09843283891677856, 0.153920978307724, 0.024261564016342163, -0.04404847323894501, -0.017655104398727417, -0.00868147611618042, 0.08349356055259705, -0.08237262070178986, 0.1012352705001831, 0.07433250546455383, -0.02311110496520996, -0.14243490993976593, -0.14669294655323029, -0.16995684802532196, -0.10352280735969543, -0.08775892853736877, -0.05911216139793396, -0.17563843727111816, -0.0009477585554122925, 0.15292546153068542, -0.07069339603185654, 0.12530633807182312, -0.12914180755615234, -0.12469679117202759, 0.11201915144920349, 0.03723938763141632, 0.04678942263126373], [-0.057326167821884155, -0.041866227984428406, -0.12881268560886383, -0.048009634017944336, -0.06197907030582428, 0.10162460803985596, -0.08826810866594315, 0.007523715496063232, 0.14339327812194824, -0.17795443534851074, -0.16614922881126404, -0.06646933406591415, -0.15180660784244537, 0.11112195253372192, -0.15195950865745544, -0.15380407869815826, 0.0825762152671814, -0.07598342001438141, 0.17329594492912292, -0.10830730944871902, -0.027294933795928955, 0.009478762745857239, -0.06618089228868484, 0.1147080659866333, 0.0006242096424102783, 0.09315696358680725, 0.07405507564544678, -0.09248200803995132, -0.15947245061397552, 0.07485654950141907], [0.03793121874332428, -0.15464341640472412, -0.16964153945446014, 0.09070342779159546, 0.05852150917053223, 0.12608101963996887, 0.16927143931388855, 0.0015845298767089844, 0.04304695129394531, -0.12353882938623428, -0.030418232083320618, 0.15300312638282776, -0.15675625205039978, -0.0384884774684906, -0.17062105238437653, 0.15658921003341675, 0.15010318160057068, 0.04594656825065613, -0.15825070440769196, -0.11255322396755219, -0.0009520500898361206, 0.08865785598754883, -0.14703285694122314, -0.1446228176355362, 0.10677924752235413, 0.04883165657520294, -0.09879868477582932, 0.11761540174484253, -0.16347934305667877, -0.16756823658943176], [-0.14668746292591095, 0.06305567920207977, -0.0623086541891098, -0.16555272042751312, -0.11265288293361664, -0.16887973248958588, -0.11348071694374084, -0.17201578617095947, 0.13745856285095215, -0.17711402475833893, 0.0014484971761703491, 0.15742483735084534, -0.07974224537611008, 0.08002623915672302, -0.08585183322429657, -0.07589442282915115, -0.17231683433055878, -0.008163794875144958, -0.013364642858505249, 0.16595175862312317, -0.07257270067930222, -0.1355719417333603, -0.028867438435554504, 0.06261353194713593, -0.13153810799121857, -0.08212609589099884, -0.14769813418388367, 0.07074782252311707, 0.07850030064582825, 0.06042364239692688], [-0.012399107217788696, 0.13963675498962402, -0.12257134914398193, -0.10704009234905243, -0.029379889369010925, 0.10490506887435913, 0.13223674893379211, 0.0498245507478714, 0.14016395807266235, -0.0313328355550766, 0.09715643525123596, -0.10288569331169128, 0.15039128065109253, 0.1574438512325287, -0.018587827682495117, -0.14064344763755798, 0.027519255876541138, 0.0946304202079773, -0.023545384407043457, -0.007116302847862244, 0.1032671332359314, -0.05656890571117401, 0.17886781692504883, 0.04856197535991669, 0.18224167823791504, -0.0680694654583931, 0.008690312504768372, 0.029474258422851562, -0.0628010556101799, 0.007779955863952637], [0.0770723819732666, -0.13277488946914673, 0.12024280428886414, -0.1666458547115326, 0.15518608689308167, 0.05339302122592926, -0.17928574979305267, -0.02753901481628418, -0.002674579620361328, 0.04188862442970276, -0.13732227683067322, -0.15703432261943817, 0.15789386630058289, 0.13921770453453064, 0.14583149552345276, -0.10747211426496506, 0.02974557876586914, -0.11203344166278839, -0.08458548784255981, 0.137613445520401, 0.10292154550552368, 0.13067832589149475, 0.07279771566390991, 0.13491466641426086, -0.04453055560588837, -0.07298503071069717, -0.10463027656078339, -0.12063343822956085, 0.15212905406951904, -0.14259041845798492], [-0.08110535889863968, -0.015949681401252747, -0.023361772298812866, 0.15293237566947937, 0.12168940901756287, -0.13082005083560944, 0.06285329163074493, -0.1693669557571411, 0.10712176561355591, -0.17726849019527435, -0.020982056856155396, -0.10550973564386368, 0.02895963191986084, -0.14559566974639893, 0.16141492128372192, 0.0008277744054794312, 0.07523787021636963, -0.16073401272296906, 0.01453004777431488, -0.032865971326828, -0.03073437511920929, -0.16904997825622559, -0.13483011722564697, 0.10819616913795471, 0.008503228425979614, 0.15309551358222961, -0.09566045552492142, 0.09678450226783752, 0.020073041319847107, -0.14893127977848053], [-0.027011901140213013, -0.1522074043750763, 0.08580434322357178, -0.16874319314956665, 0.1361316740512848, 0.006341621279716492, -0.14767028391361237, -0.04296122491359711, 0.10251376032829285, -0.14821143448352814, -0.1366996020078659, -0.17891578376293182, 0.08654341101646423, 0.10933411121368408, 0.16770026087760925, 0.09489506483078003, -0.1561131626367569, -0.08315955847501755, -0.014954715967178345, 0.08162736892700195, -0.06467202305793762, -0.07672496140003204, 0.025827690958976746, 0.10454076528549194, 0.10083198547363281, 0.056097790598869324, -0.018627196550369263, 0.13744211196899414, -0.18009451031684875, -0.06868522614240646], [0.16991889476776123, -0.12774574756622314, -0.042267993092536926, -0.11215155571699142, -0.16541634500026703, 0.13928550481796265, -0.09194868803024292, 0.1285822093486786, -0.0801461711525917, 0.11830544471740723, 0.13529762625694275, 0.06945857405662537, -0.006325587630271912, -0.10902619361877441, 0.16833826899528503, 0.033512234687805176, -0.006778255105018616, -0.116080142557621, -0.14062023162841797, -0.09069699048995972, -0.0838017463684082, -0.11918254941701889, 0.08991402387619019, 0.13227689266204834, -0.12922881543636322, 0.03903728723526001, 0.11174824833869934, -0.12714919447898865, 0.026289239525794983, 0.023084238171577454], [0.03624677658081055, -0.04400378465652466, 0.049607157707214355, -0.15116867423057556, 0.14231857657432556, -0.0006420761346817017, -0.092607282102108, 0.05730642378330231, -0.0507960170507431, 0.17280831933021545, 0.18172213435173035, 0.13779324293136597, 0.0970315933227539, -0.15320107340812683, 0.145034521818161, 0.12258914113044739, 0.13224589824676514, -0.07334333658218384, -0.15600043535232544, 0.17876583337783813, -0.10178624093532562, -0.1476343870162964, -0.018500342965126038, -0.10372112691402435, -0.062363915145397186, 0.0842408537864685, -0.020904123783111572, -0.04780419170856476, -0.0969439148902893, -0.17541877925395966], [-0.09290887415409088, -0.016081541776657104, 0.10519161820411682, -0.03533436357975006, 0.16582855582237244, 0.004373043775558472, 0.06587901711463928, -0.11824730783700943, 0.17353007197380066, 0.11376583576202393, 0.171847403049469, 0.0337773859500885, -0.12028548866510391, -0.15049593150615692, -0.044265612959861755, -0.13410639762878418, -0.11643888801336288, -0.16696563363075256, 0.09480157494544983, -0.11095947027206421, -0.07519974559545517, -0.04848508536815643, 0.1380130648612976, -0.1666310429573059, -0.09922235459089279, 0.11727800965309143, -0.1525956243276596, 0.10360696911811829, -0.1057097539305687, 0.1290355920791626], [0.007782578468322754, -0.16166971623897552, -0.0855381190776825, -0.1427508443593979, 0.08170032501220703, -0.1395244002342224, 0.16606178879737854, -0.1380574256181717, -0.14502474665641785, -0.0444033145904541, 0.13910192251205444, 0.15106576681137085, 0.15277865529060364, 0.0784512460231781, -0.0003465116024017334, 0.1818327009677887, -0.03944465517997742, 0.023509621620178223, 0.14099526405334473, -0.02068847417831421, -0.14969556033611298, 0.05498705804347992, -0.17243750393390656, 0.07817995548248291, 0.08516585826873779, -0.16403260827064514, 0.024061068892478943, 0.1524410843849182, 0.1477530598640442, -0.11421531438827515], [0.02716509997844696, 0.181361585855484, -0.16280308365821838, -0.11840662360191345, 0.12873488664627075, 0.06751823425292969, 0.09206879138946533, 0.010510444641113281, 0.049077898263931274, -0.11376696825027466, -0.03761477768421173, -0.1231195330619812, -0.046550601720809937, -0.0995875895023346, -0.1277269721031189, -0.0877590999007225, -0.04460570216178894, -0.10024853050708771, 0.15605014562606812, 0.06991750001907349, 0.1734085977077484, 0.04338383674621582, 0.17829054594039917, -0.011572688817977905, 0.10803791880607605, -0.015036538243293762, 0.038905128836631775, -0.06036808341741562, -0.037920787930488586, 0.10741505026817322], [0.02340976893901825, -0.10654570907354355, -0.06696885079145432, -0.037089064717292786, 0.06298716366291046, 0.09399431943893433, -0.1606447994709015, -0.14504578709602356, -0.12348335236310959, 0.04442238807678223, 0.1499711573123932, -0.03481292724609375, 0.007321670651435852, -0.11973900347948074, -0.052239447832107544, -0.16816918551921844, -0.014100566506385803, 0.10652390122413635, -0.06113630533218384, 0.15789714455604553, 0.05137471854686737, 0.17147716879844666, 0.0358048677444458, 0.17403197288513184, -0.026224195957183838, 0.10568016767501831, -0.01594182848930359, -0.09671447426080704, -0.02536056935787201, -0.011541828513145447], [0.05599367618560791, 0.14533835649490356, 0.1676032841205597, 0.05591540038585663, -0.18137772381305695, 0.07926848530769348, 0.17207717895507812, 0.12042474746704102, 0.17386668920516968, 0.1728230118751526, 0.16254261136054993, 0.1232672929763794, -0.003131374716758728, -0.00282895565032959, -0.04206177592277527, 0.1481013000011444, -0.09856752306222916, -0.027181431651115417, 0.10420942306518555, 0.16365274786949158, -0.05683580040931702, -0.17403368651866913, -0.1719810962677002, -0.13588306307792664, 0.10698896646499634, -0.021336629986763, -0.12782561779022217, 0.05500447750091553, 0.16719958186149597, 0.03949059545993805], [0.14253643155097961, 0.05274941027164459, -0.1656142920255661, 0.16200697422027588, 0.03602162003517151, 0.02385839819908142, -0.13428306579589844, 0.040677428245544434, -0.0021342933177948, -0.054820716381073, 0.1690678596496582, -0.12078961730003357, 0.10833969712257385, -0.021091297268867493, -0.03655010461807251, -0.019316568970680237, -0.013832688331604004, 0.06839990615844727, -0.1155693531036377, -0.021531999111175537, -0.011457934975624084, 0.11134129762649536, -0.0879245325922966, -0.16416820883750916, -0.13791510462760925, 0.17249387502670288, 0.09367021918296814, 0.01565934717655182, 0.006253451108932495, 0.035714149475097656], [-0.12804195284843445, 0.04210147261619568, -0.003621339797973633, -0.14193066954612732, -0.1227225735783577, 0.14192059636116028, -0.07700574398040771, -0.11054319888353348, -0.08496307581663132, 0.06713715195655823, -0.09936253726482391, 0.08632111549377441, -0.04405468702316284, -0.049265533685684204, -0.04594230651855469, -0.005595877766609192, -0.17530596256256104, 0.13189181685447693, 0.11301624774932861, 0.15167587995529175, 0.0016036182641983032, 0.12058979272842407, -0.01113063097000122, -0.031219452619552612, 0.11219048500061035, 0.11594411730766296, -0.025868698954582214, 0.06691165268421173, 0.0658179521560669, 0.06434620916843414], [-0.0008119195699691772, 0.15009063482284546, -0.1393573135137558, -0.07374748587608337, -0.005560010671615601, -0.11789412796497345, 0.02946949005126953, 0.057738855481147766, 0.061429738998413086, -0.0018622875213623047, 0.05599500238895416, 0.0052165687084198, 0.16215509176254272, -0.12800191342830658, -0.04788176715373993, 0.1311829388141632, -0.09477385878562927, -0.17436736822128296, 0.18090051412582397, -0.14581537246704102, -0.11855196207761765, 0.06871622800827026, -0.13951285183429718, -0.07060462236404419, 0.12394136190414429, -0.006430506706237793, 0.019422397017478943, -0.05117495357990265, 0.150514155626297, 0.025127246975898743], [-0.1325693279504776, -0.009971380233764648, -0.12390148639678955, 0.18224281072616577, -0.10336150974035263, -0.016810208559036255, 0.04821619391441345, 0.17779016494750977, 0.10590341687202454, 0.15556326508522034, 0.029999569058418274, 0.08954998850822449, 0.030102789402008057, -0.17999562621116638, -0.16712822020053864, 0.03991664946079254, 0.08065164089202881, 0.11591503024101257, 0.09298989176750183, 0.06579135358333588, 0.1363530457019806, -0.0717569887638092, 0.03938360512256622, 0.14396890997886658, 0.1620456874370575, 0.11564183235168457, 0.058530330657958984, 0.09155938029289246, 0.1567838490009308, 0.07456997036933899], [-0.10912047326564789, -0.018032163381576538, -0.1695249229669571, -0.17677243053913116, 0.08693256974220276, 0.054089710116386414, -0.0025914162397384644, 0.15869414806365967, 0.09417951107025146, 0.14384198188781738, 0.14880028367042542, 0.14739426970481873, 0.062081873416900635, 0.12017583847045898, 0.16997015476226807, -0.1509149819612503, 0.15777552127838135, -0.005229175090789795, 0.01585182547569275, 0.018346041440963745, -0.0197153240442276, 0.04975394904613495, 0.024602070450782776, -0.1647774577140808, 0.020025044679641724, 0.17651468515396118, -0.10102659463882446, -0.1710975617170334, -0.03487125039100647, 0.1737910509109497], [-0.013448074460029602, -0.0230371356010437, -0.07745431363582611, 0.07639661431312561, 0.060420334339141846, 0.10240644216537476, -0.07878858596086502, -0.16737055778503418, 0.14535272121429443, -0.17828728258609772, 0.0055382102727890015, 0.13013917207717896, 0.15258890390396118, -0.008940979838371277, 0.09712722897529602, -0.06445006281137466, 0.008292466402053833, 0.016626209020614624, -0.08441320061683655, 0.009445637464523315, 0.1265159249305725, 0.07102999091148376, 0.11328402161598206, -0.08033213019371033, -0.05153118073940277, -0.07259257137775421, 0.13185176253318787, 0.015022233128547668, -0.09638427942991257, -0.10872690379619598], [-0.15428370237350464, -0.09116102755069733, -0.09814438223838806, -0.14910462498664856, 0.17641538381576538, 0.12970328330993652, -0.009636908769607544, -0.14108231663703918, -0.003467574715614319, 0.14442023634910583, 0.031209200620651245, 0.0438382625579834, 0.07571062445640564, -0.08398950845003128, 0.04593105614185333, 0.0529746413230896, -0.1650020182132721, 0.019803091883659363, -0.051895976066589355, -0.13250988721847534, -0.10308525711297989, 0.019436240196228027, -0.03097975254058838, -0.10617316514253616, 0.08760976791381836, -0.11693170666694641, -0.0023254305124282837, 0.039170220494270325, 0.17118164896965027, -0.10287252813577652], [-0.016734227538108826, -0.046110332012176514, 0.16364973783493042, -0.11833497136831284, 0.15417996048927307, 0.10095426440238953, -0.12899602949619293, -0.1789930909872055, -0.12195208668708801, -0.11613192409276962, -0.11137602478265762, 0.041888922452926636, 0.15620332956314087, -0.1533452272415161, -0.15436899662017822, 0.11332446336746216, 0.024254292249679565, 0.0022708475589752197, -0.11975408345460892, -0.05106724798679352, -0.06928000599145889, -0.05301249027252197, 0.1437075138092041, -0.02773374319076538, -0.03074774146080017, 0.14431998133659363, -0.10337640345096588, -0.17767098546028137, -0.181492879986763, -0.17014776170253754], [-0.028598561882972717, 0.11689874529838562, -0.14626237750053406, -0.0782981887459755, 0.0775899589061737, 0.09729999303817749, 0.11504089832305908, -0.0600719079375267, 0.022591397166252136, 0.15366947650909424, 0.08696550130844116, -0.025853797793388367, 0.12286952137947083, -0.17267464101314545, 0.005941241979598999, 0.12395593523979187, -0.03639346361160278, 0.139949232339859, -0.1406385600566864, -0.014198079705238342, 0.16526421904563904, 0.13239771127700806, -0.1188109815120697, 0.09513995051383972, -0.08171141147613525, -0.01713259518146515, 0.1528031826019287, 0.026062726974487305, -0.043003007769584656, -0.06738947331905365], [-0.10014662891626358, 0.051764994859695435, -0.14199241995811462, 0.11165407299995422, -0.02385002374649048, 0.1704411804676056, 0.13412171602249146, -0.058676235377788544, -0.10730411857366562, -0.1321171671152115, -0.12615634500980377, -0.029876619577407837, -0.13557752966880798, 0.013407588005065918, -0.029955685138702393, 0.15119212865829468, -0.13379813730716705, -0.18008729815483093, -0.11717252433300018, 0.13294458389282227, 0.025873765349388123, -0.054184749722480774, 0.1686454713344574, -0.02638162672519684, 0.09898930788040161, 0.11034619808197021, 0.16197198629379272, 0.020387932658195496, -0.1694386601448059, -0.02791135013103485], [0.07469451427459717, -0.01180259883403778, 0.04531019926071167, 0.06329309940338135, -0.06210023909807205, -0.15443553030490875, -0.012783080339431763, 0.09749534726142883, 0.02233050763607025, 0.1608341932296753, -0.14709973335266113, 0.06127771735191345, 0.01376374065876007, -0.039000943303108215, 0.014202862977981567, -0.17173036932945251, -0.14449366927146912, 0.1490027904510498, -0.03342622518539429, 0.17694690823554993, -0.09244564175605774, -0.15114817023277283, 0.08231434226036072, 0.030343875288963318, -0.026528209447860718, -0.13790453970432281, -0.16048891842365265, 0.15503495931625366, -0.06671381741762161, 0.13703468441963196], [0.11898598074913025, 0.12727543711662292, -0.07976529002189636, 0.0016247183084487915, 0.07991206645965576, -0.13252168893814087, -0.16128332912921906, 0.07901173830032349, -0.16760946810245514, 0.026526927947998047, 0.0375857949256897, -0.09951650351285934, -0.1203349381685257, 0.004628166556358337, -0.13484419882297516, 0.10732945799827576, 0.13311156630516052, -0.03347150981426239, -0.13552941381931305, -0.038006603717803955, -0.012994349002838135, 0.14981845021247864, 0.08635738492012024, 0.11330011487007141, -0.09188424795866013, -0.17817534506320953, -0.01942901313304901, 0.17965206503868103, -0.14536908268928528, -0.18103769421577454], [0.17706206440925598, 0.12665405869483948, -0.12838877737522125, -0.04204811155796051, 0.03417561948299408, -0.01555873453617096, 0.07574376463890076, 0.15176138281822205, -0.018255069851875305, 0.06414978206157684, 0.06509646773338318, -0.053385958075523376, 0.12299013137817383, 0.14062759280204773, 0.07501432299613953, 0.07992109656333923, -0.05869188904762268, -0.10130558907985687, 0.1644158661365509, 0.017043545842170715, 0.008220851421356201, 0.14089083671569824, -0.11161047220230103, -0.06485804170370102, -0.10471063107252121, -0.009933903813362122, 0.08254238963127136, -0.055863723158836365, 0.13713330030441284, -0.1740000694990158], [-0.17895662784576416, -0.1252794861793518, -0.09728463739156723, 0.09504657983779907, 0.09295788407325745, 0.14153599739074707, -0.06187118589878082, -0.06558656692504883, 0.13630887866020203, 0.0012952536344528198, 0.07389241456985474, -0.12111173570156097, -0.05484551191329956, -0.07477888464927673, -0.027209118008613586, -0.14668291807174683, -0.1772611290216446, -0.04462577402591705, 0.09882760047912598, 0.034849926829338074, 0.17173811793327332, -0.04548121988773346, 0.07841372489929199, 0.03488592803478241, -0.1805265098810196, 0.06883642077445984, -0.16443932056427002, 0.003376796841621399, -0.16946835815906525, 0.07759842276573181]], [0.09397545456886292, 0.08438432216644287, -0.13276547193527222, 0.04007937014102936, 0.10322579741477966, -0.05797304958105087, -0.02610062062740326, -0.0912172719836235, 0.05902814865112305, 0.031156226992607117, -0.10742445290088654, 0.15395745635032654, -0.10214698314666748, 0.18196028470993042, 0.012668490409851074, -0.046898141503334045, -0.16454634070396423, 0.014436349272727966, 0.03000757098197937, -0.1107013002038002, -0.09509318321943283, 0.08937308192253113, -0.06610392779111862, -0.18159018456935883, 0.0010236501693725586, 0.142255961894989, -0.01653134822845459, -0.04178515076637268, -0.0919228121638298, -0.0450061559677124, 0.16872084140777588, -0.13999710977077484, 0.05072173476219177, -0.045326828956604004, -0.006052389740943909, -0.1718599945306778, 0.07531037926673889, 0.1553000509738922, -0.13466784358024597, -0.1424119770526886, -0.11211353540420532, -0.07313009351491928, 0.16541531682014465, 0.04922856390476227, -0.1196417361497879, 0.1627732515335083, -0.023714199662208557, -0.015615493059158325, -0.10768843442201614, -0.10203877091407776, 0.14604881405830383, -0.09227215498685837, -0.07402252405881882, -0.1630898416042328, 0.1269633173942566, 0.03156097233295441, -0.03789161145687103, -0.04832519590854645, -0.16902607679367065, -0.03029686212539673, -0.1245529055595398, -0.14786359667778015, 0.020161554217338562, -0.08363372087478638, -0.004210919141769409, -0.1087900921702385, 0.17771077156066895, 0.07284706830978394, 0.04055699706077576, -0.054125577211380005]], [[[-0.05018123239278793, -0.1147172749042511, 0.025616265833377838, -0.051293134689331055, -0.08200768381357193, -0.08830925077199936, 0.040492571890354156, 0.1162627711892128, 0.042815349996089935, -0.07229827344417572, 0.06984519213438034, -0.02838689088821411, -0.035889171063899994, -0.11393759399652481, 0.08056735247373581, 0.025368906557559967, 0.0045391470193862915, 0.011988483369350433, -0.012055948376655579, -0.008823834359645844, -0.040158435702323914, 0.11848462373018265, -0.026347652077674866, 0.01244201511144638, 0.05476003140211105, -0.021275594830513, 0.014847718179225922, 0.04879479855298996, 0.07819066196680069, -0.04810727387666702, -0.11610367149114609, 0.07282226532697678, -0.030368633568286896, 0.012211509048938751, 0.08240433782339096, -0.056131720542907715, 0.05931109935045242, -0.08309601247310638, 0.027294225990772247, 0.07432466000318527, 0.04737622290849686, -0.020656436681747437, 0.08473960310220718, 0.05196341127157211, 0.08051327615976334, 0.09015227109193802, -0.054177217185497284, 0.10187023133039474, -0.10847019404172897, 0.11653793603181839, -0.08572694659233093, 0.08595406264066696, 0.043039046227931976, 0.004277758300304413, -0.0626882016658783, 0.02514701336622238, 0.07190405577421188, 0.09934297949075699, -0.030599653720855713, 0.006415940821170807, 0.03936939686536789, -0.08637526631355286, -0.09395864605903625, 0.08884628862142563, 0.055569522082805634, -0.08653239905834198, 0.0017485544085502625, 0.05075538903474808, 0.01680808514356613, -0.08480498194694519], [0.09519340842962265, -0.11685385555028915, 0.03704804927110672, -0.05758179351687431, -0.041697487235069275, 0.04735194891691208, -0.02865050733089447, -0.009125322103500366, -0.10346528887748718, 0.011770255863666534, 0.023247338831424713, -0.039806731045246124, 0.090514175593853, -0.01975879818201065, 0.04160172492265701, 0.09789147228002548, 0.017129607498645782, -0.030785419046878815, 0.04152031987905502, -0.023338697850704193, 0.028161369264125824, 0.013588227331638336, 0.049257926642894745, -0.055084437131881714, -0.026242315769195557, 0.05126427859067917, -0.11595287919044495, -0.01101560890674591, 0.06280481070280075, 0.043228231370449066, -0.1117296889424324, 0.10544826835393906, 0.07126498967409134, 0.04893646389245987, 0.018049456179142, 0.0745733454823494, -0.08103927969932556, 0.009847603738307953, -0.10570017993450165, 0.0705392137169838, -0.013973899185657501, -0.0288303941488266, -0.03144071251153946, 0.10479829460382462, 0.08584452420473099, -0.10426885634660721, 0.10960351675748825, 0.040152497589588165, 0.1094968393445015, 0.010744430124759674, -0.015471942722797394, 0.07958454638719559, 0.11561089009046555, -0.04706777632236481, 0.10940849035978317, -0.02777867019176483, 0.05144352465867996, 0.06112191826105118, 0.0043154507875442505, -0.035598307847976685, -0.08334429562091827, 0.07522258907556534, 0.04794824868440628, 0.03325112909078598, -0.09294307976961136, -0.10751692950725555, 0.0635572299361229, 0.0118890181183815, -0.02690565586090088, 0.02973707765340805], [0.07398220151662827, 0.034734658896923065, -0.1103198230266571, -0.06682583689689636, -0.06948567926883698, 0.11677279323339462, 0.04564551264047623, 0.045784421265125275, -0.09709455817937851, -0.030209533870220184, -0.05454731732606888, 0.0653933510184288, -0.08228220790624619, -0.021338187158107758, -0.07921255379915237, -0.0856933444738388, 0.042370088398456573, 0.08786765486001968, -0.04777434468269348, 0.11760590225458145, -0.07577760517597198, 0.08808285742998123, -0.0167982280254364, 0.006912030279636383, -0.07573263347148895, 0.11544991284608841, 0.01812192052602768, -0.046798013150691986, -0.02340841293334961, -0.09900552034378052, -0.04230235517024994, -0.06188178062438965, 0.06657547503709793, -0.10532651841640472, 0.05862952023744583, -0.0015525594353675842, -0.07729236036539078, 0.06919049471616745, 0.027694590389728546, 0.11050666123628616, 0.0026866793632507324, 0.09741473942995071, 0.07015467435121536, 0.034734614193439484, 0.09066931158304214, 0.10477017611265182, -0.03519197553396225, 0.02542193979024887, -0.07457681745290756, 0.08217351883649826, 0.03147844225168228, -0.1055077388882637, 0.09877117723226547, -0.06462658941745758, 0.09957676380872726, -0.06447860598564148, -0.022471703588962555, 0.011144094169139862, -0.11729784309864044, -0.04521752893924713, -0.0058660805225372314, 0.03226868063211441, -0.04711804538965225, -0.052979983389377594, -0.032850660383701324, 0.0006946846842765808, -0.02878960222005844, 0.09311696141958237, -0.0070762187242507935, 0.0030292347073554993], [0.02687268704175949, 0.10302195698022842, -0.07315607368946075, -0.09986035525798798, -0.11157995462417603, 0.09107203036546707, 0.1003880426287651, -0.11598411202430725, 0.012737266719341278, 0.06641761213541031, 0.047971926629543304, 0.07084479182958603, -0.009529843926429749, -0.08496161550283432, -0.027891188859939575, -0.03833398222923279, 0.035853125154972076, 0.11288940161466599, -0.0805947482585907, -0.008835986256599426, 0.08180136233568192, -0.057543523609638214, 0.02164464443922043, 0.09047264605760574, -0.08659397810697556, -0.020669519901275635, 0.09188356250524521, -0.062336500734090805, 0.05572297424077988, -0.05780155956745148, -0.09944175183773041, 0.05418046563863754, 0.05553927272558212, 0.06605107337236404, 0.07683735340833664, 0.048154331743717194, 0.06917669624090195, -0.050457678735256195, -0.0193290114402771, 0.06356381624937057, 0.031705476343631744, -0.030443206429481506, -0.05662214756011963, 0.11579973250627518, 0.0007609575986862183, -0.061387836933135986, 0.07838437706232071, -0.02403014898300171, -0.05394880473613739, 0.07303992658853531, 0.025003693997859955, 0.01576889306306839, 0.09068839997053146, -0.0007540583610534668, -0.002276994287967682, -0.08527892827987671, -0.03985276818275452, -0.09711437672376633, 0.04807998985052109, -0.009559296071529388, 0.049811892211437225, 0.0794822946190834, 0.06568299978971481, 0.03561615198850632, -0.012874878942966461, 0.021105922758579254, 0.07673082500696182, -0.11397051066160202, -0.03405386954545975, 0.051870159804821014], [0.11545491963624954, 0.11643337458372116, 0.04017127305269241, -0.10049937665462494, 0.05441846698522568, -0.11332683265209198, -0.06746794283390045, 0.1057453528046608, -0.054387398064136505, 0.07112667709589005, -0.027199499309062958, 0.04381244629621506, -0.026117756962776184, 0.07733192294836044, -0.026410840451717377, -0.11132603883743286, 0.04196613281965256, -0.11118002235889435, -0.005298234522342682, 0.1131116971373558, 0.08426762372255325, 0.01269424706697464, -0.03918380290269852, -0.08970488607883453, -0.06837564706802368, -0.06721457839012146, -0.08954069763422012, 0.11836691945791245, 0.027713336050510406, 0.11526932567358017, -0.022277601063251495, -0.095640629529953, 0.1010599210858345, 0.0695752426981926, -0.04916295409202576, -0.001723751425743103, -0.11163368821144104, -0.03601054847240448, 0.0924079492688179, 0.07822316139936447, -0.022785790264606476, 0.07368411868810654, 0.009854115545749664, 0.025992147624492645, -0.07955010235309601, -0.005300760269165039, -0.08460916578769684, -0.11804379522800446, 0.01591408997774124, -0.078560471534729, 0.0842500850558281, -0.011784985661506653, 0.07549861818552017, -0.026783332228660583, 0.1089586690068245, -0.07102736830711365, -0.03703750669956207, 0.08084847778081894, -0.09274334460496902, 0.07112232595682144, -0.06729960441589355, 0.01970171183347702, -0.08067916333675385, 0.11703268438577652, 0.08012654632329941, -0.08368171006441116, -0.09449975192546844, 0.0004401281476020813, 0.0800032690167427, 0.010804839432239532], [0.006832920014858246, 0.041474662721157074, -0.08156419545412064, -0.10087240487337112, 0.1131080910563469, 0.05466815084218979, -0.11086548864841461, 0.049235694110393524, -0.07295513898134232, -0.09067893028259277, 0.08717367798089981, 0.04607010632753372, 0.07838430255651474, -0.11202962696552277, 0.10953884571790695, -0.063408762216568, -0.0018894597887992859, 0.10347751528024673, 0.06756553798913956, -0.08602457493543625, -0.08908186107873917, 0.07860717922449112, -0.06766263395547867, -0.07944685220718384, 0.06973753124475479, -0.057708900421857834, -0.08498616516590118, 0.019471637904644012, 0.09390763193368912, 0.048449404537677765, 0.020276211202144623, -0.031790561974048615, 0.03202778846025467, -0.034727394580841064, 0.10727594047784805, 0.033065758645534515, -0.06575307250022888, -0.09233012050390244, 0.030504055321216583, -0.1100008636713028, 0.11848174780607224, 0.028905056416988373, -0.06171563267707825, 0.03493886440992355, 0.07213585823774338, 0.0957942083477974, 0.060435615479946136, -0.08904945850372314, 0.0036309510469436646, -0.059722546488046646, -0.07829675078392029, 0.11174509674310684, 0.05043841153383255, -0.03498122841119766, 0.0667998269200325, 0.003933966159820557, -0.08164643496274948, 0.10859241336584091, -0.06724275648593903, 0.11543329805135727, 0.005395717918872833, -0.025672994554042816, -0.0016010776162147522, -0.07357318699359894, -0.056740760803222656, 0.10317451506853104, 0.07304304093122482, -0.09522560238838196, 0.07729090005159378, -0.07474683225154877], [0.07543937116861343, -0.09041659533977509, -0.09638658910989761, -0.10008247196674347, 0.04849272221326828, 0.027591370046138763, -0.05224189907312393, -0.10410334914922714, 0.08510728925466537, 0.08891696482896805, -0.11648409813642502, 0.029479391872882843, 0.06665628403425217, 0.05950260907411575, 0.0384652242064476, 0.10455290228128433, 0.01491517573595047, 0.02738950401544571, 0.047727592289447784, -0.09995708614587784, 0.016531415283679962, 0.04522434622049332, 0.043447233736515045, -0.07765201479196548, 0.0038775578141212463, 0.008406542241573334, 0.053164683282375336, 0.05058375746011734, 0.11387664824724197, 0.07690983265638351, -0.01131553202867508, -0.06478095799684525, -0.02973749488592148, 0.1167009249329567, 0.061271198093891144, -0.11421908438205719, -0.07310368120670319, 0.08386490494012833, -0.0687854215502739, -0.01366192102432251, -0.07590971142053604, -0.03495052456855774, 0.04197249561548233, -0.09112706780433655, -0.015577137470245361, 0.08374110609292984, -0.045930638909339905, 0.05089595168828964, 0.062391944229602814, 0.06612072139978409, -0.09169577062129974, 0.012972705066204071, -0.06590321660041809, 0.07467330247163773, 0.03007454425096512, 0.07268550246953964, 0.07025260478258133, -0.09016485512256622, -0.045786432921886444, -0.018188729882240295, -0.10321970283985138, 0.012612856924533844, 0.006572462618350983, -0.10351589322090149, -0.018859006464481354, 0.036859385669231415, 0.06881167739629745, 0.02444177120923996, 0.06899984925985336, 0.06123114377260208], [0.10250192135572433, -0.11074654757976532, 0.03483896702528, -0.11936494708061218, 0.013400383293628693, -0.05221901088953018, 0.09344161301851273, 0.029970921576023102, -0.07610287517309189, 0.01659581810235977, 0.0994943305850029, 0.005840875208377838, 0.037408746778964996, 0.035902924835681915, 0.08010283857584, -0.04539535939693451, 0.05649269372224808, -0.016622021794319153, -0.11884008347988129, 0.05421843379735947, -0.11417484283447266, -0.018519327044487, 0.015808619558811188, -0.10237085074186325, -0.11447719484567642, -0.005749449133872986, -0.03626476228237152, 0.04639866203069687, -0.07990776747465134, -0.034849613904953, -0.09850360453128815, -0.030571483075618744, 0.04919707030057907, -0.08516460657119751, 0.02803540974855423, 0.0680389478802681, -0.05105842649936676, -0.008935138583183289, -0.0703277662396431, -0.01598968356847763, 0.029367662966251373, -0.11604150384664536, 0.09313365072011948, 0.04971630126237869, 0.03931676596403122, -0.03432827442884445, 0.1076362207531929, 0.07626865059137344, -0.08161555975675583, -0.09354241192340851, 0.05691728740930557, 0.1082788035273552, 0.11335613578557968, -0.049454301595687866, -0.09235873073339462, 0.009011901915073395, 0.003815680742263794, -0.08461835980415344, 0.08387307077646255, 0.05225106328725815, 0.0039638131856918335, -0.05509570240974426, 0.043110258877277374, -0.02401748299598694, -0.056645214557647705, 0.08864607661962509, 0.10959648340940475, -0.07888630032539368, 0.09001701325178146, 0.0010028183460235596], [0.06485862284898758, -0.02317541092634201, 0.11027976125478745, 0.10862848907709122, 0.06437831372022629, 0.06444036215543747, 0.08266701549291611, 0.11660761386156082, 0.07236332446336746, 0.10129592567682266, -0.00010456889867782593, 0.030144862830638885, -0.08529385924339294, -0.04655866324901581, 0.0672815665602684, 0.07140924781560898, -0.022208042442798615, -0.017896868288517, 0.030777372419834137, 0.07713765650987625, 0.0911364033818245, 0.10891143232584, -0.03204914182424545, 0.03247580677270889, 0.04588659852743149, 0.10334471613168716, -0.06617288291454315, 0.07882113009691238, 0.04291412979364395, 0.02158612757921219, 0.09593801945447922, -0.09477698057889938, -0.04734044522047043, -0.09849286824464798, 0.08004970103502274, 0.016566388309001923, -0.08799512684345245, -0.03231425583362579, 0.04187542945146561, 0.10765378922224045, -0.05937058851122856, -0.1025167927145958, 0.04180332273244858, 0.04832089692354202, -0.03662391006946564, -0.012291669845581055, -0.03996112942695618, -0.012042082846164703, 0.09655078500509262, -0.08198453485965729, -0.08411180973052979, -0.116451695561409, -0.0994347482919693, -0.06598703563213348, 0.03863389045000076, -0.11813515424728394, 0.018360920250415802, -0.0676821917295456, -0.046854324638843536, -0.06104375794529915, 0.0792170837521553, -0.047340378165245056, 0.09996180981397629, -0.04687826335430145, 0.05707233399152756, -0.014967299997806549, 0.04071632772684097, -0.07431726157665253, -0.008954301476478577, -0.1043829619884491], [0.06711370497941971, 0.04081708937883377, 0.005359858274459839, 0.04821305721998215, -0.08483313769102097, 0.041653312742710114, -0.008989214897155762, 0.06622908264398575, -0.11087366938591003, 0.05769006162881851, -0.07332336902618408, -0.04295073449611664, 0.04441749304533005, -0.0627172589302063, 0.051359646022319794, -0.024555012583732605, -0.07221119850873947, 0.0687541738152504, 0.023775972425937653, 0.08107202500104904, -0.03604899346828461, 0.07399595528841019, 0.09895706921815872, -0.015835002064704895, 0.09230636805295944, -0.10131539404392242, 0.04943368583917618, -0.07982757687568665, -0.10728951543569565, 0.05793309956789017, -0.025705471634864807, -0.044930599629879, -0.05695603787899017, -0.07692807912826538, 0.05338772386312485, 0.1117413118481636, 0.04045269638299942, -0.06503927707672119, -0.11726704984903336, -0.043107226490974426, -0.02092602849006653, 0.02091900259256363, -0.009547315537929535, -0.10393855720758438, 0.11276192218065262, -0.10931934416294098, -0.02562110871076584, -0.007982105016708374, -0.08691030740737915, -0.03774508833885193, -0.04782690852880478, -0.005240671336650848, 0.10707468539476395, -0.036285512149333954, -0.11750756204128265, -0.1003480851650238, -0.10407011210918427, 0.08750633150339127, -0.09175659716129303, -0.0412515327334404, 0.0007031932473182678, -0.10625763982534409, -0.00791601836681366, 0.09899785369634628, 0.07081296294927597, 0.03788193315267563, -0.035179704427719116, -0.023308217525482178, 0.02415793389081955, 0.02355676144361496], [0.015131793916225433, -0.004034802317619324, 0.0755365714430809, -0.06156603991985321, -0.05952027812600136, -0.02531386911869049, -0.036524057388305664, 0.0358123853802681, -0.10962358862161636, -0.06404902040958405, 0.08006980270147324, 0.07955422252416611, 0.06814602762460709, -0.029704034328460693, -0.016777195036411285, 0.033477090299129486, 0.04925122112035751, 0.0008798688650131226, 0.027343325316905975, 0.040920622646808624, -0.05768628790974617, -0.016301803290843964, -0.04345932602882385, -0.1035977229475975, 0.03451082855463028, 0.11265412718057632, -0.06971177458763123, -0.11223877966403961, -0.08448080718517303, -0.015939615666866302, -0.08668996393680573, -0.11201836168766022, 0.0896068885922432, 0.08514333516359329, 0.08737171441316605, -0.05329110473394394, -0.017494484782218933, -0.023712411522865295, -0.007720522582530975, 0.006708122789859772, -0.08465304225683212, 0.061186350882053375, 0.06871890276670456, -0.057196080684661865, -0.002594873309135437, 0.07722268253564835, 0.0255105122923851, -0.011116385459899902, -0.08440105617046356, -0.06112242117524147, 0.08299397677183151, -0.02670518308877945, 0.0463460311293602, 0.09327495843172073, -0.1166960671544075, -0.10908641666173935, -0.01327235996723175, 0.043805189430713654, -0.11908844858407974, 0.056940577924251556, -0.10313163697719574, -0.012890562415122986, -0.0700315311551094, 0.11097788065671921, 0.11565818637609482, -0.07446736097335815, 0.018752120435237885, -0.07527713477611542, -0.03848563879728317, 0.08834246546030045], [0.04516089707612991, -0.11280930787324905, -0.09036187827587128, 0.009495534002780914, -0.0760345384478569, 0.03641050308942795, -0.09165408462285995, 0.08735755831003189, -0.08061560988426208, 0.009200505912303925, -0.07079395651817322, 0.10100329667329788, 0.11399044841527939, 0.077524833381176, -0.011003538966178894, 0.06529966741800308, -0.08509214222431183, 0.11909741908311844, 0.09746036678552628, 0.10603281110525131, -0.01943376660346985, 0.07966779917478561, -0.05291925370693207, -0.08991752564907074, 0.017658360302448273, -0.005355656147003174, -0.006707601249217987, -0.10952892154455185, 0.016429640352725983, 0.055490098893642426, -0.0681416317820549, -0.03960619121789932, -0.040189288556575775, -0.03253635764122009, 0.09605132788419724, 0.016248323023319244, 0.07630100101232529, -0.05100478231906891, 0.056703753769397736, 0.11411800235509872, 0.05251852422952652, -0.039619557559490204, -0.006234027445316315, 0.006745047867298126, -0.04929393529891968, -0.10214075446128845, -0.06950977444648743, 0.09832984954118729, 0.0883110985159874, 0.011801369488239288, 0.0977957621216774, -0.006237633526325226, 0.05865585058927536, -0.11068785935640335, -0.060245901346206665, -0.01769670844078064, -0.07274480909109116, -0.08751166611909866, 0.09244271367788315, 0.10673410445451736, 0.06469181925058365, -0.004093334078788757, 0.033288829028606415, -0.04563681036233902, -0.08251755684614182, -0.03727225959300995, -0.06258586049079895, -0.0874653309583664, 0.014879785478115082, -0.004999831318855286], [-0.09306395798921585, -0.03960894048213959, 0.0016591772437095642, 0.08035833388566971, -0.07034339755773544, 0.06997043639421463, -0.03532392531633377, 0.0743706002831459, -0.07542265951633453, -0.06515562534332275, 0.07692498713731766, -0.01663270592689514, 0.017569027841091156, 0.06904924660921097, -0.02829679846763611, -0.035386502742767334, 0.11743468791246414, 0.10703084617853165, -0.04982510954141617, -0.0008672922849655151, 0.04218725115060806, 0.008594803512096405, -0.08935349434614182, -0.10375189036130905, 0.10031230002641678, -0.07125495374202728, -0.0031738951802253723, 0.040539391338825226, -0.01263522356748581, 0.11111647635698318, 0.09899856895208359, 0.01554705947637558, -0.020229771733283997, 0.08639612048864365, -0.05522741377353668, 0.0010278522968292236, -0.10036461055278778, 0.11793792992830276, -0.07299517840147018, -0.04606000334024429, 0.11593250185251236, 0.003836236894130707, 0.030913718044757843, -0.02394460141658783, -0.11288398504257202, 0.05839770287275314, -0.029543504118919373, 0.11284229904413223, 0.08148816972970963, 0.1168108806014061, -0.07570639252662659, -0.053228557109832764, 0.08002237230539322, -0.003901951014995575, -0.05181702971458435, -0.046106718480587006, -0.1094062328338623, -0.006291620433330536, 0.09386958926916122, 0.09056893736124039, -0.023252025246620178, 0.07782276719808578, -0.10325419902801514, -0.11317025870084763, 0.02364928275346756, 0.11485687643289566, 0.04023859649896622, 0.10581684857606888, -0.10661055147647858, -0.03661273419857025], [-0.10257147997617722, 0.04335934668779373, -0.08604978024959564, -0.011564448475837708, 0.05363554507493973, -0.11904836446046829, -0.057914260774850845, -0.0249570831656456, 0.002512022852897644, -0.006948739290237427, -0.016142792999744415, -0.09848345816135406, -0.0058639198541641235, 0.002287343144416809, -0.11502829939126968, -0.03803938627243042, -0.012019455432891846, 0.07117962092161179, -0.028929956257343292, 0.06410913914442062, 0.08671049028635025, 0.0776490792632103, -0.019458390772342682, 0.07903449982404709, 0.0072522833943367004, 0.0966152623295784, 0.1057029739022255, -0.06965520977973938, -0.08627191185951233, 0.1012832447886467, 0.07180579751729965, -0.011993356049060822, -0.029359817504882812, -0.005695320665836334, -0.0731286108493805, -0.003546386957168579, 0.010849826037883759, 0.0391349121928215, 0.08864457160234451, 0.035047076642513275, 0.09583064168691635, -0.039384447038173676, -0.020402416586875916, 0.06826188415288925, -0.08702507615089417, 0.10503240674734116, -0.10586000233888626, -0.03565813601016998, -0.03737381845712662, 0.11086039990186691, -0.06807176768779755, -0.07214325666427612, 0.03628019243478775, 0.07209988683462143, 0.0852227583527565, -0.03599148243665695, 0.007693685591220856, 0.0968318060040474, 0.0685042068362236, -0.08252999186515808, 0.09796949476003647, 0.036401353776454926, 0.0865001305937767, -0.11899781227111816, 0.019157789647579193, -0.0431070551276207, 0.07731301337480545, 0.06657471507787704, 0.10051489621400833, -0.10141050815582275], [-0.09857793152332306, -0.03441131114959717, -0.07550536096096039, -0.005583681166172028, -0.1006976068019867, 0.01822560280561447, -0.10172124207019806, 0.11923561245203018, 0.11383125931024551, -0.085941381752491, -0.09596291929483414, 0.10735606402158737, 0.040722183883190155, -0.03961344063282013, -0.03326161950826645, 0.07340788096189499, 0.04060884565114975, 0.03706086426973343, 0.09953270107507706, -0.11513769626617432, 0.0757673904299736, -0.040071040391922, 0.005188249051570892, 0.10895461589097977, -0.05496826767921448, -0.0945194736123085, 0.11616114526987076, -0.040212780237197876, -0.011441133916378021, 0.08070302754640579, 0.09239586442708969, 0.02177198976278305, -0.0878826305270195, -0.004934065043926239, 0.09770745784044266, -0.04417641460895538, -0.049637846648693085, 0.11568295210599899, -0.1193685531616211, 0.03407081216573715, -0.06649044156074524, 0.006796814501285553, 0.0988997295498848, -0.04022456705570221, 0.07547961920499802, -0.018743380904197693, -0.0012794509530067444, 0.10954798012971878, -0.04375039041042328, -0.11761010438203812, -0.11053989082574844, -0.0894230529665947, 0.0001456141471862793, -0.050280168652534485, -0.11486110836267471, -0.08933030813932419, -0.061168670654296875, 0.06514032930135727, 0.0937453880906105, 0.03795269876718521, 0.02851695567369461, -0.055105261504650116, 0.048994146287441254, 0.00702289491891861, -0.028912007808685303, -0.0343470498919487, 0.09621421247720718, 0.06319568306207657, -0.05059206485748291, -0.05851173400878906], [0.05141877382993698, 0.02167157083749771, 0.07842765003442764, 0.007437862455844879, 0.0008674487471580505, 0.04653239995241165, 0.012080870568752289, 0.09294839948415756, -0.08193190395832062, 0.05939679592847824, -0.03560907393693924, -0.10503025352954865, 0.048546887934207916, -0.09837616980075836, 0.04295239597558975, 0.06845087558031082, 0.020431898534297943, -0.09765048325061798, 0.018792785704135895, 0.009063459932804108, 0.02416757494211197, -0.06569209694862366, 0.09444019943475723, 0.11762682348489761, 0.034277476370334625, -0.10667504370212555, -0.10731139779090881, 0.11506030708551407, 0.07973504811525345, 0.11097956448793411, 0.10447663813829422, -0.10790024697780609, -0.06653168052434921, -0.009647548198699951, -0.10265780985355377, 0.0028476938605308533, 0.0601896271109581, 0.0694594457745552, -0.06401097774505615, -0.09701060503721237, 0.08523603528738022, 0.01414240151643753, 0.11870311945676804, -0.11039461195468903, 0.0983690395951271, -0.0765635073184967, 0.09277335554361343, -0.09267482906579971, 0.03321806341409683, -0.08733689785003662, 0.061566971242427826, 0.08282142132520676, -0.0215340256690979, 0.08440522104501724, 0.0034406334161758423, 0.02011258155107498, 0.05501716583967209, 0.053367920219898224, -0.03206296265125275, 0.02016443759202957, -0.046716704964637756, -0.05120394378900528, -0.09612558037042618, 0.11813732236623764, 0.0779106542468071, 0.06443431228399277, -0.09234584867954254, -0.0007897242903709412, 0.08921218663454056, -0.023136310279369354], [-0.009355805814266205, -0.01526273787021637, -0.041987158358097076, -0.018239520490169525, 0.043277494609355927, -0.052458010613918304, -0.08578534424304962, 0.04262106865644455, 0.11387290805578232, 0.11426780372858047, 0.04981888085603714, -0.10211335867643356, -0.11531305313110352, 0.08943576365709305, 0.04476980119943619, -0.07007798552513123, -0.07693757861852646, -0.02840646356344223, -0.030331403017044067, -0.002881452441215515, -0.030005842447280884, -0.08649271726608276, 0.02989717572927475, -0.10247154533863068, -0.03657234460115433, -0.08320803940296173, -0.040796615183353424, 0.08108193427324295, 0.06897144764661789, -0.11056043952703476, -0.0011430531740188599, 0.09182821959257126, 0.06020822376012802, -0.05802300199866295, -0.03368788957595825, -0.07207606732845306, 0.09366694837808609, 0.11322233825922012, -0.09789107739925385, 0.10795732587575912, -0.06029009819030762, 0.026048116385936737, -0.008688375353813171, -0.06873702257871628, 0.015875034034252167, -0.05584188550710678, 0.01944657415151596, 0.08481178432703018, 0.07600156217813492, 0.03085065633058548, -0.06188686937093735, -0.015675581991672516, -0.0456889346241951, -0.0010164007544517517, -0.06421444565057755, 0.10251352936029434, 0.10565414279699326, 0.09147577732801437, -0.006251640617847443, 0.0754416212439537, -0.034090556204319, -0.0800475999712944, -0.03916145861148834, 0.03833804279565811, -0.07957977056503296, 0.027711831033229828, 0.051089175045490265, 0.08089946955442429, -0.09105007350444794, -0.07111550867557526], [-0.0069779157638549805, 0.09237963706254959, 0.0556894913315773, -0.02041368931531906, 0.09756306558847427, -0.018883146345615387, -0.03420820087194443, -0.0807732343673706, -0.09297884255647659, -0.07273249328136444, 0.06165171414613724, -0.11448951810598373, 0.11840122193098068, -0.085902638733387, -0.058763597160577774, -0.020190604031085968, -0.10731759667396545, -0.07961179316043854, 0.010630123317241669, 0.044067807495594025, -0.0866800844669342, 0.11086184531450272, 0.11608406156301498, -0.07560417056083679, -0.07071056962013245, 0.016971714794635773, 0.05739908665418625, 0.05529933422803879, -0.010434791445732117, -0.0011216476559638977, -0.07566332817077637, -0.07586425542831421, 0.08022446185350418, -0.01079406589269638, 0.022909246385097504, 0.04601540416479111, 0.08559315651655197, 0.09249002486467361, 0.06597716361284256, -0.04265245050191879, 0.08729966729879379, 0.056333087384700775, 0.055305205285549164, 0.005360297858715057, -0.1132134422659874, 0.05209077149629593, -0.0608290359377861, 0.04043733328580856, 0.11048320680856705, 0.11728616803884506, -0.018211014568805695, 0.11538387089967728, -0.09619519114494324, 0.11854655295610428, 0.025006942451000214, -0.11629660427570343, 0.055342771112918854, -0.08048893511295319, -0.039181120693683624, -0.04094953089952469, 0.06079993396997452, 0.016451559960842133, -0.04482857882976532, 0.012634657323360443, 0.08684767037630081, -0.08775152266025543, 0.025683782994747162, 0.04695308953523636, -0.09138910472393036, 0.04011263698339462], [0.09332642704248428, 0.1040683165192604, 0.10182992368936539, -0.05651167780160904, 0.06485443562269211, -0.09731416404247284, -0.02375655621290207, 0.07697681337594986, 0.0903903916478157, 0.05458325892686844, -0.10301994532346725, -0.025001168251037598, 0.03420468419790268, 0.05744130164384842, -0.06963402032852173, -0.04922313988208771, 0.10353163629770279, -0.09718382358551025, -0.026217468082904816, 0.020229153335094452, -0.08513622730970383, 0.052447907626628876, 0.03779161721467972, -0.0714031457901001, -0.08601917326450348, -0.017650283873081207, 0.014597423374652863, -0.08940670639276505, 0.05674474686384201, 0.04117795079946518, -0.06468409299850464, -0.02517145872116089, -0.01647869497537613, -0.03700193762779236, 0.03023364394903183, -0.025995776057243347, -0.022879332304000854, -0.10320475697517395, -0.0539129301905632, -0.007238477468490601, -0.05978531017899513, -0.08282282948493958, 0.09739895910024643, -0.10117097944021225, -0.11793331801891327, 0.05364132672548294, -0.07676467299461365, -0.09287286549806595, 0.04846858233213425, 0.11427361518144608, 0.06400277465581894, -0.11322613805532455, -0.07398825138807297, -0.09673835337162018, -0.08483973145484924, -0.07177163660526276, 0.11174576729536057, 0.004354402422904968, 0.09368260949850082, 0.11722897738218307, -0.06996175646781921, -0.02719133347272873, -0.02106303721666336, 0.019768796861171722, 0.07591191679239273, 0.06384282559156418, 0.09892236441373825, -0.0027151405811309814, 0.07793416827917099, 0.07379881292581558], [-0.11047397553920746, -0.026473835110664368, -0.07443943619728088, -0.0015765279531478882, 0.10638552159070969, 0.03382117301225662, 0.00030593574047088623, -0.003214046359062195, 0.010507352650165558, -0.09090421348810196, -0.08711898326873779, -0.0033014267683029175, 0.01760556548833847, 0.10666897147893906, 0.02611284703016281, 0.07236558943986893, 0.07643971592187881, 0.0052130743861198425, 0.06706645339727402, -0.01838606595993042, -0.07074190676212311, -0.08953367173671722, 0.05444178730249405, 0.0027324259281158447, -0.024120934307575226, -0.005680158734321594, 0.01464175432920456, 0.03692307323217392, 0.10423565655946732, 0.09439150243997574, 0.0742860957980156, -0.005765646696090698, 0.11757836490869522, -0.10104325413703918, -0.02842695266008377, -0.015463724732398987, 0.017405591905117035, -0.0673893392086029, 0.037126295268535614, 0.04803247004747391, -0.04996851831674576, -0.04675823450088501, -0.05711977928876877, -0.014613315463066101, 0.06660350412130356, 0.049560122191905975, 0.010712318122386932, 0.11398131400346756, 0.010798387229442596, -0.0651036947965622, 0.11769530922174454, 0.06019865721464157, -0.07609198987483978, 0.0760519728064537, -0.08009409159421921, -0.006451532244682312, 0.09038228541612625, 0.0582275465130806, -0.06378866732120514, -0.10558546334505081, 0.11155282706022263, -0.001470915973186493, 0.01575196534395218, -0.11178361624479294, -0.03995499014854431, 0.11091434210538864, 0.03488869220018387, 0.03718902915716171, -0.027533888816833496, -0.04719088226556778]], [-0.06654246151447296, 0.06332208961248398, -0.08670695126056671, -0.010245434939861298, -0.028917334973812103, 0.07004935294389725, -0.08851584047079086, 0.057123906910419464, 0.10966768115758896, -0.11026333272457123, 0.017777524888515472, 0.08452599495649338, 0.08709027618169785, 0.019378282129764557, 0.061267606914043427, -0.10574601590633392, -0.0325724333524704, 0.017535723745822906, 0.06515610963106155, -0.012020125985145569]], [[[-0.16662272810935974, 0.015159353613853455, 0.13597822189331055, 0.03548303246498108, 0.1270715892314911, -0.09135280549526215, 0.12205323576927185, 0.21044856309890747, 0.0071044862270355225, -0.06904730200767517, 0.09300544857978821, 0.18191638588905334, -0.03896068036556244, 0.1901620626449585, -0.17654681205749512, -0.21234548091888428, 0.046616703271865845, -0.051809996366500854, 0.1531042754650116, -0.01992565393447876], [0.17735716700553894, -0.08909676969051361, -0.19057448208332062, 0.14034408330917358, 0.1971971094608307, -0.1742267608642578, 0.10007795691490173, -0.20772168040275574, -0.030135706067085266, 0.16557395458221436, 0.004057198762893677, -0.21327438950538635, 0.13084959983825684, 0.13422930240631104, -0.14694079756736755, -0.01951533555984497, 0.019657716155052185, -0.0960221141576767, -0.12865108251571655, 0.010599732398986816], [0.13387039303779602, 0.06633654236793518, 0.02378678321838379, -0.1984224170446396, 0.07492581009864807, 0.03355267643928528, 0.10045185685157776, 0.04304260015487671, -0.14336392283439636, 0.1963379681110382, 0.20576131343841553, 0.10827863216400146, 0.18810883164405823, -0.032444655895233154, -0.03240188956260681, -0.020498573780059814, 0.1865994930267334, -0.15210390090942383, 0.18290022015571594, 0.048264503479003906], [0.07387176156044006, -0.13150613009929657, -0.12804344296455383, -0.13680198788642883, -0.018458694219589233, -0.09028884768486023, 0.05523774027824402, 0.05594673752784729, -0.045292362570762634, 0.1533021330833435, 0.027807652950286865, -0.09617188572883606, 0.21181535720825195, -0.059672996401786804, 0.06339487433433533, -0.10984151810407639, 0.038531482219696045, -0.16808947920799255, -0.038000062108039856, 0.01882268488407135], [0.17433607578277588, -0.15189048647880554, -0.09916792064905167, 0.030220448970794678, 0.007690742611885071, -0.17839162051677704, -0.18475113809108734, 0.05414876341819763, 0.03496837615966797, -0.0006543248891830444, -0.06174039840698242, 0.13536235690116882, 0.006733223795890808, -0.07034622132778168, 0.10248059034347534, 0.12185883522033691, 0.17003211379051208, -0.1628352254629135, -0.114702507853508, -0.008232221007347107], [-0.11379291862249374, 0.09788012504577637, 0.1941683292388916, -0.06321015954017639, -0.1959744393825531, -0.21976131200790405, 0.21590599417686462, -0.14125943183898926, -0.059794217348098755, 0.05023553967475891, 0.1029682457447052, 0.0006923824548721313, -0.16656099259853363, 0.16883039474487305, -0.07673582434654236, -0.08219073712825775, 0.01039840281009674, 0.16342106461524963, 0.14262083172798157, 0.14739352464675903], [0.054209768772125244, -0.028284847736358643, 0.1862770915031433, 0.0792047381401062, 0.09931161999702454, -0.11083053052425385, 0.11473709344863892, -0.09376925230026245, -0.1514575481414795, 0.17161554098129272, -0.1860876977443695, -0.073817178606987, -0.18336926400661469, 0.13363927602767944, 0.05120962858200073, 0.21170449256896973, -0.22018466889858246, -0.17123016715049744, -0.0875253677368164, -0.14202739298343658], [-0.14225617051124573, 0.19905763864517212, -0.21141380071640015, -0.06928573548793793, 0.1475643813610077, -0.06339952349662781, 0.07965832948684692, -0.19197054207324982, 0.05631375312805176, -0.10436327755451202, 0.026969343423843384, 0.15703865885734558, 0.030280262231826782, -0.020711392164230347, -0.13522222638130188, -0.03949899971485138, -0.10435107350349426, 0.004157215356826782, -0.07230998575687408, -0.10121922940015793], [-0.10078410059213638, 0.024192512035369873, 0.018087804317474365, 0.21916985511779785, 0.03407803177833557, -0.0530414879322052, -0.011546522378921509, 0.17884713411331177, 0.035704731941223145, 0.0742802619934082, -0.051639214158058167, -0.06551891565322876, -0.026369109749794006, 0.07488629221916199, -0.09774379432201385, 0.04045996069908142, 0.16635435819625854, -0.12247981876134872, 0.12585443258285522, 0.12321087718009949], [0.04107147455215454, 0.07645368576049805, -0.21970926225185394, 0.1248350739479065, -0.11296623945236206, -0.2059255689382553, 0.09497275948524475, 0.10925477743148804, -0.17533990740776062, 0.1443842053413391, 0.17070233821868896, 0.019812285900115967, -0.1299160122871399, -0.08441029489040375, 0.15126976370811462, -0.021084070205688477, -0.17501726746559143, -0.0695650577545166, 0.1892150640487671, -0.1931213140487671]], [0.22124281525611877, -0.0704687237739563, 0.1723228394985199, 0.21286526322364807, -0.13890255987644196, 0.103616863489151, 0.007888317108154297, -0.15975171327590942, 0.05914458632469177, -0.17673566937446594]]]}