{
    "Layers": [
        [
            "fc1",
            "Linear",
            10,
            6
        ],
        [
            "fc2",
            "Linear",
            6,
            8
        ],
        [
            "fc3",
            "Linear",
            8,
            3
        ],
        [
            "fc4",
            "Linear",
            3,
            1
        ]
    ],
    "Activation functions": [
        [
            "fc1",
            "ReLU"
        ],
        [
            "fc2",
            "ReLU"
        ],
        [
            "fc3",
            "ReLU"
        ]
    ],
    "Weights": [
        [
            [
                [
                    0.06324782967567444,
                    -0.14306406676769257,
                    0.06739377975463867,
                    0.09585708379745483,
                    -0.16086871922016144,
                    -0.10514217615127563,
                    0.24727818369865417,
                    0.24626865983009338,
                    0.06259959936141968,
                    0.12655404210090637
                ],
                [
                    0.014837771654129028,
                    -0.20946799218654633,
                    0.20390161871910095,
                    0.09137800335884094,
                    0.08576488494873047,
                    -0.18047606945037842,
                    -0.09072160720825195,
                    0.1498476266860962,
                    -0.2700229287147522,
                    0.13753658533096313
                ],
                [
                    0.02188628911972046,
                    -0.18574467301368713,
                    0.09222912788391113,
                    -0.027973979711532593,
                    0.180078387260437,
                    -0.21914085745811462,
                    -0.20801004767417908,
                    -0.16839921474456787,
                    -0.12762126326560974,
                    0.26176008582115173
                ],
                [
                    -0.09458935260772705,
                    0.25783345103263855,
                    -0.2988305389881134,
                    -0.14275744557380676,
                    0.27229955792427063,
                    0.20661500096321106,
                    0.14281097054481506,
                    0.23503676056861877,
                    0.2448882758617401,
                    -0.015351682901382446
                ],
                [
                    0.23812732100486755,
                    0.2942037880420685,
                    -0.1819305717945099,
                    0.23067161440849304,
                    0.19996097683906555,
                    0.3066740930080414,
                    0.04265916347503662,
                    -0.2796229422092438,
                    -0.1088743656873703,
                    -0.29193246364593506
                ],
                [
                    0.29978057742118835,
                    0.01195421814918518,
                    0.18769416213035583,
                    -0.08387194573879242,
                    0.07275694608688354,
                    -0.06022348999977112,
                    -0.23612558841705322,
                    -0.1924913227558136,
                    -0.14326126873493195,
                    -0.22441036999225616
                ]
            ],
            [
                0.23391041159629822,
                -0.252924382686615,
                -0.24698534607887268,
                0.036204129457473755,
                0.12682023644447327,
                0.28647878766059875
            ]
        ],
        [
            [
                [
                    0.22946858406066895,
                    0.30599820613861084,
                    0.16472136974334717,
                    0.25271379947662354,
                    -0.09484204649925232,
                    -0.052344173192977905
                ],
                [
                    -0.38885387778282166,
                    -0.0757485032081604,
                    0.35722053050994873,
                    0.24648749828338623,
                    -0.18119125068187714,
                    -0.04444780945777893
                ],
                [
                    -0.23608094453811646,
                    -0.2185501605272293,
                    0.33953607082366943,
                    -0.3698885440826416,
                    -0.04357519745826721,
                    -0.31800180673599243
                ],
                [
                    0.1576467752456665,
                    0.2792325019836426,
                    0.1918572187423706,
                    -0.19190362095832825,
                    0.1918548345565796,
                    0.2015160322189331
                ],
                [
                    -0.1242818534374237,
                    0.12380647659301758,
                    0.2566538453102112,
                    0.33708447217941284,
                    -0.21879860758781433,
                    0.15313094854354858
                ],
                [
                    -0.2635863125324249,
                    0.25463658571243286,
                    -0.11451694369316101,
                    0.3741953372955322,
                    -0.3839787542819977,
                    -0.01896318793296814
                ],
                [
                    0.13812559843063354,
                    -0.19200116395950317,
                    0.354009211063385,
                    0.039741843938827515,
                    -0.2858705520629883,
                    -0.15070730447769165
                ],
                [
                    0.20313984155654907,
                    0.36646270751953125,
                    0.1960442066192627,
                    0.3278300166130066,
                    0.045020610094070435,
                    0.13070893287658691
                ]
            ],
            [
                -0.0426943302154541,
                0.07890665531158447,
                0.22969400882720947,
                -0.33323559165000916,
                -0.29230737686157227,
                -0.18331055343151093,
                0.06046682596206665,
                -0.009264379739761353
            ]
        ],
        [
            [
                [
                    -0.3419228792190552,
                    0.30493083596229553,
                    -0.08094891905784607,
                    -0.2048356682062149,
                    0.2919473350048065,
                    0.03848943114280701,
                    0.16162964701652527,
                    0.1681484878063202
                ],
                [
                    -0.15819242596626282,
                    -0.19476871192455292,
                    0.02359485626220703,
                    0.2826927602291107,
                    0.182979553937912,
                    0.065558522939682,
                    -0.013805210590362549,
                    -0.10714550316333771
                ],
                [
                    0.2679385840892792,
                    -0.14263057708740234,
                    0.060061246156692505,
                    0.06806755065917969,
                    0.2931115925312042,
                    -0.3056054413318634,
                    -0.3474777936935425,
                    0.27848443388938904
                ]
            ],
            [
                0.3253004848957062,
                -0.08771944046020508,
                -0.03201872110366821
            ]
        ],
        [
            [
                [
                    -0.473757803440094,
                    0.5743578672409058,
                    0.5228790044784546
                ]
            ],
            [
                0.43912947177886963
            ]
        ]
    ]
}