{
    "Layers": [
        [
            "fc1",
            "Linear",
            15,
            20
        ],
        [
            "fc2",
            "Linear",
            20,
            30
        ],
        [
            "fc3",
            "Linear",
            30,
            15
        ],
        [
            "fc4",
            "Linear",
            15,
            7
        ]
    ],
    "Activation functions": [
        [
            "fc1",
            "ReLU"
        ],
        [
            "fc2",
            "ReLU"
        ],
        [
            "fc3",
            "ReLU"
        ]
    ],
    "Weights": [
        [
            [
                [
                    -0.1257232427597046,
                    -0.2531832754611969,
                    -0.10112518072128296,
                    0.128029465675354,
                    -0.06733876466751099,
                    0.24348625540733337,
                    0.0006536245346069336,
                    -0.22130082547664642,
                    0.18347612023353577,
                    -0.22763624787330627,
                    -0.07627113163471222,
                    -0.2172737866640091,
                    0.12043112516403198,
                    0.19265899062156677,
                    0.02151736617088318
                ],
                [
                    -0.22578030824661255,
                    0.01928621530532837,
                    -0.16562408208847046,
                    -0.1871342658996582,
                    0.14537113904953003,
                    -0.24448354542255402,
                    -0.08942240476608276,
                    -0.10218237340450287,
                    0.1367473304271698,
                    0.13684871792793274,
                    0.011934250593185425,
                    -0.002899348735809326,
                    0.08195456862449646,
                    0.1894826591014862,
                    0.155269056558609
                ],
                [
                    0.19789347052574158,
                    0.0153636634349823,
                    -0.060900017619132996,
                    0.22971370816230774,
                    0.11772438883781433,
                    0.25224557518959045,
                    -0.009981974959373474,
                    -0.10558193922042847,
                    0.03960201144218445,
                    -0.08972971141338348,
                    0.22464430332183838,
                    -0.03622971475124359,
                    -0.1162807047367096,
                    -0.16987168788909912,
                    0.14252957701683044
                ],
                [
                    0.17086607217788696,
                    -0.2300717532634735,
                    -0.08909936249256134,
                    0.23342344164848328,
                    -0.05704030394554138,
                    -0.23502299189567566,
                    0.1445397138595581,
                    0.12606191635131836,
                    0.0754660964012146,
                    0.1458836793899536,
                    -0.2085244059562683,
                    0.16880592703819275,
                    -0.22516632080078125,
                    0.07946383953094482,
                    0.21853473782539368
                ],
                [
                    -0.24828828871250153,
                    0.11145356297492981,
                    0.1733505129814148,
                    -0.0982045978307724,
                    -0.18302816152572632,
                    0.09281772375106812,
                    0.06448718905448914,
                    -0.13800597190856934,
                    -0.2112542688846588,
                    -0.227622389793396,
                    -0.25740015506744385,
                    -0.2235638052225113,
                    -0.22779281437397003,
                    0.2373356819152832,
                    -0.059541985392570496
                ],
                [
                    -0.019275367259979248,
                    0.10588157176971436,
                    0.1586754024028778,
                    0.1392536163330078,
                    -0.06442388892173767,
                    0.21679773926734924,
                    0.1180759072303772,
                    0.18568044900894165,
                    -0.04889097809791565,
                    -0.20517776906490326,
                    0.21543771028518677,
                    -0.20463114976882935,
                    0.24506577849388123,
                    -0.1228402704000473,
                    -0.2234024554491043
                ],
                [
                    -0.15504378080368042,
                    -0.21358256042003632,
                    -0.2197251170873642,
                    0.12169748544692993,
                    0.23021486401557922,
                    0.23027700185775757,
                    0.1649475395679474,
                    -0.2268362045288086,
                    -0.008891671895980835,
                    -0.12676535546779633,
                    0.12806391716003418,
                    -0.02413947880268097,
                    -0.0576406866312027,
                    0.09836706519126892,
                    -0.16974817216396332
                ],
                [
                    0.212779700756073,
                    -0.012857332825660706,
                    -0.19781485199928284,
                    0.13903877139091492,
                    -0.23881696164608002,
                    -0.002478271722793579,
                    -0.07163204252719879,
                    -0.17366355657577515,
                    0.21466001868247986,
                    0.2518289387226105,
                    -0.19281387329101562,
                    -0.09527371823787689,
                    0.12245631217956543,
                    0.19567182660102844,
                    -0.07847772538661957
                ],
                [
                    0.0807299017906189,
                    -0.07723499834537506,
                    0.02907562255859375,
                    0.057637423276901245,
                    0.08182451128959656,
                    -0.168145090341568,
                    0.04715791344642639,
                    0.23094463348388672,
                    -0.11277875304222107,
                    0.15090331435203552,
                    0.08062729239463806,
                    0.14667478203773499,
                    -0.07614308595657349,
                    0.20548197627067566,
                    -0.1514987051486969
                ],
                [
                    0.00015673041343688965,
                    0.22998109459877014,
                    -0.10397720336914062,
                    -0.163502037525177,
                    -0.12155872583389282,
                    0.08736327290534973,
                    -0.1805703341960907,
                    -0.22439783811569214,
                    -0.06125149130821228,
                    0.021475017070770264,
                    -0.1598348319530487,
                    0.2067030966281891,
                    -0.2417750507593155,
                    0.08611688017845154,
                    -0.13388913869857788
                ],
                [
                    0.1735585629940033,
                    -0.023686334490776062,
                    0.21161022782325745,
                    0.03293570876121521,
                    0.02044084668159485,
                    -0.13764694333076477,
                    0.04432404041290283,
                    -0.15218156576156616,
                    0.14033383131027222,
                    -0.13384073972702026,
                    -0.10382379591464996,
                    -0.0031777620315551758,
                    -0.17954033613204956,
                    0.04460403323173523,
                    0.16810861229896545
                ],
                [
                    -0.0712163895368576,
                    -0.11680464446544647,
                    0.002993375062942505,
                    -0.15216705203056335,
                    0.2120564579963684,
                    0.2327512502670288,
                    0.2225649654865265,
                    0.04126468300819397,
                    0.1240876317024231,
                    0.1807708442211151,
                    0.09523701667785645,
                    -0.13067960739135742,
                    0.023410707712173462,
                    -0.11890341341495514,
                    -0.2355796843767166
                ],
                [
                    -0.14687877893447876,
                    -0.020436927676200867,
                    -0.07376261055469513,
                    -0.24497199058532715,
                    0.22256672382354736,
                    -0.19233664870262146,
                    0.04069206118583679,
                    0.03205123543739319,
                    0.21509531140327454,
                    0.14530852437019348,
                    -0.2356555461883545,
                    -0.08175437152385712,
                    -0.24231332540512085,
                    -0.01958276331424713,
                    0.06342765688896179
                ],
                [
                    0.11503046751022339,
                    0.10620361566543579,
                    0.09918904304504395,
                    -0.20830762386322021,
                    0.13657322525978088,
                    -0.13252943754196167,
                    0.051721274852752686,
                    -0.06223797798156738,
                    -0.07519395649433136,
                    -0.017673581838607788,
                    -0.010851263999938965,
                    -0.13024508953094482,
                    -0.06315241754055023,
                    -0.201437845826149,
                    0.12659409642219543
                ],
                [
                    0.1331433653831482,
                    0.1688203513622284,
                    -0.11619308590888977,
                    0.048089414834976196,
                    -0.18019533157348633,
                    -0.01102156937122345,
                    -0.06189601123332977,
                    -0.19900766015052795,
                    -0.14476776123046875,
                    0.2533346116542816,
                    0.00788620114326477,
                    0.23488599061965942,
                    -0.022598177194595337,
                    -0.176589697599411,
                    0.04365852475166321
                ],
                [
                    -0.13281242549419403,
                    0.1837483048439026,
                    -0.06537801027297974,
                    -0.16480784118175507,
                    0.1545015573501587,
                    0.10752993822097778,
                    -0.23067188262939453,
                    0.13227209448814392,
                    0.20346519351005554,
                    0.23458150029182434,
                    -0.11939752101898193,
                    -0.16522201895713806,
                    0.009179651737213135,
                    -0.09514309465885162,
                    -0.10329568386077881
                ],
                [
                    -0.14521944522857666,
                    -0.06688202917575836,
                    -0.1251412034034729,
                    0.011363565921783447,
                    -0.09638547897338867,
                    0.20237207412719727,
                    0.07362771034240723,
                    0.16888180375099182,
                    0.2314472794532776,
                    -0.21678444743156433,
                    -0.12664254009723663,
                    0.018857717514038086,
                    0.10176673531532288,
                    0.2438276708126068,
                    0.1546996533870697
                ],
                [
                    0.21233457326889038,
                    0.03142520785331726,
                    -0.23319388926029205,
                    -0.13020464777946472,
                    0.036928534507751465,
                    0.12978193163871765,
                    -0.11703182756900787,
                    -0.01741693913936615,
                    0.19685932993888855,
                    -0.056178316473960876,
                    -0.09609426558017731,
                    0.012558728456497192,
                    0.061420172452926636,
                    0.019479960203170776,
                    -0.009530633687973022
                ],
                [
                    0.046581119298934937,
                    -0.08949987590312958,
                    0.2550486624240875,
                    0.0022890865802764893,
                    0.13430139422416687,
                    -0.13356274366378784,
                    0.05155244469642639,
                    0.1809191107749939,
                    -0.24648083746433258,
                    -0.09684200584888458,
                    -0.1154373437166214,
                    0.1967155635356903,
                    -0.21826916933059692,
                    -0.07504215836524963,
                    0.04337993264198303
                ],
                [
                    0.22881656885147095,
                    0.15624895691871643,
                    -0.18829599022865295,
                    -0.20555353164672852,
                    -0.17004317045211792,
                    0.1415993869304657,
                    0.049224674701690674,
                    -0.15844282507896423,
                    -0.16298016905784607,
                    -0.050704702734947205,
                    0.19085019826889038,
                    -0.0521940141916275,
                    -0.08555272221565247,
                    0.05027231574058533,
                    0.07705065608024597
                ]
            ],
            [
                0.016581416130065918,
                -0.04394178092479706,
                0.013096809387207031,
                0.038199931383132935,
                -0.24858245253562927,
                -0.029704779386520386,
                -0.22537440061569214,
                -0.06187283992767334,
                0.25511446595191956,
                -0.0936756283044815,
                -0.1928819715976715,
                -0.1410282403230667,
                0.04716798663139343,
                0.18571409583091736,
                0.005865871906280518,
                0.12692829966545105,
                0.11287945508956909,
                -0.11599074304103851,
                0.17029991745948792,
                -0.06762415170669556
            ]
        ],
        [
            [
                [
                    0.16898411512374878,
                    0.1656017005443573,
                    0.07124665379524231,
                    -0.048182278871536255,
                    -0.08023449778556824,
                    -0.21460425853729248,
                    0.016949251294136047,
                    -0.025493517518043518,
                    -0.013524249196052551,
                    -0.14847034215927124,
                    0.1263832449913025,
                    0.20548507571220398,
                    0.050391316413879395,
                    -0.0728817880153656,
                    0.1848553717136383,
                    -0.0739247053861618,
                    -0.12308291345834732,
                    -0.0630967915058136,
                    0.1342925727367401,
                    -0.16131506860256195
                ],
                [
                    -0.14731720089912415,
                    -0.21770070493221283,
                    0.08574122190475464,
                    0.08442702889442444,
                    -0.14393147826194763,
                    -0.1241280660033226,
                    -0.054519400000572205,
                    -0.20130352675914764,
                    0.17078641057014465,
                    -0.04584355652332306,
                    -0.15048928558826447,
                    -0.22211036086082458,
                    -0.059385642409324646,
                    -0.14695551991462708,
                    -0.14126452803611755,
                    0.17814841866493225,
                    -0.18886341154575348,
                    0.012075647711753845,
                    -0.21571600437164307,
                    -0.049650490283966064
                ],
                [
                    0.1712225377559662,
                    0.06985935568809509,
                    -0.05003286898136139,
                    0.21412396430969238,
                    0.15761685371398926,
                    -0.03222186863422394,
                    0.041486382484436035,
                    -0.06672966480255127,
                    0.14981487393379211,
                    0.08807820081710815,
                    -0.17314571142196655,
                    -0.07319076359272003,
                    0.13525554537773132,
                    -0.09505414962768555,
                    -0.026823967695236206,
                    0.10347416996955872,
                    -0.08285051584243774,
                    0.14975515007972717,
                    0.007617160677909851,
                    0.08951616287231445
                ],
                [
                    -0.2081402838230133,
                    0.1897544264793396,
                    -0.11277255415916443,
                    0.12434175610542297,
                    0.2129766345024109,
                    0.17833837866783142,
                    0.03209829330444336,
                    -0.21194742619991302,
                    0.08165916800498962,
                    0.22200363874435425,
                    0.11354860663414001,
                    -0.06941640377044678,
                    0.005490332841873169,
                    0.12857621908187866,
                    0.12464666366577148,
                    0.1302635669708252,
                    0.18153917789459229,
                    -0.08668603003025055,
                    0.1865793764591217,
                    -0.18211261928081512
                ],
                [
                    -0.010568380355834961,
                    0.07502824068069458,
                    0.03022339940071106,
                    0.0772276520729065,
                    0.16481271386146545,
                    0.15022864937782288,
                    0.16185396909713745,
                    -0.046691566705703735,
                    -0.15182024240493774,
                    0.08032175898551941,
                    0.18751391768455505,
                    -0.1813785433769226,
                    0.019921928644180298,
                    -0.10175307095050812,
                    0.0790676474571228,
                    -0.2033175826072693,
                    0.21176791191101074,
                    0.08913847804069519,
                    0.20430150628089905,
                    -0.15232205390930176
                ],
                [
                    -0.14460617303848267,
                    0.14744833111763,
                    0.2094113826751709,
                    0.04489746689796448,
                    -0.054002001881599426,
                    0.18804693222045898,
                    0.13813847303390503,
                    -0.00966838002204895,
                    -0.07550607621669769,
                    -0.08915272355079651,
                    -0.19974066317081451,
                    -0.15342512726783752,
                    -0.17542999982833862,
                    0.0746966302394867,
                    0.04069289565086365,
                    -0.2156846821308136,
                    0.2097664177417755,
                    -0.09156079590320587,
                    -0.008188754320144653,
                    0.010037824511528015
                ],
                [
                    0.17639005184173584,
                    -0.16508236527442932,
                    -0.10706920921802521,
                    -0.1998128443956375,
                    -0.01798158884048462,
                    -0.09111374616622925,
                    -0.033868804574012756,
                    -0.20219023525714874,
                    0.1907358467578888,
                    -0.07083001732826233,
                    0.105796217918396,
                    0.12339872121810913,
                    -0.00650884211063385,
                    0.1934126615524292,
                    -0.11432863026857376,
                    -0.01860661804676056,
                    -0.10811756551265717,
                    0.0737217366695404,
                    0.15351301431655884,
                    0.06718888878822327
                ],
                [
                    -0.20053930580615997,
                    -0.08149239420890808,
                    -0.15869933366775513,
                    0.08280551433563232,
                    0.06442910432815552,
                    0.1508018970489502,
                    0.11425149440765381,
                    -0.023900046944618225,
                    0.0482269823551178,
                    0.15185993909835815,
                    0.03155377507209778,
                    -0.06603573262691498,
                    0.06948405504226685,
                    0.08830833435058594,
                    -0.11047374457120895,
                    0.17845892906188965,
                    0.09611308574676514,
                    0.14898711442947388,
                    0.1792811155319214,
                    0.0454312264919281
                ],
                [
                    0.055185943841934204,
                    -0.21426892280578613,
                    -0.11721304804086685,
                    -0.21848975121974945,
                    -0.14065617322921753,
                    0.1148114800453186,
                    0.07980093359947205,
                    -0.15226492285728455,
                    -0.04589463770389557,
                    0.04063546657562256,
                    -0.21038499474525452,
                    -0.12705004215240479,
                    0.019553810358047485,
                    0.008285775780677795,
                    -0.21245945990085602,
                    -0.10307054221630096,
                    -0.1392870545387268,
                    0.20632404088974,
                    -0.125159353017807,
                    -0.033065393567085266
                ],
                [
                    -0.17526157200336456,
                    0.18237978219985962,
                    0.0235612690448761,
                    -0.21815097332000732,
                    0.12937739491462708,
                    0.019903376698493958,
                    -0.008769795298576355,
                    -0.086427703499794,
                    -0.045588135719299316,
                    0.014487087726593018,
                    -0.106637142598629,
                    -0.07428058981895447,
                    -0.0493880957365036,
                    0.18046602606773376,
                    -0.14339199662208557,
                    0.11588537693023682,
                    0.02712962031364441,
                    0.1862337589263916,
                    0.22056567668914795,
                    -0.21723288297653198
                ],
                [
                    -0.17654313147068024,
                    0.12405729293823242,
                    0.10574138164520264,
                    0.06755965948104858,
                    -0.13885663449764252,
                    0.12859192490577698,
                    0.1058775782585144,
                    -0.08739539980888367,
                    -0.18570655584335327,
                    -0.11878930032253265,
                    -0.04262655973434448,
                    0.16272428631782532,
                    0.14974448084831238,
                    -0.08283868432044983,
                    0.20471903681755066,
                    0.16950801014900208,
                    0.08239275217056274,
                    -0.1701790988445282,
                    0.15514448285102844,
                    -0.18876278400421143
                ],
                [
                    -0.002767905592918396,
                    -0.2056066393852234,
                    -0.1555306315422058,
                    0.1200363039970398,
                    -0.08323679864406586,
                    0.18634963035583496,
                    -0.2229188084602356,
                    -0.1743091195821762,
                    -0.16396403312683105,
                    0.1067957878112793,
                    -0.12058652192354202,
                    -0.08746886253356934,
                    0.012905776500701904,
                    0.22107690572738647,
                    0.02707245945930481,
                    -0.15381254255771637,
                    0.11601418256759644,
                    -0.047882080078125,
                    0.17556151747703552,
                    -0.15861132740974426
                ],
                [
                    0.009523019194602966,
                    0.0608879029750824,
                    0.1424541175365448,
                    -0.14856523275375366,
                    0.10988518595695496,
                    0.14758118987083435,
                    -0.11073523759841919,
                    0.08846208453178406,
                    0.024592936038970947,
                    -0.10984881967306137,
                    -0.1558760404586792,
                    -0.19949910044670105,
                    0.11799672245979309,
                    -0.03249453008174896,
                    -0.1304166316986084,
                    0.19558143615722656,
                    0.18084058165550232,
                    0.03745576739311218,
                    -0.08671092987060547,
                    0.21517902612686157
                ],
                [
                    0.01359085738658905,
                    0.20257335901260376,
                    -0.15321752429008484,
                    -0.06515626609325409,
                    -0.0452815443277359,
                    -0.024731844663619995,
                    -0.07237337529659271,
                    -0.09024980664253235,
                    0.08605533838272095,
                    -0.16927236318588257,
                    0.13847750425338745,
                    -0.1372782289981842,
                    0.07586365938186646,
                    -0.2209627628326416,
                    0.08118113875389099,
                    0.09945467114448547,
                    -0.11355680227279663,
                    0.1063341498374939,
                    -0.1511131227016449,
                    -0.008964702486991882
                ],
                [
                    0.03581324219703674,
                    -0.11849096417427063,
                    0.17043933272361755,
                    -0.026025936007499695,
                    -0.0687871128320694,
                    -0.01606149971485138,
                    -0.1761455088853836,
                    0.04236307740211487,
                    0.0017174482345581055,
                    -0.057104796171188354,
                    -0.025086641311645508,
                    -0.13576562702655792,
                    -0.1633894145488739,
                    0.0033135563135147095,
                    -0.030773475766181946,
                    -0.09535682201385498,
                    -0.19042205810546875,
                    -0.15541310608386993,
                    -0.023458346724510193,
                    0.05036082863807678
                ],
                [
                    -0.18525709211826324,
                    -0.19589035212993622,
                    -0.13442042469978333,
                    -0.015006005764007568,
                    0.16630548238754272,
                    -0.10663029551506042,
                    -0.08709338307380676,
                    -0.0733109712600708,
                    0.1640540361404419,
                    0.17422258853912354,
                    -0.087739497423172,
                    -0.055533841252326965,
                    0.022780805826187134,
                    0.10252466797828674,
                    0.20831641554832458,
                    0.051890015602111816,
                    -0.09781861305236816,
                    0.1828773319721222,
                    0.03435313701629639,
                    0.0408419668674469
                ],
                [
                    0.09551748633384705,
                    -0.003605782985687256,
                    0.12269333004951477,
                    -0.040707483887672424,
                    0.03831493854522705,
                    -0.002852514386177063,
                    -0.09553569555282593,
                    -0.1809888780117035,
                    0.14111465215682983,
                    0.16345131397247314,
                    -0.2068926990032196,
                    0.07179886102676392,
                    -0.17294038832187653,
                    0.02223023772239685,
                    0.11068439483642578,
                    -0.1418171525001526,
                    -0.029459714889526367,
                    -0.11688867211341858,
                    -0.1160050481557846,
                    0.1768888235092163
                ],
                [
                    0.043432801961898804,
                    -0.14406317472457886,
                    -0.16352391242980957,
                    -0.14175598323345184,
                    0.22358638048171997,
                    0.0414523184299469,
                    -0.0031625181436538696,
                    -0.02037052810192108,
                    0.16938287019729614,
                    0.0777706503868103,
                    -0.18989785015583038,
                    0.09580492973327637,
                    0.2047150731086731,
                    -0.14582425355911255,
                    0.04647132754325867,
                    0.01988370716571808,
                    -0.14209048449993134,
                    0.1508350372314453,
                    0.13067585229873657,
                    0.11495634913444519
                ],
                [
                    0.1293679177761078,
                    -0.07497471570968628,
                    -0.18351690471172333,
                    -0.05665968358516693,
                    0.18746808171272278,
                    -0.06778106093406677,
                    -0.018598929047584534,
                    -0.12973588705062866,
                    -0.10603669285774231,
                    -0.19946514070034027,
                    0.14464697241783142,
                    0.050416767597198486,
                    -0.03943018615245819,
                    0.017070606350898743,
                    0.21708786487579346,
                    0.1340179741382599,
                    0.03953975439071655,
                    -0.17718186974525452,
                    0.17701926827430725,
                    -0.0838426798582077
                ],
                [
                    -0.1697046458721161,
                    0.11925232410430908,
                    -0.06245715916156769,
                    -0.21198458969593048,
                    0.20164388418197632,
                    0.11852946877479553,
                    -0.14967601001262665,
                    -0.07295000553131104,
                    0.14854413270950317,
                    -0.12311748415231705,
                    -0.13151773810386658,
                    0.13443011045455933,
                    -0.20553869009017944,
                    0.09332630038261414,
                    -0.1799427568912506,
                    -0.09814576804637909,
                    0.21867364645004272,
                    0.17284825444221497,
                    0.15507403016090393,
                    -0.12471380829811096
                ],
                [
                    0.20311862230300903,
                    -0.11546129733324051,
                    0.11486226320266724,
                    -0.2065826654434204,
                    -0.1884278953075409,
                    -0.0072346031665802,
                    0.18841144442558289,
                    -0.2147073745727539,
                    0.001811593770980835,
                    -0.11227859556674957,
                    0.15028074383735657,
                    0.18616774678230286,
                    -0.1544131338596344,
                    0.08020764589309692,
                    0.20786362886428833,
                    -0.10495613515377045,
                    -0.14272817969322205,
                    0.14950740337371826,
                    -0.22190898656845093,
                    0.040232688188552856
                ],
                [
                    -0.09253484010696411,
                    -0.12478415668010712,
                    0.13842520117759705,
                    -0.20812983810901642,
                    -0.1286914348602295,
                    -0.08117447793483734,
                    0.1315707564353943,
                    0.04303601384162903,
                    -0.22223283350467682,
                    -0.2224120795726776,
                    0.0013956576585769653,
                    -0.17687028646469116,
                    -0.02357262372970581,
                    -0.13682037591934204,
                    0.17679175734519958,
                    -0.10423360019922256,
                    0.057689130306243896,
                    -0.004608720541000366,
                    0.08112400770187378,
                    0.22052183747291565
                ],
                [
                    -0.07877567410469055,
                    0.007660910487174988,
                    -0.1145782619714737,
                    0.04529768228530884,
                    0.009124159812927246,
                    -0.09422232210636139,
                    -0.13991448283195496,
                    0.11236929893493652,
                    0.008381932973861694,
                    0.20798003673553467,
                    -0.13762935996055603,
                    -0.17779386043548584,
                    0.09123241901397705,
                    -0.2008674144744873,
                    0.10269621014595032,
                    0.020761728286743164,
                    -0.11791255325078964,
                    0.09979963302612305,
                    -0.12853460013866425,
                    -0.005838945508003235
                ],
                [
                    -0.14507515728473663,
                    0.19834032654762268,
                    -0.03177729249000549,
                    0.21712946891784668,
                    -0.10115344077348709,
                    0.2026447355747223,
                    -0.16954806447029114,
                    -0.15247637033462524,
                    -0.14868637919425964,
                    0.1889958381652832,
                    -0.0752764642238617,
                    0.14495760202407837,
                    0.15238535404205322,
                    -0.168282151222229,
                    -0.1934690624475479,
                    -0.17486082017421722,
                    -0.052932992577552795,
                    0.051884233951568604,
                    0.16194981336593628,
                    -0.05645003914833069
                ],
                [
                    -0.038448676466941833,
                    -0.018133118748664856,
                    0.21623751521110535,
                    -0.07502706348896027,
                    -0.06382450461387634,
                    0.11377903819084167,
                    -0.013661310076713562,
                    -0.12155288457870483,
                    0.01360785961151123,
                    0.0267450213432312,
                    -0.15299831330776215,
                    0.09597405791282654,
                    0.209974467754364,
                    -0.21469664573669434,
                    0.039158016443252563,
                    -0.13827233016490936,
                    0.001829594373703003,
                    0.19943636655807495,
                    -0.09210799634456635,
                    -0.21313823759555817
                ],
                [
                    -0.13257277011871338,
                    0.10677820444107056,
                    -0.1915193796157837,
                    -0.1312110722064972,
                    -0.16613900661468506,
                    -0.013793304562568665,
                    -0.1708935797214508,
                    -0.15577591955661774,
                    0.07577964663505554,
                    0.15620875358581543,
                    -0.0705675333738327,
                    0.15421980619430542,
                    0.1649285852909088,
                    0.07543140649795532,
                    0.1072186827659607,
                    -0.0027276277542114258,
                    0.14230409264564514,
                    -0.048678427934646606,
                    0.18111887574195862,
                    0.09575694799423218
                ],
                [
                    -0.0444827675819397,
                    -0.19028718769550323,
                    -0.01048743724822998,
                    0.0027622878551483154,
                    0.1581535041332245,
                    0.16110622882843018,
                    -0.002639591693878174,
                    0.08324384689331055,
                    0.2208554744720459,
                    -0.17369534075260162,
                    0.20992165803909302,
                    0.018093407154083252,
                    0.17280513048171997,
                    -0.06544135510921478,
                    0.1375361680984497,
                    -0.1669672131538391,
                    -0.11594075709581375,
                    -0.20135417580604553,
                    0.2186749279499054,
                    0.11900737881660461
                ],
                [
                    -0.042216405272483826,
                    0.025867849588394165,
                    -0.052022263407707214,
                    0.135701984167099,
                    -0.03747174143791199,
                    -0.017550185322761536,
                    -0.22180727124214172,
                    0.21360480785369873,
                    0.19104412198066711,
                    -0.06783334910869598,
                    -0.07909698784351349,
                    0.2156091034412384,
                    -0.20662902295589447,
                    0.08988967537879944,
                    0.15820637345314026,
                    0.045775264501571655,
                    -0.16789448261260986,
                    -0.17696864902973175,
                    0.08996343612670898,
                    0.1051451563835144
                ],
                [
                    -0.13487130403518677,
                    -0.05352349579334259,
                    -0.05429042875766754,
                    -0.21299432218074799,
                    0.01693570613861084,
                    -0.06361216306686401,
                    -0.01866811513900757,
                    0.13380485773086548,
                    0.12897101044654846,
                    -0.09054704010486603,
                    -0.15426743030548096,
                    0.0435996949672699,
                    0.19740813970565796,
                    0.13076531887054443,
                    0.15437182784080505,
                    -0.08347302675247192,
                    -0.2029537409543991,
                    0.0014760196208953857,
                    -0.004394009709358215,
                    0.1569085419178009
                ],
                [
                    0.11525380611419678,
                    0.21930038928985596,
                    0.06872215867042542,
                    -0.06935623288154602,
                    0.08272954821586609,
                    0.09433668851852417,
                    0.01052027940750122,
                    -0.12626108527183533,
                    0.008058905601501465,
                    -0.09501975774765015,
                    -0.13655734062194824,
                    -0.12772105634212494,
                    -0.020099744200706482,
                    0.20511654019355774,
                    -0.11439131945371628,
                    0.15506434440612793,
                    -0.1367376446723938,
                    0.0028630197048187256,
                    -0.13404762744903564,
                    0.16766437888145447
                ]
            ],
            [
                -0.035046517848968506,
                -0.17187561094760895,
                0.194617360830307,
                -0.17958852648735046,
                0.004169851541519165,
                0.08965477347373962,
                0.1192004382610321,
                -0.15008971095085144,
                -0.17058005928993225,
                0.1168297529220581,
                0.0073320865631103516,
                0.0517917275428772,
                -0.17890286445617676,
                -0.2108910232782364,
                -0.07935768365859985,
                -0.08848734200000763,
                -0.004055529832839966,
                0.19235631823539734,
                -0.21028585731983185,
                0.10416889190673828,
                -0.19598650932312012,
                -0.037747278809547424,
                0.178705632686615,
                0.15441694855690002,
                0.10298678278923035,
                -0.1831616312265396,
                0.1971832513809204,
                -0.21616899967193604,
                -0.04656994342803955,
                -0.14935025572776794
            ]
        ],
        [
            [
                [
                    0.1450107991695404,
                    -0.1824614256620407,
                    -0.15930142998695374,
                    -0.10624664276838303,
                    0.1625889241695404,
                    0.17766758799552917,
                    -0.17088447511196136,
                    -0.08952905982732773,
                    -0.09310606122016907,
                    0.17993181943893433,
                    -0.019915103912353516,
                    0.15782588720321655,
                    0.011996790766716003,
                    -0.00931064784526825,
                    -0.12345677614212036,
                    0.07986009120941162,
                    -0.014645665884017944,
                    0.09679070115089417,
                    0.17425718903541565,
                    0.12468397617340088,
                    -0.14679765701293945,
                    0.09031271934509277,
                    0.024617627263069153,
                    0.17364060878753662,
                    0.10370960831642151,
                    -0.06801287829875946,
                    -0.0338360071182251,
                    0.07717934250831604,
                    0.14445161819458008,
                    0.016308903694152832
                ],
                [
                    -0.11589577794075012,
                    0.034092143177986145,
                    0.05355644226074219,
                    -0.006701409816741943,
                    -0.06816433370113373,
                    -0.162104070186615,
                    0.15029284358024597,
                    -0.07417868077754974,
                    0.14214569330215454,
                    0.039177775382995605,
                    0.0925053060054779,
                    0.15002325177192688,
                    -0.1703222543001175,
                    0.05655504763126373,
                    -0.08613967150449753,
                    -0.021117985248565674,
                    0.06460154056549072,
                    0.11910697817802429,
                    0.08443355560302734,
                    -0.05984862893819809,
                    -0.058798208832740784,
                    -0.09164703637361526,
                    0.05065849423408508,
                    0.042037904262542725,
                    0.04617777466773987,
                    -0.18096205592155457,
                    -0.15023505687713623,
                    -0.07275308668613434,
                    -0.03556053340435028,
                    -0.02465169131755829
                ],
                [
                    0.16657105088233948,
                    0.07579103112220764,
                    -0.13562104105949402,
                    0.10399478673934937,
                    -0.04449331760406494,
                    -0.11550199240446091,
                    0.14078417420387268,
                    0.1426694095134735,
                    0.1185985803604126,
                    0.14756417274475098,
                    -0.15625719726085663,
                    -0.12356425076723099,
                    0.13401618599891663,
                    0.17262381315231323,
                    0.07677596807479858,
                    -0.07448473572731018,
                    0.07413589954376221,
                    0.16069647669792175,
                    -0.07480739802122116,
                    -0.17974185943603516,
                    -0.14692160487174988,
                    -0.13061432540416718,
                    0.004031360149383545,
                    -0.07653743773698807,
                    -0.05798108130693436,
                    -0.04908217489719391,
                    -0.06097494065761566,
                    -0.054048970341682434,
                    0.07073727250099182,
                    -0.002953946590423584
                ],
                [
                    -0.15892630815505981,
                    0.08999288082122803,
                    -0.15982338786125183,
                    0.15855354070663452,
                    -0.09720223397016525,
                    0.10211652517318726,
                    -0.17138011753559113,
                    0.16996610164642334,
                    0.017248526215553284,
                    0.04532337188720703,
                    0.08928287029266357,
                    -0.08406220376491547,
                    0.040788814425468445,
                    0.09049496054649353,
                    -0.08087478578090668,
                    -0.020012587308883667,
                    -0.05321575701236725,
                    -0.026968225836753845,
                    0.058713242411613464,
                    -0.10130459070205688,
                    0.15845602750778198,
                    0.030561402440071106,
                    -0.16379991173744202,
                    0.04404069483280182,
                    -0.0721813514828682,
                    -0.09897510707378387,
                    -0.15594953298568726,
                    -0.060588300228118896,
                    0.17679500579833984,
                    0.0013223439455032349
                ],
                [
                    -0.16868002712726593,
                    0.046719521284103394,
                    0.1255437731742859,
                    0.1408674418926239,
                    -0.18210311233997345,
                    -0.17751507461071014,
                    0.11433333158493042,
                    -0.06792281568050385,
                    -0.1588841825723648,
                    -0.12265653908252716,
                    0.029434651136398315,
                    0.031150445342063904,
                    -0.09159355610609055,
                    0.1643034815788269,
                    0.01711064577102661,
                    0.07743245363235474,
                    -0.014383405447006226,
                    -0.010876893997192383,
                    0.17102745175361633,
                    -0.14188864827156067,
                    -0.1693332940340042,
                    0.008376389741897583,
                    -0.16205404698848724,
                    0.1803978681564331,
                    -0.05497576296329498,
                    -0.01980602741241455,
                    -0.014163181185722351,
                    -0.15220150351524353,
                    0.16374236345291138,
                    0.060837432742118835
                ],
                [
                    -0.10718093067407608,
                    -0.02287454903125763,
                    0.07120126485824585,
                    -0.16239188611507416,
                    -0.05266885459423065,
                    0.16540414094924927,
                    0.13343694806098938,
                    -0.056906670331954956,
                    0.006344839930534363,
                    0.11531543731689453,
                    0.06140145659446716,
                    -0.04231230914592743,
                    -0.029012441635131836,
                    0.12157696485519409,
                    -0.15783149003982544,
                    0.14885303378105164,
                    0.09072855114936829,
                    -0.1475011259317398,
                    0.08529967069625854,
                    -0.16980214416980743,
                    0.029048651456832886,
                    0.11935511231422424,
                    0.012490510940551758,
                    0.02019326388835907,
                    -0.13550399243831635,
                    0.15767058730125427,
                    0.04562155902385712,
                    -0.061879850924015045,
                    0.08905884623527527,
                    0.16440847516059875
                ],
                [
                    0.050521284341812134,
                    -0.17668800055980682,
                    0.09984561800956726,
                    0.07372593879699707,
                    0.0840880274772644,
                    -0.08025969564914703,
                    0.11013743281364441,
                    -0.15837660431861877,
                    0.0756063163280487,
                    -0.0771632120013237,
                    -0.13050232827663422,
                    0.026723936200141907,
                    -0.04211947321891785,
                    -0.01686336100101471,
                    0.167728990316391,
                    -0.06744741648435593,
                    0.07933899760246277,
                    -0.16067807376384735,
                    -0.03360836207866669,
                    0.15842685103416443,
                    -0.149018794298172,
                    0.1774977445602417,
                    0.15237465500831604,
                    -0.05461595952510834,
                    0.08779630064964294,
                    0.17652574181556702,
                    0.03938373923301697,
                    -0.12006949633359909,
                    0.0934339165687561,
                    -0.17568133771419525
                ],
                [
                    -0.0024505406618118286,
                    0.10710763931274414,
                    0.10475999116897583,
                    0.1371145248413086,
                    0.056682735681533813,
                    0.02063944935798645,
                    -0.17359685897827148,
                    -0.1563650369644165,
                    -0.106943279504776,
                    0.0120028555393219,
                    0.17549464106559753,
                    0.16271933913230896,
                    -0.06080387532711029,
                    0.011187165975570679,
                    0.08801624178886414,
                    -0.13885533809661865,
                    0.17515569925308228,
                    -0.18075087666511536,
                    0.14833971858024597,
                    0.12714293599128723,
                    -0.15951335430145264,
                    -0.06998563557863235,
                    -0.0061645060777664185,
                    -0.04939951002597809,
                    -0.17671285569667816,
                    -0.12906233966350555,
                    -0.10188616067171097,
                    0.08711788058280945,
                    0.03612242639064789,
                    0.008680194616317749
                ],
                [
                    0.1083497405052185,
                    -0.1065591350197792,
                    0.14030131697654724,
                    -0.17369137704372406,
                    -0.15787066519260406,
                    0.11031517386436462,
                    0.07995602488517761,
                    -0.14873720705509186,
                    0.014166906476020813,
                    0.015785887837409973,
                    0.019779399037361145,
                    -0.12009742110967636,
                    0.13229191303253174,
                    -0.17258337140083313,
                    0.013001441955566406,
                    0.042301490902900696,
                    -0.13673527538776398,
                    -0.03311517834663391,
                    -0.10821637511253357,
                    -0.1681831181049347,
                    0.14515787363052368,
                    0.1101493239402771,
                    0.1450318694114685,
                    0.025158673524856567,
                    0.17689213156700134,
                    -0.04324620962142944,
                    -0.009435713291168213,
                    0.08418673276901245,
                    -0.16542351245880127,
                    -0.04892931878566742
                ],
                [
                    -0.12799422442913055,
                    0.00453929603099823,
                    0.08697304129600525,
                    0.05570775270462036,
                    -0.13443781435489655,
                    -0.15763458609580994,
                    0.14122715592384338,
                    0.09053033590316772,
                    -0.09842762351036072,
                    0.008257940411567688,
                    -0.06892810016870499,
                    -0.15771366655826569,
                    0.056517720222473145,
                    -0.07625158131122589,
                    0.09608426690101624,
                    -0.13602788746356964,
                    0.027626484632492065,
                    0.07900261878967285,
                    0.14797240495681763,
                    -0.13655458390712738,
                    -0.1825403869152069,
                    -0.01885072886943817,
                    -0.02723531424999237,
                    0.153070867061615,
                    0.13322782516479492,
                    -0.09989185631275177,
                    -0.17057205736637115,
                    0.15050068497657776,
                    -0.15489204227924347,
                    -0.12021368741989136
                ],
                [
                    0.05632437765598297,
                    0.11224240064620972,
                    -0.163190558552742,
                    0.17105597257614136,
                    0.11903375387191772,
                    0.07698702812194824,
                    0.06672434508800507,
                    0.049885839223861694,
                    -0.0359017550945282,
                    0.02315191924571991,
                    0.019435033202171326,
                    -0.018790289759635925,
                    0.18080806732177734,
                    -0.004239693284034729,
                    0.014383837580680847,
                    -0.058180615305900574,
                    0.09681200981140137,
                    -0.029342517256736755,
                    0.16313570737838745,
                    -0.18116268515586853,
                    0.09676045179367065,
                    0.11146849393844604,
                    0.008764296770095825,
                    -0.05177655816078186,
                    -0.1806599646806717,
                    -0.10412310063838959,
                    -0.02206219732761383,
                    -0.16640955209732056,
                    0.16591066122055054,
                    0.08060652017593384
                ],
                [
                    0.055822208523750305,
                    -0.02059069275856018,
                    0.05263587832450867,
                    0.1302831470966339,
                    -0.0695243626832962,
                    -0.12011010944843292,
                    -0.022652551531791687,
                    -0.1568475365638733,
                    0.10723957419395447,
                    0.0854499340057373,
                    0.002877071499824524,
                    -0.05145448446273804,
                    0.165679931640625,
                    0.12740644812583923,
                    0.17122355103492737,
                    -0.10638195276260376,
                    0.13064000010490417,
                    0.015911027789115906,
                    0.024780407547950745,
                    0.048053666949272156,
                    0.0676921010017395,
                    0.07498008012771606,
                    -0.144147127866745,
                    0.10803651809692383,
                    0.1813165545463562,
                    -0.1113547831773758,
                    -0.0481087863445282,
                    0.09043169021606445,
                    0.006162539124488831,
                    -0.17830248177051544
                ],
                [
                    0.03482140600681305,
                    0.15984442830085754,
                    -0.12429806590080261,
                    0.12985262274742126,
                    -0.0589071586728096,
                    -0.1360737383365631,
                    0.08102878928184509,
                    -0.04045194387435913,
                    0.032401278614997864,
                    0.07909458875656128,
                    0.09875643253326416,
                    -0.1433715522289276,
                    0.07795554399490356,
                    0.14207446575164795,
                    0.025298461318016052,
                    -0.13370458781719208,
                    -0.08986564725637436,
                    -0.001145094633102417,
                    -0.1679501086473465,
                    -0.018202409148216248,
                    -0.18041867017745972,
                    -0.1241750717163086,
                    0.07435622811317444,
                    0.12116652727127075,
                    0.10313388705253601,
                    0.16186335682868958,
                    -0.1219022274017334,
                    0.12297472357749939,
                    0.015900611877441406,
                    0.13617396354675293
                ],
                [
                    -0.0935915857553482,
                    -0.03730309009552002,
                    -0.0133390873670578,
                    -0.09299582242965698,
                    -0.12507878243923187,
                    -0.0013341456651687622,
                    0.12443310022354126,
                    -0.15300433337688446,
                    -0.01909320056438446,
                    -0.025572508573532104,
                    -0.046184152364730835,
                    -0.11749152839183807,
                    0.012487038969993591,
                    -0.13880415260791779,
                    0.016815826296806335,
                    -0.15412449836730957,
                    -0.07208301872015,
                    0.06146703660488129,
                    -0.03656938672065735,
                    -0.15877698361873627,
                    0.0628049224615097,
                    0.06262363493442535,
                    -0.1162274032831192,
                    -0.09959480911493301,
                    0.019880160689353943,
                    -0.09367085248231888,
                    0.1372651755809784,
                    0.0312657356262207,
                    -0.12252555787563324,
                    -0.04206012189388275
                ],
                [
                    -0.06683461368083954,
                    -0.05111879110336304,
                    0.1794968545436859,
                    -0.1435810923576355,
                    -0.05036439001560211,
                    0.12864205241203308,
                    0.10137492418289185,
                    -0.13468381762504578,
                    0.1756362020969391,
                    0.11856311559677124,
                    -0.15956902503967285,
                    0.14598125219345093,
                    0.1407667100429535,
                    0.17709800601005554,
                    -0.16714347898960114,
                    0.08059966564178467,
                    -0.026031211018562317,
                    -0.13907288014888763,
                    -0.053781330585479736,
                    0.042596593499183655,
                    0.14421391487121582,
                    -0.05927461385726929,
                    0.010222852230072021,
                    0.17056748270988464,
                    0.1489725112915039,
                    -0.02273307740688324,
                    0.14814797043800354,
                    -0.021495506167411804,
                    -0.046732425689697266,
                    -0.024060934782028198
                ]
            ],
            [
                -0.006903931498527527,
                -0.1742679476737976,
                0.14254942536354065,
                0.16620400547981262,
                -0.020777538418769836,
                -0.04986937344074249,
                0.080105721950531,
                -0.09641940891742706,
                0.04847785830497742,
                -0.12062664330005646,
                -0.04396235942840576,
                0.05645810067653656,
                0.1488431692123413,
                0.07836833596229553,
                -0.06780030578374863
            ]
        ],
        [
            [
                [
                    0.17325100302696228,
                    0.17978310585021973,
                    -0.0030578672885894775,
                    -0.061387911438941956,
                    -0.25617536902427673,
                    -0.15032660961151123,
                    -0.0524313747882843,
                    0.05076715350151062,
                    -0.12919525802135468,
                    -0.238905668258667,
                    0.019192546606063843,
                    -0.18316760659217834,
                    -0.051256269216537476,
                    -0.09332120418548584,
                    -0.16218088567256927
                ],
                [
                    -0.08332981169223785,
                    -0.25634831190109253,
                    0.17722025513648987,
                    -0.07873731851577759,
                    -0.0874045193195343,
                    -0.07189978659152985,
                    -0.19579461216926575,
                    0.017434358596801758,
                    -0.23439309000968933,
                    -0.2142437994480133,
                    0.05002117156982422,
                    -0.20608222484588623,
                    0.240418940782547,
                    0.15494701266288757,
                    -0.2563437223434448
                ],
                [
                    0.15965503454208374,
                    0.17231765389442444,
                    -0.2181250900030136,
                    -0.08944441378116608,
                    0.2117736041545868,
                    -0.003406524658203125,
                    0.043895453214645386,
                    0.204551100730896,
                    0.12601345777511597,
                    0.25369879603385925,
                    0.25326457619667053,
                    -0.22900836169719696,
                    -0.045471325516700745,
                    -0.03857201337814331,
                    -0.015399053692817688
                ],
                [
                    0.24125412106513977,
                    -0.07003816962242126,
                    -0.24787017703056335,
                    0.11530321836471558,
                    0.0049055516719818115,
                    0.0625365674495697,
                    -0.19247476756572723,
                    0.09184011816978455,
                    -0.09391938149929047,
                    -0.1762591302394867,
                    -0.01162099838256836,
                    -0.018754631280899048,
                    -0.10181498527526855,
                    -0.12689054012298584,
                    -0.18476325273513794
                ],
                [
                    -0.00813436508178711,
                    -0.0891842246055603,
                    -0.1708359569311142,
                    0.03839263319969177,
                    0.009072929620742798,
                    -0.03441610932350159,
                    0.13719946146011353,
                    -0.12819325923919678,
                    0.10520148277282715,
                    -0.20515486598014832,
                    -0.06833082437515259,
                    -0.0952044278383255,
                    -0.02980192005634308,
                    0.2008698582649231,
                    0.16812783479690552
                ],
                [
                    0.08854663372039795,
                    -0.04301069676876068,
                    -0.15191523730754852,
                    0.19083234667778015,
                    0.007017731666564941,
                    0.10240602493286133,
                    -0.1849288046360016,
                    0.037626713514328,
                    0.06953898072242737,
                    -0.15010404586791992,
                    -0.0862307995557785,
                    -0.23867538571357727,
                    -0.15674272179603577,
                    0.23224404454231262,
                    -0.12492303550243378
                ],
                [
                    0.11472100019454956,
                    0.2246246337890625,
                    -0.043245330452919006,
                    -0.003163248300552368,
                    -0.12331436574459076,
                    -0.04559989273548126,
                    -0.2051520049571991,
                    0.24665233492851257,
                    -0.1619439423084259,
                    0.18046855926513672,
                    -0.020314142107963562,
                    0.11357322335243225,
                    -0.07521703839302063,
                    -0.1970202773809433,
                    -0.09175051748752594
                ]
            ],
            [
                0.06051194667816162,
                -0.08757694065570831,
                -0.01221400499343872,
                0.16326424479484558,
                0.01255953311920166,
                -0.14479364454746246,
                -0.11759202182292938
            ]
        ]
    ]
}