{
    "Layers": [
        [
            "Layer 1",
            "Linear",
            4,
            8,
            "relu"
        ],
        [
            "Mr.Layer 2",
            "Linear",
            8,
            14,
            "sigmoid"
        ],
        [
            "Creative name 3",
            "Linear",
            14,
            6,
            "relu"
        ],
        [
            "dense_4",
            "Linear",
            6,
            4,
            "relu"
        ],
        [
            "dense_5",
            "Linear",
            4,
            8,
            "relu"
        ],
        [
            "dense_6",
            "Linear",
            8,
            14,
            "sigmoid"
        ],
        [
            "dense_7",
            "Linear",
            14,
            6,
            "relu"
        ],
        [
            "dense_8",
            "Linear",
            6,
            4,
            "relu"
        ],        [
            "dense_9",
            "Linear",
            4,
            8,
            "relu"
        ],
        [
            "dense_10",
            "Linear",
            8,
            14,
            "sigmoid"
        ],
        [
            "dense_11",
            "Linear",
            14,
            6,
            "relu"
        ],
        [
            "dense_12",
            "Linear",
            6,
            4,
            "relu"
        ],        [
            "dense_13",
            "Linear",
            4,
            8,
            "relu"
        ],
        [
            "dense_14",
            "Linear",
            8,
            14,
            "sigmoid"
        ],
        [
            "dense_15",
            "Linear",
            14,
            6,
            "relu"
        ],
        [
            "dense_16",
            "Linear",
            6,
            4,
            "relu"
        ],        [
            "dense_17",
            "Linear",
            4,
            8,
            "relu"
        ],
        [
            "dense_18",
            "Linear",
            8,
            14,
            "sigmoid"
        ],
        [
            "dense_19",
            "Linear",
            14,
            6,
            "relu"
        ],
        [
            "dense_20",
            "Linear",
            6,
            4,
            "relu"
        ],        [
            "dense_21",
            "Linear",
            4,
            8,
            "relu"
        ],
        [
            "dense_22",
            "Linear",
            8,
            14,
            "sigmoid"
        ],
        [
            "dense_23",
            "Linear",
            14,
            6,
            "relu"
        ],
        [
            "dense_24",
            "Linear",
            6,
            4,
            "relu"
        ],
        [
            "dense_25",
            "Linear",
            8,
            14,
            "sigmoid"
        ],
        [
            "dense_26",
            "Linear",
            14,
            6,
            "relu"
        ],
        [
            "dense_27",
            "Linear",
            6,
            4,
            "relu"
        ],        [
            "dense_28",
            "Linear",
            4,
            8,
            "relu"
        ],
        [
            "dense_29",
            "Linear",
            8,
            14,
            "sigmoid"
        ],
        [
            "dense_30",
            "Linear",
            14,
            6,
            "relu"
        ],
        [
            "dense_31",
            "Linear",
            6,
            4,
            "relu"
        ],        [
            "dense_32",
            "Linear",
            4,
            8,
            "relu"
        ],
        [
            "dense_33",
            "Linear",
            8,
            14,
            "sigmoid"
        ],
        [
            "dense_34",
            "Linear",
            14,
            6,
            "relu"
        ],
        [
            "dense_35",
            "Linear",
            8,
            14,
            "sigmoid"
        ],
        [
            "Mrs. Layer 36",
            "Linear",
            14,
            6,
            "relu"
        ]
    ],
    "Weights": [
        [
            [
                -0.3434661328792572,
                -0.08650386333465576,
                -0.022173643112182617,
                0.14655905961990356
            ],
            [
                -0.539794385433197,
                0.31568092107772827,
                -0.14005231857299805,
                -0.15565979480743408
            ],
            [
                -0.46571946144104004,
                -0.2859378755092621,
                -0.31084614992141724,
                -0.18724560737609863
            ],
            [
                0.5020279288291931,
                -0.23808112740516663,
                0.484497606754303,
                -0.21205192804336548
            ],
            [
                -0.05692708492279053,
                0.12229514122009277,
                -0.1634984016418457,
                0.2721211314201355
            ],
            [
                -0.3782217800617218,
                0.5128822922706604,
                -0.23362216353416443,
                0.46693140268325806
            ],
            [
                0.3106042742729187,
                -0.3556384742259979,
                -0.35673025250434875,
                -0.6370826363563538
            ],
            [
                -0.4680211842060089,
                0.5828031897544861,
                0.18240129947662354,
                -0.09188789129257202
            ]
        ],
        [
            [
                -0.03013378381729126,
                -0.014268338680267334,
                0.39384591579437256,
                -0.24045154452323914,
                0.4899664521217346,
                -0.30228012800216675,
                -0.3226888179779053,
                0.2938235402107239
            ],
            [
                0.44193071126937866,
                -0.0675542950630188,
                0.4464181661605835,
                0.5118138194084167,
                -0.44098231196403503,
                -0.48412391543388367,
                -0.1827700138092041,
                0.08574044704437256
            ],
            [
                -0.3707202970981598,
                0.009611666202545166,
                0.3693845272064209,
                -0.08653807640075684,
                -0.38120976090431213,
                -0.4301331341266632,
                0.3990635275840759,
                0.07731276750564575
            ],
            [
                0.17411059141159058,
                0.48725539445877075,
                -0.25541380047798157,
                0.46307897567749023,
                -0.15492385625839233,
                -0.09538877010345459,
                0.38199418783187866,
                -0.5168265700340271
            ],
            [
                0.47059351205825806,
                0.29164445400238037,
                -0.26427242159843445,
                -0.3099059760570526,
                0.26538407802581787,
                -0.44035202264785767,
                -0.47926566004753113,
                -0.43330514430999756
            ],
            [
                0.06680387258529663,
                0.5156262516975403,
                -0.4256264865398407,
                0.38494086265563965,
                -0.20583325624465942,
                -0.022102653980255127,
                0.4777379035949707,
                -0.3045353591442108
            ],
            [
                -0.2910313606262207,
                0.054466307163238525,
                0.11727863550186157,
                0.18182188272476196,
                0.013502836227416992,
                0.08476918935775757,
                0.3319183588027954,
                0.518194854259491
            ],
            [
                0.25327444076538086,
                -0.10376691818237305,
                0.22071868181228638,
                0.19057035446166992,
                -0.0381280779838562,
                -0.01374727487564087,
                -0.38256630301475525,
                -0.5071525573730469
            ],
            [
                -0.5208352208137512,
                0.2500923275947571,
                -0.25062400102615356,
                0.48431819677352905,
                0.12112176418304443,
                -0.10418301820755005,
                -0.2099229395389557,
                -0.04892385005950928
            ],
            [
                -0.4767701029777527,
                0.18805164098739624,
                0.19507700204849243,
                0.4690057635307312,
                0.12326943874359131,
                -0.1760067641735077,
                -0.4240742325782776,
                0.1837857961654663
            ],
            [
                0.01966238021850586,
                -0.04574263095855713,
                0.5104332566261292,
                -0.09535825252532959,
                0.2506978511810303,
                -0.40478748083114624,
                -0.42221277952194214,
                -0.39805060625076294
            ],
            [
                -0.1500476598739624,
                -0.015359461307525635,
                0.26121336221694946,
                -0.43913543224334717,
                0.37503480911254883,
                0.3226071000099182,
                0.3961554765701294,
                -0.4721575081348419
            ],
            [
                -0.5165521502494812,
                -0.2145141065120697,
                0.506758987903595,
                0.31381261348724365,
                -0.06505188345909119,
                0.2435423731803894,
                0.029984354972839355,
                0.264840304851532
            ],
            [
                -0.0011820793151855469,
                -0.21043279767036438,
                -0.44616255164146423,
                0.23702365159988403,
                -0.3368902802467346,
                0.28581053018569946,
                0.43720942735671997,
                -0.4297105371952057
            ]
        ],
        [
            [
                -0.3511822521686554,
                0.2874670624732971,
                0.27021414041519165,
                0.4415634870529175,
                0.32715874910354614,
                0.23410141468048096,
                -0.03880375623703003,
                -0.525076687335968,
                0.12003016471862793,
                0.15444868803024292,
                -0.1571337878704071,
                -0.14003586769104004,
                -0.07873314619064331,
                0.08133876323699951
            ],
            [
                0.1098375916481018,
                -0.24103125929832458,
                0.07149714231491089,
                0.2666494846343994,
                0.06662380695343018,
                -0.40799227356910706,
                -0.23787027597427368,
                -0.35316598415374756,
                0.27383100986480713,
                -0.33862876892089844,
                0.3226349949836731,
                0.4830203056335449,
                0.26048094034194946,
                -0.027396678924560547
            ],
            [
                0.33293581008911133,
                0.24854224920272827,
                -0.12223213911056519,
                -0.05988404154777527,
                -0.5452431440353394,
                0.21200966835021973,
                -0.24791085720062256,
                -0.4295245409011841,
                -0.05728861689567566,
                0.20212465524673462,
                -0.19866237044334412,
                0.02067798376083374,
                0.3231028914451599,
                0.38118547201156616
            ],
            [
                -0.22475957870483398,
                0.16719359159469604,
                0.027810752391815186,
                0.035501182079315186,
                -0.16572684049606323,
                -0.3803773820400238,
                0.0075078606605529785,
                -0.053336143493652344,
                -0.12528982758522034,
                -0.49981626868247986,
                0.4583238363265991,
                -0.23215264081954956,
                0.3896297216415405,
                -0.3133715093135834
            ],
            [
                -0.022784888744354248,
                0.2417777180671692,
                0.0042906999588012695,
                -0.3857981860637665,
                0.2727254629135132,
                -0.23935911059379578,
                -0.5443122982978821,
                -0.5150718688964844,
                0.15077757835388184,
                -0.524102509021759,
                -0.13985344767570496,
                0.35513800382614136,
                -0.10240182280540466,
                -0.018200337886810303
            ],
            [
                0.1255665421485901,
                -0.5411757230758667,
                0.20153528451919556,
                -0.3669988512992859,
                0.19525283575057983,
                -0.12691748142242432,
                0.4965304136276245,
                -0.12300977110862732,
                0.12202322483062744,
                -0.31717902421951294,
                0.07089853286743164,
                -0.525538444519043,
                0.04616987705230713,
                -0.155042827129364
            ]
        ],
        [
            [
                0.49795591831207275,
                0.48084139823913574,
                -0.5647294521331787,
                -0.07872539758682251,
                -0.684417188167572,
                -0.6895948648452759
            ],
            [
                0.4075496196746826,
                0.7258975505828857,
                0.06533622741699219,
                -0.37340185046195984,
                0.45108866691589355,
                0.40418362617492676
            ],
            [
                -0.3579976558685303,
                0.26295244693756104,
                -0.14671963453292847,
                0.6764780282974243,
                0.5383830070495605,
                -0.5158606171607971
            ],
            [
                -0.01606166362762451,
                0.03703206777572632,
                -0.04750460386276245,
                -0.3308131992816925,
                0.1837557554244995,
                -0.008030712604522705
            ]
        ],
        [
            [
                -0.5345783233642578,
                0.9313902854919434,
                -0.40228962898254395,
                -0.9712073802947998
            ],
            [
                0.661207914352417,
                0.8242828845977783,
                -0.9320242404937744,
                0.8965229988098145
            ]
        ]
    ]
}