{
    "Layers": [
        [
            "dense_1",
            "Linear",
            2,
            4,
            "relu"
        ],
        [
            "dense_1_2",
            "Linear",
            4,
            6,
            "sigmoid"
        ],
        [
            "dense_2_1",
            "Linear",
            6,
            14,
            "relu"
        ],
        [
            "dense_3_1",
            "Linear",
            14,
            8,
            "relu"
        ],
        [
            "dense_4_1",
            "Linear",
            8,
            4,
            ""
        ]
    ],
    "Weights": [
        [
            [
                0.14622902870178223,
                0.7602329254150391
            ],
            [
                -0.6812307834625244,
                0.9859354496002197
            ],
            [
                -0.3650319576263428,
                0.39507126808166504
            ],
            [
                -0.8013250827789307,
                0.32256150245666504
            ]
        ],
        [
            [
                -0.689462423324585,
                0.7394790649414062,
                0.4099081754684448,
                0.1998920440673828
            ],
            [
                -0.16136187314987183,
                -0.19372397661209106,
                -0.18727409839630127,
                0.056104302406311035
            ],
            [
                0.168268084526062,
                -0.7498250603675842,
                -0.5011613368988037,
                -0.20680880546569824
            ],
            [
                0.09869170188903809,
                -0.08557862043380737,
                0.07755541801452637,
                -0.36334872245788574
            ],
            [
                0.5774445533752441,
                -0.02806687355041504,
                0.49100053310394287,
                -0.04653042554855347
            ],
            [
                -0.25976991653442383,
                0.4643075466156006,
                0.19831949472427368,
                0.3198176622390747
            ]
        ],
        [
            [
                0.027214229106903076,
                0.05827909708023071,
                0.431729793548584,
                0.358717679977417,
                -0.09834447503089905,
                0.16366708278656006
            ],
            [
                -0.06254580616950989,
                0.11502957344055176,
                -0.42173200845718384,
                -0.3544716238975525,
                -0.16711759567260742,
                -0.15063172578811646
            ],
            [
                -0.24343472719192505,
                -0.08062535524368286,
                0.0971408486366272,
                -0.2076239287853241,
                -0.28456172347068787,
                -0.3297390341758728
            ],
            [
                -0.18869489431381226,
                -0.40119796991348267,
                0.4982938766479492,
                -0.2261648178100586,
                -0.13939261436462402,
                -0.10767871141433716
            ],
            [
                -0.14821064472198486,
                0.39604538679122925,
                -0.5230098366737366,
                -0.2771874666213989,
                0.4420955181121826,
                -0.5395423173904419
            ],
            [
                -0.11087900400161743,
                0.3455880284309387,
                -0.39486944675445557,
                -0.21180400252342224,
                -0.17519336938858032,
                0.25091463327407837
            ],
            [
                0.473000168800354,
                -0.5317696332931519,
                0.424038827419281,
                -0.2274896204471588,
                -0.18115714192390442,
                -0.5218925476074219
            ],
            [
                0.13924413919448853,
                0.32114118337631226,
                -0.5247304439544678,
                -0.02596348524093628,
                -0.11904489994049072,
                -0.07855984568595886
            ],
            [
                0.15984737873077393,
                0.06284356117248535,
                -0.08849897980690002,
                0.16152280569076538,
                -0.24159982800483704,
                -0.2725072205066681
            ],
            [
                0.3850235342979431,
                -0.42887789011001587,
                0.007319033145904541,
                0.23371851444244385,
                0.5326149463653564,
                0.15663182735443115
            ],
            [
                -0.14234349131584167,
                -0.49249711632728577,
                -0.503206193447113,
                0.23028534650802612,
                -0.3229588270187378,
                -0.016968488693237305
            ],
            [
                0.22547519207000732,
                -0.0598011314868927,
                -0.01881176233291626,
                0.3638342022895813,
                0.36471933126449585,
                0.5002015829086304
            ],
            [
                0.013627171516418457,
                0.5065687894821167,
                -0.22154828906059265,
                -0.28831011056900024,
                -0.1488015353679657,
                0.2557685375213623
            ],
            [
                0.30199581384658813,
                -0.1833181083202362,
                0.18342959880828857,
                0.01596742868423462,
                -0.13590514659881592,
                0.12270617485046387
            ]
        ],
        [
            [
                -0.32005441188812256,
                -0.31551218032836914,
                0.023956716060638428,
                -0.24824461340904236,
                0.3379499912261963,
                -0.5055291652679443,
                -0.07909998297691345,
                0.16370278596878052,
                0.34037381410598755,
                -0.248104065656662,
                0.1632482409477234,
                0.06307590007781982,
                -0.44839462637901306,
                -0.0757652223110199
            ],
            [
                0.38033032417297363,
                -0.05071792006492615,
                -0.47032496333122253,
                -0.4153723418712616,
                -0.19376999139785767,
                0.2503461241722107,
                0.009704053401947021,
                -0.5038716793060303,
                -0.2583506107330322,
                -0.28186333179473877,
                -0.227754145860672,
                -0.1595538854598999,
                0.33252882957458496,
                0.10605156421661377
            ],
            [
                0.16858959197998047,
                0.3235013484954834,
                -0.23155641555786133,
                0.23024457693099976,
                -0.3915708661079407,
                -0.3307608962059021,
                -0.32320353388786316,
                0.28379911184310913,
                -0.2137661874294281,
                -0.3805387616157532,
                0.4124377369880676,
                0.37019383907318115,
                0.32212913036346436,
                0.30569130182266235
            ],
            [
                -0.07205519080162048,
                0.2557716369628906,
                -0.3377302289009094,
                -0.30874019861221313,
                -0.16540709137916565,
                0.41752421855926514,
                -0.2855859398841858,
                -0.1923726201057434,
                0.08545398712158203,
                0.046211421489715576,
                0.12320107221603394,
                -0.47896432876586914,
                0.5018828511238098,
                -0.47675639390945435
            ],
            [
                -0.4833894371986389,
                -0.4878324568271637,
                0.24687635898590088,
                0.3441915512084961,
                0.4265865683555603,
                -0.17724114656448364,
                0.10608291625976562,
                0.1845003366470337,
                0.5067055821418762,
                -0.20237287878990173,
                -0.4873911738395691,
                -0.4222175180912018,
                -0.1851942241191864,
                -0.2193397581577301
            ],
            [
                -0.48417097330093384,
                0.2566165328025818,
                -0.37417981028556824,
                0.3251710534095764,
                -0.44845715165138245,
                -0.18528425693511963,
                -0.3988702893257141,
                0.4309312105178833,
                0.1685791015625,
                -0.39981740713119507,
                0.3608925938606262,
                0.003002166748046875,
                0.11984872817993164,
                -0.2960922122001648
            ],
            [
                -0.4190676808357239,
                0.47305822372436523,
                0.23173809051513672,
                -0.35499441623687744,
                -0.4185447096824646,
                0.29767894744873047,
                0.18514418601989746,
                -0.07962405681610107,
                0.48069316148757935,
                -0.25836890935897827,
                0.0037590861320495605,
                0.20988255739212036,
                0.1847568154335022,
                -0.5096054077148438
            ],
            [
                0.1442091464996338,
                0.016130924224853516,
                -0.3353620767593384,
                -0.2192121148109436,
                -0.14780426025390625,
                -0.05030417442321777,
                -0.32707902789115906,
                0.06119304895401001,
                -0.518441379070282,
                -0.30257657170295715,
                -0.026051491498947144,
                -0.11945667862892151,
                -0.08759206533432007,
                -0.026973605155944824
            ]
        ],
        [
            [
                0.05560469627380371,
                -0.2596960663795471,
                0.6373181939125061,
                -0.6684058308601379,
                -0.5314080119132996,
                0.6992939114570618,
                -0.6806402206420898,
                -0.3941035270690918
            ],
            [
                0.1701211929321289,
                0.40009230375289917,
                -0.353779137134552,
                -0.4744113087654114,
                0.30837517976760864,
                0.1295415163040161,
                0.6066548228263855,
                -0.4941883087158203
            ],
            [
                -0.627568244934082,
                -0.006081819534301758,
                -0.238579660654068,
                0.1956837773323059,
                -0.13042140007019043,
                0.6107491850852966,
                -0.39115646481513977,
                0.3237594962120056
            ],
            [
                -0.3746214210987091,
                0.12298381328582764,
                0.08406323194503784,
                0.022279858589172363,
                -0.6200428605079651,
                0.029480040073394775,
                -0.1360079050064087,
                -0.4396386444568634
            ]
        ]
    ]
}