{
    "Layers": [
        [
            "fc1",
            "Linear",
            15,
            20
        ],
        [
            "fc2",
            "Linear",
            20,
            30
        ],
        [
            "fc3",
            "Linear",
            30,
            15
        ],
        [
            "fc4",
            "Linear",
            15,
            7
        ],
        [
            "fc5",
            "Linear",
            7,
            3
        ]
    ],
    "Activation functions": [
        [
            "fc1",
            "ReLU"
        ],
        [
            "fc2",
            "ReLU"
        ],
        [
            "fc3",
            "ReLU"
        ],
        [
            "fc4",
            "ReLU"
        ]
    ],
    "Weights": [
        [
            [
                [
                    -0.025469094514846802,
                    0.09995925426483154,
                    0.07281017303466797,
                    0.10135236382484436,
                    -0.14049431681632996,
                    0.15522459149360657,
                    -0.1400664746761322,
                    -0.06283436715602875,
                    -0.053463831543922424,
                    0.09540459513664246,
                    0.07202619314193726,
                    -0.024877548217773438,
                    0.23624533414840698,
                    -0.22856667637825012,
                    0.06189000606536865
                ],
                [
                    0.05942213535308838,
                    0.1867373287677765,
                    0.12097048759460449,
                    -0.00900961458683014,
                    0.1709759533405304,
                    -0.23684513568878174,
                    0.2421536147594452,
                    -0.22661170363426208,
                    0.0997219979763031,
                    0.11092278361320496,
                    -0.2267562747001648,
                    0.13489499688148499,
                    -0.014423772692680359,
                    -0.03321641683578491,
                    0.04709738492965698
                ],
                [
                    -0.021433323621749878,
                    0.17371127009391785,
                    0.18287387490272522,
                    -0.20044012367725372,
                    0.08926704525947571,
                    -0.1660296767950058,
                    0.16969671845436096,
                    -0.12002339959144592,
                    -0.23065024614334106,
                    0.10106515884399414,
                    -0.010236591100692749,
                    0.10699382424354553,
                    -0.0770074725151062,
                    0.24541249871253967,
                    -0.13095884025096893
                ],
                [
                    0.1974797546863556,
                    0.10261839628219604,
                    0.09947913885116577,
                    0.1800996959209442,
                    0.13961634039878845,
                    0.24306967854499817,
                    -0.018145903944969177,
                    -0.19540271162986755,
                    -0.021240368485450745,
                    -0.1481894850730896,
                    0.24977025389671326,
                    0.23628121614456177,
                    0.004820823669433594,
                    -0.011213287711143494,
                    -0.15085914731025696
                ],
                [
                    0.12807339429855347,
                    0.04343384504318237,
                    -0.020665273070335388,
                    -0.2351350337266922,
                    -0.028201967477798462,
                    0.057169169187545776,
                    -0.0842752605676651,
                    -0.14282137155532837,
                    0.21192008256912231,
                    -0.05559206008911133,
                    0.2506618797779083,
                    0.05991700291633606,
                    -0.034420549869537354,
                    -0.20378485321998596,
                    0.24506738781929016
                ],
                [
                    0.25773146748542786,
                    0.09692519903182983,
                    0.12520447373390198,
                    0.13557910919189453,
                    -0.18652597069740295,
                    0.17876142263412476,
                    0.14704200625419617,
                    -0.0825185477733612,
                    0.10526946187019348,
                    -0.09273771941661835,
                    0.02151969075202942,
                    -0.03509911894798279,
                    0.24081450700759888,
                    -0.248470276594162,
                    0.04496258497238159
                ],
                [
                    0.12339568138122559,
                    0.14728319644927979,
                    -0.21535049378871918,
                    0.1633584201335907,
                    0.08128729462623596,
                    0.01594659686088562,
                    -0.21361282467842102,
                    0.11616027355194092,
                    0.1991618573665619,
                    -0.22699454426765442,
                    0.2529169023036957,
                    -0.18535995483398438,
                    -0.23754332959651947,
                    -0.059940189123153687,
                    0.2053985297679901
                ],
                [
                    0.21581199765205383,
                    -0.16561870276927948,
                    -0.14987611770629883,
                    0.21167424321174622,
                    0.1493658423423767,
                    -0.14244326949119568,
                    0.07808437943458557,
                    0.21247005462646484,
                    -0.11703798174858093,
                    0.013721644878387451,
                    0.19881251454353333,
                    -0.14623534679412842,
                    0.25572171807289124,
                    -0.07729378342628479,
                    0.2549665868282318
                ],
                [
                    0.16443568468093872,
                    -0.15062086284160614,
                    -0.09688358008861542,
                    -0.23120778799057007,
                    0.12865370512008667,
                    0.04757291078567505,
                    -0.09571655094623566,
                    -0.22386221587657928,
                    0.2148328423500061,
                    -0.2000848352909088,
                    0.168095201253891,
                    -0.23016713559627533,
                    0.1876872479915619,
                    -0.02066032588481903,
                    -0.21504536271095276
                ],
                [
                    0.06666240096092224,
                    -0.17447543144226074,
                    -0.07016175985336304,
                    0.11403533816337585,
                    0.22385239601135254,
                    0.05885383486747742,
                    0.0030660927295684814,
                    0.06186676025390625,
                    -0.22779983282089233,
                    -0.0525934100151062,
                    0.06311675906181335,
                    0.10202452540397644,
                    0.029528707265853882,
                    -0.25185754895210266,
                    -0.005703777074813843
                ],
                [
                    -0.18899071216583252,
                    -0.21442392468452454,
                    -0.0661197304725647,
                    -0.019736066460609436,
                    0.06881701946258545,
                    -0.04508550465106964,
                    0.18890416622161865,
                    -0.18781894445419312,
                    -0.025424689054489136,
                    -0.06723017990589142,
                    -0.0813872367143631,
                    -0.2459816187620163,
                    -0.032334208488464355,
                    0.20940348505973816,
                    0.15863004326820374
                ],
                [
                    0.09515133500099182,
                    -0.022873476147651672,
                    0.09600403904914856,
                    -0.11534398794174194,
                    -0.02205643057823181,
                    -0.14851294457912445,
                    -0.02372121810913086,
                    0.11596336960792542,
                    -0.2477172315120697,
                    0.027328848838806152,
                    -0.16064131259918213,
                    0.12158527970314026,
                    0.10517960786819458,
                    0.06665515899658203,
                    0.030939608812332153
                ],
                [
                    0.10707610845565796,
                    -0.16373556852340698,
                    -0.014352366328239441,
                    -0.05165262520313263,
                    0.07869508862495422,
                    -0.08275893330574036,
                    0.18117168545722961,
                    -0.0009760260581970215,
                    -0.16191864013671875,
                    -0.2555854320526123,
                    0.049938738346099854,
                    -0.1397097110748291,
                    0.23547863960266113,
                    -0.23871161043643951,
                    -0.0501226931810379
                ],
                [
                    0.22860237956047058,
                    0.25639352202415466,
                    -0.20808063447475433,
                    0.24959269165992737,
                    0.05692845582962036,
                    0.020940572023391724,
                    -0.22290456295013428,
                    0.009638011455535889,
                    -0.20171265304088593,
                    0.126753032207489,
                    0.24565818905830383,
                    0.10961279273033142,
                    0.19294056296348572,
                    0.04767495393753052,
                    -0.030168235301971436
                ],
                [
                    0.049815207719802856,
                    0.06064325571060181,
                    -0.17488795518875122,
                    -0.16603823006153107,
                    -0.15960100293159485,
                    -0.2512996792793274,
                    -0.22158470749855042,
                    0.11209869384765625,
                    -0.14563804864883423,
                    0.1531686782836914,
                    -0.21718187630176544,
                    -0.02790626883506775,
                    -0.20438075065612793,
                    0.10163867473602295,
                    0.2549021542072296
                ],
                [
                    -0.010378673672676086,
                    0.00031638145446777344,
                    0.18615615367889404,
                    0.0674436092376709,
                    -0.15010659396648407,
                    0.06646445393562317,
                    -0.155459925532341,
                    -0.1588287353515625,
                    0.14150989055633545,
                    -0.08286280930042267,
                    0.10068213939666748,
                    -0.22776886820793152,
                    -0.003932952880859375,
                    -0.24110829830169678,
                    0.08188673853874207
                ],
                [
                    -0.013948872685432434,
                    0.07168999314308167,
                    -0.21841682493686676,
                    -0.2522440254688263,
                    0.035863131284713745,
                    -0.14102599024772644,
                    0.10085955262184143,
                    0.04395464062690735,
                    -0.2521793246269226,
                    0.1647256314754486,
                    0.2438715398311615,
                    -0.16909606754779816,
                    -0.1583641767501831,
                    0.017465054988861084,
                    0.20216453075408936
                ],
                [
                    -0.1459682285785675,
                    -0.15027187764644623,
                    -0.017301857471466064,
                    -0.19576480984687805,
                    0.1668814718723297,
                    -0.017730653285980225,
                    -0.18425253033638,
                    0.2470252811908722,
                    0.11525759100914001,
                    0.05460470914840698,
                    -0.22578708827495575,
                    0.1212383508682251,
                    -0.048158273100852966,
                    -0.04981197416782379,
                    0.06112411618232727
                ],
                [
                    -0.14938560128211975,
                    -0.0028686821460723877,
                    -0.17883476614952087,
                    0.22846731543540955,
                    -0.1158987283706665,
                    0.05995786190032959,
                    -0.18681548535823822,
                    0.19401946663856506,
                    -0.031601682305336,
                    0.1446269452571869,
                    0.12208300828933716,
                    -0.08244433999061584,
                    -0.2182525247335434,
                    -0.19908593595027924,
                    0.2288968563079834
                ],
                [
                    -0.01067313551902771,
                    -0.07611525058746338,
                    0.03171226382255554,
                    -0.0947122871875763,
                    -0.03848592936992645,
                    -0.2555566132068634,
                    -0.08857423067092896,
                    -0.17563679814338684,
                    -0.1830306351184845,
                    0.13831573724746704,
                    -0.24263201653957367,
                    -0.051385730504989624,
                    -0.19683387875556946,
                    0.034516990184783936,
                    0.189884215593338
                ]
            ],
            [
                -0.11372555792331696,
                -0.17292559146881104,
                -0.1786489188671112,
                -0.1799689382314682,
                -0.05192400515079498,
                0.23654797673225403,
                -0.10453495383262634,
                0.22537240386009216,
                0.18203958868980408,
                0.20488733053207397,
                0.07211178541183472,
                -0.2536715269088745,
                0.20954924821853638,
                0.04913166165351868,
                -0.08238677680492401,
                -0.16439619660377502,
                -0.15265709161758423,
                0.1763964593410492,
                0.25567910075187683,
                0.25567135214805603
            ]
        ],
        [
            [
                [
                    0.02126707136631012,
                    -0.10731052607297897,
                    0.12556540966033936,
                    0.14914101362228394,
                    0.023462191224098206,
                    -0.031069621443748474,
                    0.11640575528144836,
                    0.1306549608707428,
                    -0.033595919609069824,
                    -0.05753813683986664,
                    0.09919777512550354,
                    -0.05508400499820709,
                    0.10987088084220886,
                    -0.17724844813346863,
                    0.19006302952766418,
                    -0.02956804633140564,
                    -0.11505473405122757,
                    -0.17270594835281372,
                    -0.05260522663593292,
                    -0.20819109678268433
                ],
                [
                    -0.016022339463233948,
                    0.09796854853630066,
                    -0.09425121545791626,
                    -0.16086968779563904,
                    -0.14170601963996887,
                    -0.18299466371536255,
                    0.01446850597858429,
                    -0.001285061240196228,
                    -0.15532737970352173,
                    0.20270341634750366,
                    -0.1593494415283203,
                    0.05954936146736145,
                    0.18875741958618164,
                    0.12976890802383423,
                    0.13306817412376404,
                    -0.002206578850746155,
                    0.14365655183792114,
                    0.002980247139930725,
                    0.05691090226173401,
                    -0.06771089136600494
                ],
                [
                    -0.011014774441719055,
                    -0.09135586023330688,
                    0.015976041555404663,
                    0.1701800525188446,
                    -0.0806053876876831,
                    0.01841914653778076,
                    0.13669505715370178,
                    -0.1730482131242752,
                    0.06564673781394958,
                    0.0940103530883789,
                    -0.07300016283988953,
                    0.14527449011802673,
                    0.11838215589523315,
                    -0.09211333096027374,
                    0.003802686929702759,
                    0.16513729095458984,
                    0.0071379393339157104,
                    0.0027176588773727417,
                    0.07373836636543274,
                    0.06766748428344727
                ],
                [
                    0.07079914212226868,
                    -0.07112379372119904,
                    -0.08991743624210358,
                    -0.16281387209892273,
                    -0.022704601287841797,
                    0.1394287645816803,
                    0.17296305298805237,
                    0.22078338265419006,
                    0.13476315140724182,
                    0.21110209822654724,
                    0.09802007675170898,
                    -0.20335040986537933,
                    0.18598350882530212,
                    -0.21600857377052307,
                    0.059774190187454224,
                    -0.20637065172195435,
                    -0.12422056496143341,
                    -0.0032398998737335205,
                    -0.1876799315214157,
                    0.11524680256843567
                ],
                [
                    0.08997470140457153,
                    0.21293583512306213,
                    0.007663920521736145,
                    -0.2103004902601242,
                    -0.05669276416301727,
                    -0.17293494939804077,
                    -0.030686020851135254,
                    -0.12368829548358917,
                    0.038161277770996094,
                    0.11021801829338074,
                    0.15123066306114197,
                    -0.1112409308552742,
                    -0.15291380882263184,
                    0.05340296030044556,
                    0.0743216872215271,
                    0.02448044717311859,
                    0.12013739347457886,
                    -0.0075704604387283325,
                    -0.17147818207740784,
                    -0.18573077023029327
                ],
                [
                    -0.17056837677955627,
                    0.12455075979232788,
                    -0.20388591289520264,
                    0.09726914763450623,
                    -0.1237766370177269,
                    -0.05455370247364044,
                    -0.1553778350353241,
                    0.22076371312141418,
                    0.16618883609771729,
                    -0.052340373396873474,
                    0.12121221423149109,
                    0.06792369484901428,
                    0.15261566638946533,
                    0.13818791508674622,
                    -0.11419860273599625,
                    0.10518461465835571,
                    0.21362680196762085,
                    0.018520697951316833,
                    -0.04918035864830017,
                    -0.05623471736907959
                ],
                [
                    0.21729567646980286,
                    -0.04449343681335449,
                    -0.000839531421661377,
                    0.12884142994880676,
                    0.22195589542388916,
                    -0.022671863436698914,
                    -0.13470280170440674,
                    0.048050105571746826,
                    -0.0003422945737838745,
                    0.21716171503067017,
                    -0.12206652015447617,
                    0.11719533801078796,
                    0.10479772090911865,
                    -0.12458380311727524,
                    -0.05918891727924347,
                    0.15801668167114258,
                    0.024176940321922302,
                    -0.10207629948854446,
                    0.03525114059448242,
                    0.10624659061431885
                ],
                [
                    -0.20445877313613892,
                    0.07335370779037476,
                    -0.10281163454055786,
                    0.19527971744537354,
                    0.15379971265792847,
                    -0.14943841099739075,
                    -0.210564523935318,
                    -0.12772053480148315,
                    -0.10711007565259933,
                    -0.08257676661014557,
                    0.01460123062133789,
                    0.1907493770122528,
                    -0.013330832123756409,
                    0.07064977288246155,
                    -0.044288501143455505,
                    -0.11060725897550583,
                    -0.095633864402771,
                    -0.19912385940551758,
                    -0.06965646147727966,
                    0.14048078656196594
                ],
                [
                    -0.03969913721084595,
                    -0.06177319586277008,
                    0.057959944009780884,
                    0.0813504159450531,
                    -0.026954665780067444,
                    -0.11753257364034653,
                    0.22132736444473267,
                    0.011212155222892761,
                    0.07568442821502686,
                    0.18251705169677734,
                    0.08650088310241699,
                    -0.00902964174747467,
                    -0.03438955545425415,
                    0.15342366695404053,
                    -0.03607933223247528,
                    -0.22173623740673065,
                    0.18643563985824585,
                    0.07279935479164124,
                    0.023652493953704834,
                    0.07035857439041138
                ],
                [
                    0.21021223068237305,
                    0.0924639105796814,
                    -0.08867830038070679,
                    -0.12320803850889206,
                    -0.006456539034843445,
                    0.12486091256141663,
                    -0.08955159783363342,
                    0.0848064124584198,
                    -0.013170495629310608,
                    0.2086426317691803,
                    0.13277629017829895,
                    -0.007003843784332275,
                    0.15103572607040405,
                    -0.1033560261130333,
                    -0.061547353863716125,
                    -0.07943648099899292,
                    0.06323051452636719,
                    -0.11332878470420837,
                    0.11892697215080261,
                    -0.08410482108592987
                ],
                [
                    -0.04918462038040161,
                    -0.17648862302303314,
                    0.18978875875473022,
                    0.1608729362487793,
                    0.1702614724636078,
                    0.1785511076450348,
                    -0.06786304712295532,
                    0.14568600058555603,
                    0.08669090270996094,
                    -0.1592521071434021,
                    -0.10982107371091843,
                    0.15915969014167786,
                    0.07431381940841675,
                    -0.062397316098213196,
                    -0.13884910941123962,
                    -0.07733112573623657,
                    -0.036247044801712036,
                    -0.0480567067861557,
                    0.11838749051094055,
                    0.18595004081726074
                ],
                [
                    -0.11166217178106308,
                    -0.038264691829681396,
                    -0.20401577651500702,
                    0.050420552492141724,
                    -0.04393818974494934,
                    0.19116425514221191,
                    0.018906310200691223,
                    0.07123276591300964,
                    0.21333062648773193,
                    -0.1412736475467682,
                    -0.12278596311807632,
                    -0.13525862991809845,
                    -0.026980966329574585,
                    -0.0881081223487854,
                    0.1635672152042389,
                    -0.010155543684959412,
                    0.03929129242897034,
                    -0.16374406218528748,
                    0.2015974223613739,
                    0.08306884765625
                ],
                [
                    0.17074188590049744,
                    -0.12165676057338715,
                    0.001141563057899475,
                    0.015723899006843567,
                    0.17730829119682312,
                    0.09252408146858215,
                    -0.10481864213943481,
                    0.1970965564250946,
                    0.1410083770751953,
                    0.1056961715221405,
                    0.09950518608093262,
                    0.1673651933670044,
                    0.019495263695716858,
                    -0.16629208624362946,
                    -0.026543736457824707,
                    -0.10452315956354141,
                    -0.12148616462945938,
                    -0.13421419262886047,
                    0.09412851929664612,
                    0.18170946836471558
                ],
                [
                    -0.014750495553016663,
                    -0.05389106273651123,
                    0.04162752628326416,
                    -0.18019823729991913,
                    0.20317623019218445,
                    0.17747646570205688,
                    -0.1651269793510437,
                    -0.06336431205272675,
                    -0.17383086681365967,
                    -0.1377013623714447,
                    0.19475507736206055,
                    0.16277259588241577,
                    -0.07588203251361847,
                    -0.19244197010993958,
                    0.03340718150138855,
                    -0.15347141027450562,
                    0.12930959463119507,
                    -0.17586305737495422,
                    -0.07873128354549408,
                    0.011709749698638916
                ],
                [
                    -0.17548881471157074,
                    -0.20469403266906738,
                    0.05879634618759155,
                    0.021448224782943726,
                    -0.22237136960029602,
                    -0.02198520302772522,
                    -0.19144411385059357,
                    -0.1378764808177948,
                    -0.20801745355129242,
                    0.12969541549682617,
                    -0.14022624492645264,
                    -0.018686950206756592,
                    -0.10478983074426651,
                    -0.11004916578531265,
                    -0.22262278199195862,
                    0.17537856101989746,
                    -0.04718095064163208,
                    -0.08899161219596863,
                    -0.1946810483932495,
                    -0.22051280736923218
                ],
                [
                    -0.05173170566558838,
                    -0.2063930630683899,
                    0.02335628867149353,
                    0.09392815828323364,
                    0.11865821480751038,
                    0.11841577291488647,
                    -0.019330963492393494,
                    -0.09378969669342041,
                    -0.11953697353601456,
                    -0.036179184913635254,
                    0.2092934548854828,
                    0.16204127669334412,
                    0.11313143372535706,
                    -0.11087379604578018,
                    -0.04132971167564392,
                    -0.04210115969181061,
                    -0.2084173709154129,
                    -0.08004876971244812,
                    -0.12637415528297424,
                    -0.0011265873908996582
                ],
                [
                    -0.04848194122314453,
                    0.050821155309677124,
                    -0.15137098729610443,
                    0.08067494630813599,
                    0.05372670292854309,
                    -0.17111939191818237,
                    -0.1282927244901657,
                    0.1557466983795166,
                    0.04634857177734375,
                    0.058946430683135986,
                    0.09680628776550293,
                    0.06820809841156006,
                    0.09360620379447937,
                    0.13298466801643372,
                    0.1595366895198822,
                    -0.22246865928173065,
                    0.04297894239425659,
                    -0.03649863600730896,
                    0.18431353569030762,
                    -0.10493385046720505
                ],
                [
                    0.020978599786758423,
                    -0.18930983543395996,
                    -0.03251852095127106,
                    -0.15748026967048645,
                    -0.038669735193252563,
                    0.06831154227256775,
                    0.11892282962799072,
                    -0.048080265522003174,
                    0.034007906913757324,
                    0.14055457711219788,
                    0.0022755712270736694,
                    0.18073278665542603,
                    -0.0633239597082138,
                    -0.20765575766563416,
                    0.15607783198356628,
                    0.024943679571151733,
                    -0.12843331694602966,
                    0.038158684968948364,
                    0.018175825476646423,
                    -0.22186455130577087
                ],
                [
                    0.06884771585464478,
                    0.05705767869949341,
                    0.07969754934310913,
                    0.03977188467979431,
                    0.04126623272895813,
                    0.1275586187839508,
                    0.18421390652656555,
                    -0.1297788918018341,
                    0.17036348581314087,
                    -0.14185671508312225,
                    0.02563364803791046,
                    0.04069289565086365,
                    0.07948926091194153,
                    -0.051592543721199036,
                    0.10738778114318848,
                    -0.19613447785377502,
                    -0.05591870844364166,
                    0.016389310359954834,
                    0.07832860946655273,
                    0.08740994334220886
                ],
                [
                    -0.14047765731811523,
                    -0.21747742593288422,
                    0.18726694583892822,
                    -0.04477815330028534,
                    -0.011691063642501831,
                    0.22081297636032104,
                    -0.21261756122112274,
                    0.0928189754486084,
                    0.16793403029441833,
                    0.10540413856506348,
                    0.15421649813652039,
                    -0.08228559792041779,
                    -0.11297594010829926,
                    0.026152849197387695,
                    -0.042805686593055725,
                    0.15854337811470032,
                    -0.09062778949737549,
                    0.20552018284797668,
                    0.047627925872802734,
                    -0.1646626591682434
                ],
                [
                    0.17333826422691345,
                    0.19819021224975586,
                    -0.1018405556678772,
                    -0.03361155092716217,
                    -0.12344047427177429,
                    0.18457603454589844,
                    0.15374335646629333,
                    0.07602274417877197,
                    -0.09245617687702179,
                    -0.19581687450408936,
                    -0.17164991796016693,
                    0.1639818549156189,
                    0.03911355137825012,
                    -0.1977226883172989,
                    0.09880489110946655,
                    0.0031727254390716553,
                    0.1683611273765564,
                    0.19731280207633972,
                    0.07786065340042114,
                    -0.10643234848976135
                ],
                [
                    -0.03390468657016754,
                    -0.09054195880889893,
                    -0.16625919938087463,
                    -0.012771353125572205,
                    0.02969539165496826,
                    0.12659883499145508,
                    0.02698102593421936,
                    -0.13706278800964355,
                    -0.10058785229921341,
                    0.07192623615264893,
                    0.06940972805023193,
                    -0.15336278080940247,
                    0.06415146589279175,
                    0.19848573207855225,
                    -0.10205180197954178,
                    -0.2193327248096466,
                    -0.22110077738761902,
                    0.1718323528766632,
                    0.1794213354587555,
                    0.04802882671356201
                ],
                [
                    -0.06395317614078522,
                    -0.08518412709236145,
                    0.06585782766342163,
                    -0.15976157784461975,
                    -0.045149967074394226,
                    0.11576810479164124,
                    -0.15041232109069824,
                    0.15185168385505676,
                    0.15732631087303162,
                    -0.05552491545677185,
                    0.005330502986907959,
                    0.01100146770477295,
                    0.12332269549369812,
                    0.09194678068161011,
                    0.18047112226486206,
                    -0.20851701498031616,
                    0.10173866152763367,
                    -0.1063246801495552,
                    -0.04712742567062378,
                    0.19420471787452698
                ],
                [
                    0.08636054396629333,
                    0.04033327102661133,
                    -0.08122602105140686,
                    0.1849200427532196,
                    0.1744663417339325,
                    0.039356380701065063,
                    0.13999465107917786,
                    -0.20113231241703033,
                    -0.016350314021110535,
                    -0.22347551584243774,
                    0.0906606912612915,
                    -0.0430779755115509,
                    -0.012940824031829834,
                    0.1313386857509613,
                    0.11175236105918884,
                    -0.19833791255950928,
                    -0.06567154824733734,
                    0.018522590398788452,
                    0.0796569287776947,
                    0.030789107084274292
                ],
                [
                    0.019651636481285095,
                    -0.04964873194694519,
                    0.010894924402236938,
                    -0.05455362796783447,
                    0.17325296998023987,
                    0.039910584688186646,
                    0.17456898093223572,
                    -0.14032766222953796,
                    -0.14815056324005127,
                    0.0019591301679611206,
                    -0.19570429623126984,
                    -0.048422932624816895,
                    -0.08667977154254913,
                    -0.2053678184747696,
                    0.06038275361061096,
                    -0.16295135021209717,
                    0.1433263123035431,
                    -0.17479020357131958,
                    0.05759468674659729,
                    0.13229501247406006
                ],
                [
                    -0.10386774688959122,
                    0.19253382086753845,
                    0.051182180643081665,
                    -0.06171068549156189,
                    0.11383795738220215,
                    -0.15279549360275269,
                    0.04858756065368652,
                    -0.16102278232574463,
                    -0.10405996441841125,
                    0.06913670897483826,
                    0.15864762663841248,
                    0.15614089369773865,
                    0.0821441113948822,
                    -0.0570501983165741,
                    -0.02228991687297821,
                    -0.09567221999168396,
                    -0.0009613484144210815,
                    -0.12215378880500793,
                    0.17105138301849365,
                    -0.02241666615009308
                ],
                [
                    -0.15796038508415222,
                    0.15817123651504517,
                    0.12164774537086487,
                    0.036931008100509644,
                    0.058369606733322144,
                    0.09357112646102905,
                    -0.026134878396987915,
                    -0.009539574384689331,
                    -0.07999230921268463,
                    -0.170371875166893,
                    0.026423722505569458,
                    0.13384705781936646,
                    0.12683087587356567,
                    0.05008688569068909,
                    0.21642479300498962,
                    0.2043805718421936,
                    0.1614852249622345,
                    0.04489797353744507,
                    -0.17014196515083313,
                    -0.05651251971721649
                ],
                [
                    0.12510481476783752,
                    -0.015809565782546997,
                    0.141981840133667,
                    0.20107132196426392,
                    -0.2147342562675476,
                    0.014210447669029236,
                    0.059497952461242676,
                    0.15756016969680786,
                    0.09418261051177979,
                    -0.006661474704742432,
                    -0.0042941272258758545,
                    0.06316050887107849,
                    -0.003555193543434143,
                    0.10059919953346252,
                    -0.13512316346168518,
                    -0.15287989377975464,
                    0.09309333562850952,
                    -0.21930769085884094,
                    -0.022007867693901062,
                    0.11501681804656982
                ],
                [
                    -0.04753004014492035,
                    0.00491766631603241,
                    0.05829623341560364,
                    0.15536025166511536,
                    0.07337751984596252,
                    0.20098161697387695,
                    -0.0299728661775589,
                    0.10676312446594238,
                    0.06839749217033386,
                    -0.09051550924777985,
                    0.14868012070655823,
                    -0.21190693974494934,
                    0.17295825481414795,
                    0.19120389223098755,
                    -0.1948820948600769,
                    0.09197130799293518,
                    0.06448730826377869,
                    -0.12743717432022095,
                    0.04240149259567261,
                    0.08306020498275757
                ],
                [
                    0.05651697516441345,
                    0.04018747806549072,
                    -0.009631514549255371,
                    0.11356094479560852,
                    -0.006633400917053223,
                    0.15290537476539612,
                    0.175319105386734,
                    -0.07460331916809082,
                    0.11777275800704956,
                    0.17105886340141296,
                    0.18028956651687622,
                    -0.0869518369436264,
                    0.05049201846122742,
                    0.21528688073158264,
                    0.031049460172653198,
                    -0.08683428168296814,
                    -0.1154421791434288,
                    0.18785950541496277,
                    0.1991288959980011,
                    -0.20259396731853485
                ]
            ],
            [
                -0.16191235184669495,
                -0.041293248534202576,
                0.031345874071121216,
                -0.07332396507263184,
                -0.1829473227262497,
                -0.020695969462394714,
                -0.1592482030391693,
                0.05238202214241028,
                0.20208901166915894,
                0.1485561728477478,
                0.07149282097816467,
                0.19361913204193115,
                -0.11578506231307983,
                -0.19839823246002197,
                0.028441041707992554,
                -0.18198511004447937,
                -0.21010440587997437,
                0.20565003156661987,
                0.17720994353294373,
                -0.13079574704170227,
                -0.21853365004062653,
                0.11163946986198425,
                0.011910304427146912,
                0.04216089844703674,
                -0.22070281207561493,
                0.04313868284225464,
                0.14042019844055176,
                0.17402100563049316,
                -0.10259123891592026,
                0.002449899911880493
            ]
        ],
        [
            [
                [
                    -0.05097492039203644,
                    0.1435343325138092,
                    -0.14737015962600708,
                    0.1055983304977417,
                    -0.10989818722009659,
                    -0.14551740884780884,
                    0.1385548710823059,
                    -0.016119733452796936,
                    -0.04804880917072296,
                    -0.12513677775859833,
                    -0.024522453546524048,
                    -0.03352104127407074,
                    -0.07453479617834091,
                    -0.10546927899122238,
                    -0.13412520289421082,
                    0.0751085877418518,
                    0.01741507649421692,
                    -0.07989535480737686,
                    -0.04854556918144226,
                    0.13886353373527527,
                    0.16925153136253357,
                    -0.0507236123085022,
                    0.12129539251327515,
                    0.09173867106437683,
                    -0.15593397617340088,
                    0.03742273151874542,
                    -0.1655300259590149,
                    -0.12130609154701233,
                    0.1693958342075348,
                    -0.18091927468776703
                ],
                [
                    -0.12780998647212982,
                    -0.16138799488544464,
                    0.014663711190223694,
                    0.1261027455329895,
                    -0.14777904748916626,
                    0.1618901491165161,
                    -0.0743582621216774,
                    -0.064659982919693,
                    -0.16844120621681213,
                    -0.06456796079874039,
                    0.17744359374046326,
                    -0.10363424569368362,
                    -0.03498655557632446,
                    -0.02422107756137848,
                    -0.13601133227348328,
                    -0.05128054320812225,
                    0.023297175765037537,
                    0.06907808780670166,
                    -0.15015241503715515,
                    -0.1679791808128357,
                    -0.0827036127448082,
                    0.0805971622467041,
                    -0.030782029032707214,
                    -0.10467097908258438,
                    0.018449366092681885,
                    -0.09917353838682175,
                    -0.15551573038101196,
                    0.04107482731342316,
                    0.12241211533546448,
                    0.030437126755714417
                ],
                [
                    -0.051678240299224854,
                    0.028146743774414062,
                    -0.08980485796928406,
                    -0.13059484958648682,
                    -0.0946243554353714,
                    -0.1395006626844406,
                    0.09507584571838379,
                    0.1596309244632721,
                    -0.047332510352134705,
                    0.14228194952011108,
                    -0.013989359140396118,
                    -0.09996826946735382,
                    -0.1616959124803543,
                    -0.16337363421916962,
                    -0.08570631593465805,
                    -0.031493380665779114,
                    0.14266064763069153,
                    -0.1563856601715088,
                    -0.06050337105989456,
                    0.07460615038871765,
                    -0.05906715244054794,
                    0.0516166090965271,
                    -0.12731468677520752,
                    0.11700966954231262,
                    -0.12965020537376404,
                    0.08565866947174072,
                    0.003383427858352661,
                    -0.04135045409202576,
                    -0.032892197370529175,
                    -0.008404925465583801
                ],
                [
                    -0.16931766271591187,
                    0.17048698663711548,
                    -0.04016861319541931,
                    -0.09998415410518646,
                    0.1313454806804657,
                    0.1822509467601776,
                    0.05443301796913147,
                    -0.12053580582141876,
                    0.0877869725227356,
                    0.01554366946220398,
                    0.025136798620224,
                    -0.0645902082324028,
                    0.1820417046546936,
                    -0.08245723694562912,
                    0.12553998827934265,
                    0.03522829711437225,
                    0.13484841585159302,
                    0.08915901184082031,
                    0.1708214282989502,
                    -0.12947791814804077,
                    0.1265164017677307,
                    -0.14608988165855408,
                    0.16305217146873474,
                    -0.1636481136083603,
                    -0.09716051071882248,
                    0.010000765323638916,
                    -0.17252303659915924,
                    -0.04721328616142273,
                    0.12231132388114929,
                    0.11109235882759094
                ],
                [
                    -0.11150850355625153,
                    0.0524476021528244,
                    0.011553198099136353,
                    0.1103157103061676,
                    -0.0827237218618393,
                    0.07391554117202759,
                    -0.1545911282300949,
                    -0.04466685652732849,
                    -0.13559958338737488,
                    -0.1238531544804573,
                    0.05961579084396362,
                    0.14253830909729004,
                    -0.03079122304916382,
                    0.17796653509140015,
                    -0.13037854433059692,
                    -0.0045866817235946655,
                    -0.12745401263237,
                    -0.07680810242891312,
                    -0.0768224224448204,
                    -0.02179674804210663,
                    -0.03701123595237732,
                    0.09562849998474121,
                    -0.13368487358093262,
                    0.02071380615234375,
                    0.009813934564590454,
                    0.08608353137969971,
                    -0.10827898979187012,
                    0.1714562475681305,
                    0.0690145492553711,
                    -0.09539001435041428
                ],
                [
                    -0.08334732055664062,
                    -0.10922146588563919,
                    -0.08142472803592682,
                    -0.16986367106437683,
                    0.010490208864212036,
                    -0.05218824744224548,
                    0.16556015610694885,
                    -0.07309147715568542,
                    -0.09798184037208557,
                    0.13967108726501465,
                    -0.114338219165802,
                    0.0864955484867096,
                    0.07483360171318054,
                    -0.10743766278028488,
                    -0.047847360372543335,
                    -0.011437922716140747,
                    0.04485104978084564,
                    0.07356256246566772,
                    -0.03908166289329529,
                    -0.06940807402133942,
                    0.12080085277557373,
                    0.1037575900554657,
                    -0.009218454360961914,
                    -0.06764966994524002,
                    -0.11004320532083511,
                    -0.10952945053577423,
                    0.039856553077697754,
                    0.06245562434196472,
                    -0.008085846900939941,
                    0.07063019275665283
                ],
                [
                    -0.17970657348632812,
                    0.07134473323822021,
                    -0.06740985065698624,
                    -0.11327672004699707,
                    0.09935536980628967,
                    0.029718846082687378,
                    -0.14368659257888794,
                    0.1801292896270752,
                    0.1185254454612732,
                    -0.06605570018291473,
                    -0.015670791268348694,
                    0.11359310150146484,
                    0.019940868020057678,
                    -0.046489834785461426,
                    -0.044791266322135925,
                    -0.03917369246482849,
                    -0.07611220329999924,
                    -0.11537308245897293,
                    -0.16109612584114075,
                    0.0017305463552474976,
                    -0.053151533007621765,
                    -0.026845842599868774,
                    -0.17069455981254578,
                    0.13325271010398865,
                    -0.03223632276058197,
                    0.05544309318065643,
                    0.027743175625801086,
                    0.03538525104522705,
                    -0.1705496460199356,
                    0.17362844944000244
                ],
                [
                    0.00852935016155243,
                    0.06330253183841705,
                    -0.061633579432964325,
                    0.17172622680664062,
                    0.031384244561195374,
                    -0.16846340894699097,
                    0.10742491483688354,
                    -0.0034626275300979614,
                    -0.06620898842811584,
                    -0.001862451434135437,
                    -0.10863742977380753,
                    -0.06821180880069733,
                    0.12724673748016357,
                    0.06720985472202301,
                    0.15877264738082886,
                    -0.03447771072387695,
                    -0.03167299926280975,
                    0.09009626507759094,
                    -0.056523337960243225,
                    0.12891680002212524,
                    0.0861920416355133,
                    -0.12435249984264374,
                    -0.09660133719444275,
                    0.032551541924476624,
                    0.17987653613090515,
                    -0.04011021554470062,
                    0.13778245449066162,
                    -0.1476401686668396,
                    -0.09302995353937149,
                    -0.025917336344718933
                ],
                [
                    0.0941048264503479,
                    0.12980183959007263,
                    0.08870133757591248,
                    -0.11609910428524017,
                    -0.03598596155643463,
                    -0.027245700359344482,
                    0.09501472115516663,
                    -0.04395894706249237,
                    0.07226616144180298,
                    0.1716659665107727,
                    0.08646252751350403,
                    0.028446495532989502,
                    -0.07596931606531143,
                    -0.02155211567878723,
                    0.01029147207736969,
                    0.03072717785835266,
                    -0.08792712539434433,
                    -0.10077764838933945,
                    -0.05258285999298096,
                    -0.08578088134527206,
                    -0.12416930496692657,
                    0.12721389532089233,
                    0.045514583587646484,
                    0.12966212630271912,
                    -0.034288033843040466,
                    -0.02635498344898224,
                    0.17684021592140198,
                    -0.05967473238706589,
                    0.1291576623916626,
                    -0.028410255908966064
                ],
                [
                    0.09407544136047363,
                    -0.1281927227973938,
                    -0.018182992935180664,
                    0.015393868088722229,
                    -0.08404796570539474,
                    -0.037522658705711365,
                    0.0961662232875824,
                    0.059893131256103516,
                    -0.11087819933891296,
                    0.05312623083591461,
                    -0.16897043585777283,
                    -0.10133540630340576,
                    -0.0645860955119133,
                    0.1373385787010193,
                    -0.08823879063129425,
                    0.06258684396743774,
                    -0.0830584391951561,
                    0.068653404712677,
                    0.05830305814743042,
                    -0.1820553094148636,
                    -0.08697912842035294,
                    -0.11185567080974579,
                    0.12846419215202332,
                    0.1637575328350067,
                    -0.1398112177848816,
                    -0.0938720628619194,
                    -0.08033574372529984,
                    0.10384741425514221,
                    0.05214585363864899,
                    0.14428123831748962
                ],
                [
                    0.1686546504497528,
                    -0.043748676776885986,
                    0.10041138529777527,
                    -0.047400638461112976,
                    0.11554792523384094,
                    0.0014685839414596558,
                    0.10908836126327515,
                    -0.14545950293540955,
                    -0.021171346306800842,
                    -0.09413275867700577,
                    0.08489662408828735,
                    -0.08273480087518692,
                    -0.0325809121131897,
                    -0.09429020434617996,
                    0.010042205452919006,
                    -0.05822283774614334,
                    0.10425570607185364,
                    0.01779782772064209,
                    0.005060255527496338,
                    0.06835302710533142,
                    0.04950430989265442,
                    -0.09283702820539474,
                    0.12044921517372131,
                    0.014299541711807251,
                    0.023574233055114746,
                    0.11605846881866455,
                    -0.023107215762138367,
                    -0.03561922907829285,
                    -0.081248439848423,
                    -0.18160323798656464
                ],
                [
                    -0.06889928132295609,
                    0.03862689435482025,
                    -0.025643497705459595,
                    -0.009051606059074402,
                    0.11409017443656921,
                    -0.1650308072566986,
                    0.00010056793689727783,
                    -0.11997438222169876,
                    0.03991745412349701,
                    -0.0676998570561409,
                    -0.15654270350933075,
                    -0.09716634452342987,
                    -0.07673639059066772,
                    -0.01656237244606018,
                    -0.08567025512456894,
                    0.161889910697937,
                    -0.052639588713645935,
                    -0.06227387487888336,
                    -0.057493701577186584,
                    0.014941558241844177,
                    -0.041042909026145935,
                    -0.12403488159179688,
                    -0.15651123225688934,
                    0.032758086919784546,
                    -0.0742061510682106,
                    -0.14357665181159973,
                    -0.15307925641536713,
                    0.05354733765125275,
                    0.17244014143943787,
                    0.10362628102302551
                ],
                [
                    -0.021313712000846863,
                    0.036574333906173706,
                    0.1752437949180603,
                    0.11332839727401733,
                    -0.021881788969039917,
                    -0.15089498460292816,
                    -0.10789741575717926,
                    0.12183988094329834,
                    0.06146194040775299,
                    -0.1445322334766388,
                    0.060727670788764954,
                    0.13324373960494995,
                    0.17956241965293884,
                    -0.04365892708301544,
                    -0.10699664801359177,
                    -0.041867807507514954,
                    0.0870370864868164,
                    0.10535305738449097,
                    -0.040008291602134705,
                    -0.05057854950428009,
                    0.005429789423942566,
                    0.09452444314956665,
                    0.16155964136123657,
                    0.09065380692481995,
                    -0.04317308962345123,
                    -0.08964084088802338,
                    -0.06801514327526093,
                    0.00302337110042572,
                    -0.08928129076957703,
                    -0.15341511368751526
                ],
                [
                    0.11876311898231506,
                    -0.07206227630376816,
                    -0.06663624942302704,
                    -0.0695614442229271,
                    -0.07115139067173004,
                    -0.04204612970352173,
                    0.13679185509681702,
                    -0.04707320034503937,
                    0.10847640037536621,
                    -0.07906462997198105,
                    -0.024748310446739197,
                    -0.16047784686088562,
                    -0.12065224349498749,
                    0.0027288347482681274,
                    0.15905854105949402,
                    -0.1001327633857727,
                    -0.10948387533426285,
                    0.03345213830471039,
                    -0.01787211000919342,
                    -0.0863557904958725,
                    0.10736754536628723,
                    0.07583680748939514,
                    0.17371824383735657,
                    -0.17578871548175812,
                    -0.0635431557893753,
                    0.027286291122436523,
                    -0.024724513292312622,
                    -0.012709438800811768,
                    0.05689269304275513,
                    -0.13656719028949738
                ],
                [
                    -0.12761922180652618,
                    0.02955670654773712,
                    -0.08792294561862946,
                    -0.040788114070892334,
                    0.10329076647758484,
                    0.01815164089202881,
                    -0.16263259947299957,
                    -0.12934386730194092,
                    -0.1302197426557541,
                    0.05709129571914673,
                    -0.014240056276321411,
                    -0.0692548081278801,
                    0.022790983319282532,
                    -0.013325035572052002,
                    -0.09705673903226852,
                    -0.004117444157600403,
                    -0.053609102964401245,
                    0.12886583805084229,
                    -0.07008573412895203,
                    0.1716785430908203,
                    0.17386972904205322,
                    0.05412963032722473,
                    -0.04447560012340546,
                    0.09667912125587463,
                    -0.10186535120010376,
                    -0.038065239787101746,
                    0.18052375316619873,
                    -0.04655441641807556,
                    0.07246768474578857,
                    -0.06499670445919037
                ]
            ],
            [
                0.15135625004768372,
                -0.10649678111076355,
                0.16667944192886353,
                -0.05023695528507233,
                -0.11588504910469055,
                -0.178089901804924,
                -0.1727253645658493,
                -0.05649077892303467,
                0.03196270763874054,
                -0.10364266484975815,
                0.024518772959709167,
                0.020124226808547974,
                -0.04383598268032074,
                -0.0044912248849868774,
                0.12792950868606567
            ]
        ],
        [
            [
                [
                    -0.04992087185382843,
                    -0.1371275931596756,
                    0.20607349276542664,
                    0.181568443775177,
                    0.19920110702514648,
                    0.1460573375225067,
                    -0.01647236943244934,
                    0.07329973578453064,
                    0.07676532864570618,
                    -0.12559230625629425,
                    -0.24226734042167664,
                    0.13436168432235718,
                    0.2443659007549286,
                    0.21916234493255615,
                    0.23579925298690796
                ],
                [
                    0.05087772011756897,
                    -0.08124130964279175,
                    -0.054988279938697815,
                    0.14559704065322876,
                    0.22604066133499146,
                    0.040459245443344116,
                    -0.07858659327030182,
                    0.0728699266910553,
                    0.20945653319358826,
                    0.08296233415603638,
                    -0.043769076466560364,
                    0.0890706479549408,
                    0.037929534912109375,
                    0.06410863995552063,
                    0.006330341100692749
                ],
                [
                    0.08619874715805054,
                    -0.2572518587112427,
                    -0.02457168698310852,
                    -0.20367220044136047,
                    0.08114483952522278,
                    -0.045064911246299744,
                    0.055942535400390625,
                    -0.006803035736083984,
                    -0.0056310296058654785,
                    0.00873255729675293,
                    0.11057212948799133,
                    -0.15803098678588867,
                    0.17062529921531677,
                    0.17279782891273499,
                    0.16311141848564148
                ],
                [
                    -0.18862900137901306,
                    0.07096591591835022,
                    -0.08111397922039032,
                    0.21753594279289246,
                    -0.22111743688583374,
                    0.05479678511619568,
                    -0.14929480850696564,
                    -0.21377111971378326,
                    -0.10922808945178986,
                    -0.24309931695461273,
                    0.1716916263103485,
                    0.11299803853034973,
                    -0.01796633005142212,
                    -0.15956124663352966,
                    0.1360931694507599
                ],
                [
                    0.016822218894958496,
                    -0.015789717435836792,
                    0.10093790292739868,
                    -0.2226325422525406,
                    -0.2134498953819275,
                    0.07482731342315674,
                    0.052089184522628784,
                    0.17954066395759583,
                    -0.06046485900878906,
                    0.0009452402591705322,
                    0.0983060896396637,
                    0.011502236127853394,
                    -0.13659030199050903,
                    0.24280008673667908,
                    0.242680162191391
                ],
                [
                    -0.17886123061180115,
                    0.16193443536758423,
                    -0.010207846760749817,
                    0.18372416496276855,
                    -0.24202722311019897,
                    0.09259003400802612,
                    -0.04088151454925537,
                    -0.05187435448169708,
                    0.0287187397480011,
                    -0.2320927083492279,
                    -0.2163110077381134,
                    0.13449442386627197,
                    -0.11067357659339905,
                    -0.23144865036010742,
                    -0.05415236949920654
                ],
                [
                    0.22376778721809387,
                    0.21388059854507446,
                    0.2414378523826599,
                    -0.0606556236743927,
                    0.06161701679229736,
                    -0.24585914611816406,
                    -0.15103155374526978,
                    -0.191593199968338,
                    -0.23270174860954285,
                    0.05435490608215332,
                    0.19427955150604248,
                    -0.07484744489192963,
                    -0.0007933378219604492,
                    0.06861290335655212,
                    0.05269545316696167
                ]
            ],
            [
                0.03332820534706116,
                0.22166568040847778,
                -0.2442009299993515,
                0.15860816836357117,
                -0.2278471738100052,
                0.1363726258277893,
                -0.1655309498310089
            ]
        ],
        [
            [
                [
                    -0.35024309158325195,
                    0.30540749430656433,
                    -0.1775026023387909,
                    0.03796347975730896,
                    -0.26214420795440674,
                    -0.15415632724761963,
                    0.1744665801525116
                ],
                [
                    0.07884740829467773,
                    0.3299531042575836,
                    -0.22191962599754333,
                    -0.3610180914402008,
                    -0.013199150562286377,
                    0.21490177512168884,
                    -0.05859777331352234
                ],
                [
                    0.027683526277542114,
                    -0.07741537690162659,
                    0.36153915524482727,
                    0.10493350028991699,
                    0.2711170017719269,
                    -0.3709792196750641,
                    -0.3762438893318176
                ]
            ],
            [
                0.08006450533866882,
                -0.027090907096862793,
                0.01866048574447632
            ]
        ]
    ]
}