{"Layers": [["fc1", "Linear", 2, 4], ["fc2", "Linear", 4, 6], ["fc3", "Linear", 6, 14], ["fc4", "Linear", 14, 8], ["fc5", "Linear", 8, 4]], "Activation functions": [["fc1", "ReLU"], ["fc2", "ReLU"], ["fc3", "ReLU"], ["fc4", "ReLU"]], "Weights": [[[[-0.24997597932815552, -0.5345432758331299], [0.17725741863250732, -0.39528921246528625], [0.669180691242218, -0.11239510774612427], [-0.6712527275085449, -0.41204097867012024]], [-0.22732189297676086, -0.22867631912231445, -0.178519606590271, -0.4666067361831665]], [[[0.29578667879104614, -0.4913698434829712, -0.46230190992355347, -0.18189579248428345], [-0.06579035520553589, -0.3058614134788513, 0.4023602604866028, -0.27147942781448364], [0.4076569676399231, -0.12400418519973755, 0.46355950832366943, 0.01980489492416382], [-0.16897279024124146, 0.19093281030654907, -0.13373756408691406, -0.2086828351020813], [-0.39809924364089966, -0.1415189504623413, -0.2753082513809204, 0.2618561387062073], [0.40381956100463867, 0.05433928966522217, 0.3665730953216553, -0.44924116134643555]], [-0.19785231351852417, 0.026620328426361084, -0.28423887491226196, -0.041098713874816895, -0.12050032615661621, -0.09231448173522949]], [[[-0.35525861382484436, -0.017457634210586548, 0.39603567123413086, -0.17815880477428436, -0.2885845899581909, -0.0528569221496582], [0.23842447996139526, 0.2075110673904419, -0.06135037541389465, 0.3380697965621948, -0.3981229066848755, 0.32413703203201294], [-0.09023356437683105, -0.0068981945514678955, 0.1743186116218567, 0.36066651344299316, -0.40117329359054565, 0.1696096658706665], [-0.3351300358772278, -0.2388351559638977, 0.30221426486968994, 0.03146210312843323, -0.07922124862670898, 0.12191063165664673], [-0.3920387327671051, -0.1692504584789276, 0.3346024751663208, 0.344135582447052, 0.140688955783844, -0.20391541719436646], [-0.12522265315055847, -0.31043514609336853, -0.018527954816818237, 0.3275396227836609, -0.37749698758125305, 0.14999061822891235], [0.34159815311431885, -0.24134904146194458, -0.007792800664901733, 0.13522571325302124, -0.17927366495132446, 0.24991947412490845], [0.06236529350280762, -0.3047581911087036, 0.029358357191085815, -0.1909818798303604, -0.18452897667884827, -0.28541380167007446], [-0.06718376278877258, -0.18484525382518768, 0.03305324912071228, 0.1288522481918335, -0.177063450217247, 0.3992066979408264], [-0.29293590784072876, -0.4027998447418213, 0.29617005586624146, -0.24290531873703003, -0.10719823837280273, -0.14678111672401428], [-0.3242763876914978, 0.014569401741027832, 0.03402402997016907, -0.11919248104095459, -0.33595821261405945, 0.22916412353515625], [0.37562066316604614, -0.2763984799385071, 0.36040282249450684, -0.22179114818572998, -0.11109215021133423, 0.22624510526657104], [-0.07211771607398987, -0.3036974370479584, -0.29116183519363403, 0.11545580625534058, 0.08729422092437744, 0.2719379663467407], [-0.37645813822746277, -0.33390364050865173, -0.11542809009552002, 0.27829355001449585, -0.23035770654678345, -0.40614384412765503]], [0.24906706809997559, -0.30195069313049316, -0.25024616718292236, -0.028481483459472656, 0.3462396264076233, -0.038187623023986816, 0.06765255331993103, 0.3253498673439026, -0.01771518588066101, -0.1712215691804886, -0.16851159930229187, 0.1658872365951538, 0.2978317141532898, -0.38668766617774963]], [[[0.10973519086837769, 0.02337878942489624, 0.09863123297691345, -0.009177535772323608, -0.2400674670934677, -0.21751783788204193, 0.17456021904945374, 0.2152833342552185, 0.1413429081439972, 0.09889915585517883, -0.1911679357290268, -0.2550070583820343, -0.13757412135601044, -0.11092497408390045], [-0.23319745063781738, -0.22329090535640717, 0.06573805212974548, -0.2096450924873352, 0.15849214792251587, -0.20440469682216644, 0.19656863808631897, 0.24382290244102478, 0.22811052203178406, -0.26024001836776733, 0.10746443271636963, 0.11910107731819153, 0.18246209621429443, 0.2523824870586395], [-0.2583615481853485, 0.04139325022697449, 0.21642369031906128, -0.1821892410516739, -0.18303321301937103, 0.14437252283096313, 0.02911248803138733, -0.20064020156860352, 0.005750894546508789, 0.08095920085906982, -0.12494564056396484, -0.161132350564003, -0.1576003134250641, -0.15755653381347656], [0.006869643926620483, -0.11502104997634888, 0.26011237502098083, -0.07421763241291046, 0.1877981424331665, -0.21969227492809296, 0.2017107605934143, 0.10106655955314636, 0.15790069103240967, -0.2503046989440918, -0.05601336061954498, -0.21627789735794067, 0.1540762186050415, -0.11802828311920166], [-0.03146903216838837, 0.19593042135238647, 0.2469572126865387, 0.04245874285697937, 0.18555697798728943, -0.08072297275066376, 0.07969886064529419, 0.12245985865592957, 0.046914875507354736, -0.16152502596378326, -0.04559886455535889, -0.22905810177326202, 0.15880030393600464, -0.020731031894683838], [0.14965912699699402, 0.15465408563613892, 0.03877854347229004, 0.23276576399803162, 0.00235942006111145, -0.17265811562538147, 0.2644440829753876, 0.1961001455783844, 0.12602409720420837, 0.05045613646507263, 0.0789293646812439, -0.13046284019947052, 0.06082773208618164, 0.01979956030845642], [-0.20856857299804688, 0.1541057527065277, 0.22892585396766663, -0.22170430421829224, 0.0940680205821991, -0.18307791650295258, 0.2571914494037628, 0.14963307976722717, 0.019294142723083496, 0.023693710565567017, 0.07075664401054382, 0.14885008335113525, -0.012698978185653687, 0.19624650478363037], [-0.07236522436141968, 0.07445389032363892, -0.09731894731521606, -0.22494108974933624, 0.18994763493537903, 0.0878271758556366, 0.07369130849838257, -0.2516113817691803, 0.1663690209388733, -0.2345876395702362, 0.16601884365081787, -0.22061966359615326, 0.1210131049156189, -0.08452604711055756]], [0.22092658281326294, 0.02264675498008728, -0.01923823356628418, -0.09985077381134033, 0.03081849217414856, -0.010521173477172852, -0.13067881762981415, 0.04127231240272522]], [[[-0.18701720237731934, 0.2549953758716583, -0.28958141803741455, 0.04695260524749756, -0.2296937108039856, 0.22630110383033752, 0.045848846435546875, 0.16296550631523132], [0.12236788868904114, 0.33776524662971497, -0.18111710250377655, -0.03748959302902222, -0.23299986124038696, 0.26230278611183167, 0.1532391607761383, -0.1366446316242218], [-0.18912221491336823, -0.15162046253681183, -0.16726456582546234, -0.24787399172782898, -0.042022526264190674, -0.19592835009098053, -0.3215828537940979, 0.04811662435531616], [0.22838088870048523, 0.14278236031532288, 0.2157174050807953, 0.0010139644145965576, -0.2224273383617401, 0.07639992237091064, -0.2589721977710724, 0.014712631702423096]], [0.10580557584762573, 0.3394736349582672, -0.05041474103927612, 0.1119363009929657]]]}