{"Layers": [["fc1", "Linear", 12, 25], ["fc2", "Linear", 15, 20], ["fc3", "Linear", 20, 30], ["fc4", "Linear", 30, 15], ["fc5", "Linear", 15, 7], ["fc6", "Linear", 7, 3], ["fc7", "Linear", 3, 1]], "Activation functions": [["fc1", "ReLU"], ["fc2", "ReLU"], ["fc3", "ReLU"], ["fc4", "ReLU"], ["fc5", "ReLU"], ["fc6", "ReLU"]], "Weights": [[[[0.28716254234313965, 0.045163124799728394, -0.03187677264213562, 0.12302055954933167, -0.0767359733581543, -0.2753477096557617, 0.19318333268165588, -0.08175496757030487, -0.12886293232440948, 0.11600488424301147, 0.1535034477710724, 0.053266674280166626], [-0.18960869312286377, -0.062368884682655334, -0.24444244801998138, -0.1662585288286209, -0.0751270055770874, 0.21389907598495483, 0.07438486814498901, 0.27800071239471436, 0.015158623456954956, 0.05312764644622803, 0.23864847421646118, 0.08312997221946716], [-0.10760359466075897, -0.10187442600727081, 0.010551661252975464, -0.28076329827308655, 0.11669284105300903, 0.019396156072616577, -0.11732293665409088, 0.027983665466308594, 0.19498661160469055, -0.1794767677783966, 0.10998979210853577, -0.24153518676757812], [-0.16238035261631012, -0.047566041350364685, 0.03778797388076782, -0.28322601318359375, 0.23174333572387695, -0.0479905903339386, 0.18690741062164307, 0.20902341604232788, 0.24234163761138916, 0.040038496255874634, -0.06652402877807617, -0.14566592872142792], [-0.2621201276779175, -0.15428440272808075, 0.1998395025730133, 0.1561482548713684, -0.00795552134513855, -0.12815982103347778, 0.2757907509803772, 0.2453438639640808, 0.24648481607437134, -0.14128832519054413, 0.1872856616973877, 0.1606435775756836], [-0.26609334349632263, 0.2141660451889038, -0.07410918176174164, 0.20911583304405212, -0.16635367274284363, -0.24096274375915527, -0.17575067281723022, -0.23968744277954102, 0.15684178471565247, -0.25908541679382324, -0.094680055975914, -0.24550281465053558], [0.05919414758682251, 0.022311091423034668, 0.050731122493743896, 0.2005283236503601, -0.034663259983062744, 0.1277754008769989, -0.025471270084381104, 0.20904305577278137, -0.10103179514408112, -0.11410148441791534, -0.15822696685791016, -0.25742650032043457], [0.12522131204605103, -0.21568268537521362, -0.02500683069229126, -0.028861522674560547, -0.016865789890289307, -0.24139733612537384, 0.26458120346069336, -0.05555908381938934, -0.2669875919818878, 0.008125096559524536, 0.2232854962348938, -0.03347882628440857], [-0.22921285033226013, -0.11812151968479156, 0.10472548007965088, -0.12742449343204498, 0.1749904751777649, 0.23660975694656372, 0.09813013672828674, 0.20700734853744507, 0.1056278645992279, -0.04918040335178375, -0.049917593598365784, 0.19789209961891174], [-0.06411795318126678, -0.00610196590423584, 0.22877740859985352, 0.09157037734985352, 0.10851824283599854, -0.24872587621212006, 0.2463819980621338, -0.15886899828910828, -0.013744562864303589, -0.28850576281547546, -0.11723886430263519, -0.054706647992134094], [0.08818647265434265, 0.07653015851974487, -0.1609870344400406, -0.22018778324127197, 0.14494821429252625, -0.13017337024211884, -0.2716340720653534, 0.1659194827079773, 0.10660400986671448, -0.04937398433685303, 0.2742428779602051, -0.061644017696380615], [0.0047841668128967285, -0.1315988153219223, -0.020535945892333984, 0.027561962604522705, 0.19841662049293518, 0.26888561248779297, -0.15508593618869781, -0.23526880145072937, -0.21944832801818848, 0.15024405717849731, 0.19946593046188354, 0.12910175323486328], [0.25602543354034424, 0.15716487169265747, 0.07789593935012817, 0.11109107732772827, 0.024684429168701172, 0.0904601514339447, 0.24944442510604858, 0.17466408014297485, -0.16586171090602875, -0.051657602190971375, -0.24875444173812866, 0.10956433415412903], [-0.14425167441368103, 0.2139827013015747, 0.22386795282363892, -0.172561913728714, 0.2670067548751831, 0.00574609637260437, -0.14566493034362793, -0.2820402681827545, -0.26055318117141724, -0.19338619709014893, -0.07655148208141327, 0.06610947847366333], [-0.28560125827789307, -0.03028315305709839, -0.13760963082313538, -0.07994823157787323, -0.07553893327713013, -0.05228416621685028, 0.19540101289749146, -0.11004859209060669, 0.03774109482765198, -0.00630149245262146, -0.2560604512691498, -0.04385499656200409], [0.26450252532958984, 0.13769453763961792, -0.004928559064865112, 0.2600611448287964, 0.08886644244194031, -0.23195895552635193, -0.010932624340057373, 0.23683476448059082, 0.21244144439697266, -0.09830519556999207, 0.09745389223098755, -0.23955394327640533], [-0.11666856706142426, 0.19144529104232788, -0.19278818368911743, -0.04077690839767456, -0.01145210862159729, -0.13507351279258728, -0.03569313883781433, 0.111957848072052, -0.25792619585990906, -0.14970237016677856, -0.07574467360973358, -0.020344823598861694], [0.18176913261413574, 0.14686283469200134, 0.11250892281532288, -0.05733330547809601, 0.06294414401054382, -0.1998102068901062, 0.21921664476394653, -0.21913760900497437, -0.17617756128311157, 0.27898216247558594, 0.012792080640792847, 0.24373185634613037], [-0.11314694583415985, -0.07257895171642303, 0.0372849702835083, -0.22854210436344147, 0.16988229751586914, 0.2528126835823059, -0.2579806447029114, 0.23281151056289673, 0.05072629451751709, 0.06175720691680908, 0.14090612530708313, -0.09354092180728912], [-0.22284692525863647, 0.07858628034591675, 0.24925267696380615, 0.18232455849647522, 0.012627929449081421, 0.004882991313934326, 0.2602751851081848, -0.19793391227722168, -0.13804690539836884, 0.26379257440567017, -0.16505125164985657, 0.0828852653503418], [-0.2650656998157501, -0.1531805694103241, -0.042535096406936646, 0.21563589572906494, 0.03164541721343994, 0.18516358733177185, -0.05800090730190277, 0.1637842059135437, -0.22379156947135925, -0.2165810465812683, 0.11031731963157654, 0.1886703073978424], [0.12701037526130676, 0.027988046407699585, 0.21615183353424072, -0.28075742721557617, 0.0717586874961853, 0.27606987953186035, 0.2711496353149414, -0.2523396909236908, -0.19344311952590942, 0.020387977361679077, -0.2705642879009247, 0.07914766669273376], [0.0880240797996521, 0.14208319783210754, 0.1383242905139923, 0.02175465226173401, 0.023597419261932373, -0.1338232010602951, 0.05446457862854004, 0.12216827273368835, 0.026655912399291992, 0.07650530338287354, 0.2634015679359436, -0.021931082010269165], [-0.23510214686393738, 0.22950971126556396, 0.13610726594924927, -0.2771780490875244, -0.2242121547460556, -0.08345936238765717, -0.0028165876865386963, -0.11686083674430847, 0.10537558794021606, -0.0935240387916565, -0.048480480909347534, 0.06897607445716858], [-0.049594536423683167, 0.03591763973236084, 0.17323637008666992, 0.1565212905406952, -0.19605934619903564, 0.1792079210281372, -0.15467233955860138, -0.10323971509933472, -0.017193228006362915, 0.11664700508117676, -0.07440124452114105, 0.125814288854599]], [0.23457080125808716, 0.034099727869033813, -0.11143945157527924, -0.16971205174922943, 0.018318772315979004, 0.2305678129196167, -0.053388118743896484, -0.04885892570018768, -0.1728696972131729, 0.06765300035476685, -0.2316640019416809, 0.11445370316505432, 0.18911665678024292, 0.2128491997718811, -0.2604553997516632, 0.04286646842956543, 0.18854042887687683, -0.1826249212026596, 0.06049460172653198, -0.04205875098705292, 0.215346097946167, 0.037311851978302, 0.19481444358825684, 0.2162548303604126, -0.08799101412296295]], [[[0.18184730410575867, -0.03230813145637512, -0.024599909782409668, 0.1924150586128235, -0.0945126861333847, -0.2277141511440277, -0.25539231300354004, 0.06455275416374207, -0.20348134636878967, -0.22913134098052979, 0.09061530232429504, -0.15228810906410217, 0.0900985598564148, 0.0663638710975647, -0.1192559152841568], [-0.01258501410484314, 0.18731296062469482, 0.015765994787216187, 0.1184542179107666, 0.0065666139125823975, -0.07094085216522217, -0.21275609731674194, 0.13391751050949097, -0.07171630859375, -0.21263842284679413, 0.150814950466156, 0.2332625687122345, -0.2416847050189972, -0.1559494435787201, 0.1541041135787964], [0.1748754382133484, -0.24318651854991913, -0.09979738295078278, -0.19393441081047058, -0.22305256128311157, -0.05595569312572479, 0.1251358985900879, -0.06432044506072998, 0.011898666620254517, -0.14332163333892822, 0.24131742119789124, 0.1616021990776062, -0.10104525089263916, -0.13021397590637207, 0.16850689053535461], [0.19228819012641907, 0.1280190348625183, -0.13082073628902435, -0.15161314606666565, 0.03805261850357056, -0.0891028493642807, 0.2241501808166504, -0.17648190259933472, 0.19140931963920593, 0.1125994324684143, 0.08850100636482239, -0.025800779461860657, 0.19111010432243347, -0.06359069049358368, 0.08341977000236511], [-0.09645378589630127, -0.1674136519432068, 0.24296602606773376, 0.2520228922367096, -0.06821933388710022, -0.15244290232658386, 0.22946348786354065, 0.25630149245262146, 0.057041823863983154, 0.06889057159423828, 0.25242874026298523, -0.10731525719165802, 0.1542309820652008, 0.04070544242858887, 0.10827523469924927], [-0.000563889741897583, 0.08969220519065857, 0.1558276116847992, 0.1756550669670105, -0.04072210192680359, 0.012265264987945557, 0.22067448496818542, 0.019614815711975098, 0.19677302241325378, -0.18386368453502655, 0.127701073884964, 0.193010151386261, 0.1577000916004181, 0.16416442394256592, 0.18691837787628174], [0.24853035807609558, -0.1443660855293274, 0.20288142561912537, 0.06830599904060364, -0.2240593582391739, -0.22746852040290833, -0.15152734518051147, 0.16950979828834534, 0.16553831100463867, -0.09404449164867401, 0.02802392840385437, -0.1466430425643921, 0.18104508519172668, -0.11079397797584534, -0.14007580280303955], [-0.0326000452041626, 0.17222633957862854, -0.05147065222263336, 0.1650463342666626, 0.02543136477470398, 0.24585416913032532, -0.1459529995918274, 0.10742726922035217, 0.17606845498085022, 0.00579988956451416, 0.018612682819366455, -0.2574043869972229, -0.034276366233825684, 0.16792869567871094, 0.19014209508895874], [0.13851094245910645, -0.02936793863773346, 0.16354331374168396, 0.09166702628135681, -0.14732924103736877, -0.1403505951166153, 0.22606348991394043, -0.13268062472343445, 0.19602641463279724, 0.16957169771194458, -0.08310939371585846, -0.15856707096099854, 0.055400550365448, -0.18271467089653015, 0.026557058095932007], [0.1631079912185669, 0.029932290315628052, 0.007437974214553833, -0.2104034572839737, -0.1164933443069458, -0.0075724124908447266, -0.19878143072128296, 0.06883752346038818, -0.1503923535346985, -0.08075806498527527, -0.2339685559272766, -0.0012432336807250977, -0.056902751326560974, 0.2041819989681244, 0.24742606282234192], [0.054601848125457764, 0.08689647912979126, -0.09056501090526581, 0.08697226643562317, -0.2273862510919571, -0.2390686273574829, -0.22650262713432312, 0.22181668877601624, 0.15288251638412476, 0.10383877158164978, -0.17597883939743042, 0.2136763036251068, 0.12553879618644714, -0.15886683762073517, 0.06233617663383484], [-0.15864741802215576, -0.11366812884807587, -0.16873514652252197, -0.151498481631279, 0.18329232931137085, -0.20873436331748962, -0.1427311897277832, 0.06272348761558533, 0.15782314538955688, 0.13018155097961426, 0.14370888471603394, 0.02583518624305725, -0.056752488017082214, 0.030087172985076904, 0.035865187644958496], [-0.21606872975826263, 0.07992696762084961, -0.03141896426677704, -0.25744444131851196, -0.23459842801094055, -0.14869162440299988, 0.14840129017829895, 0.149067223072052, -0.19278490543365479, -0.16694727540016174, 0.08811149001121521, 0.10361400246620178, -0.0469416081905365, 0.13817721605300903, 0.2459975779056549], [0.07901287078857422, -0.056541889905929565, 0.024621158838272095, 0.07756593823432922, -0.03910470008850098, 0.0608295202255249, 0.10553878545761108, 0.12092146277427673, -0.09343543648719788, -0.020815417170524597, 0.186594158411026, 0.20290732383728027, -0.09179656207561493, 0.23541474342346191, 0.1979367733001709], [0.03312578797340393, -0.25168752670288086, 0.1598694920539856, 0.03267136216163635, -0.030345499515533447, -0.14212405681610107, -0.0970456451177597, -0.07275162637233734, 0.1851474940776825, 0.19376832246780396, -0.18675333261489868, -0.08666983246803284, -0.16372624039649963, 0.1870202124118805, 0.08817899227142334], [0.09877562522888184, -0.04674522578716278, -0.22798651456832886, -0.24036750197410583, 0.2515566647052765, 0.16488012671470642, 0.0002988874912261963, 0.07595846056938171, -0.10219834744930267, 0.013912707567214966, -0.2488652765750885, -0.11267831921577454, -0.1710905134677887, -0.10513763129711151, 0.2015981376171112], [0.17100951075553894, 0.06669145822525024, 0.03740668296813965, 0.05248028039932251, 0.14770883321762085, 0.0558716356754303, -0.007599890232086182, 0.17124983668327332, 0.05695977807044983, -0.13845834136009216, -0.14882299304008484, 0.03210875391960144, 0.025111794471740723, -0.06544704735279083, -0.031269535422325134], [-0.05513036251068115, -0.1357111930847168, 0.2194506824016571, -0.09878730773925781, 0.06599915027618408, 0.11776897311210632, 0.16181734204292297, 0.06971076130867004, -0.22449639439582825, 0.05684727430343628, 0.10552778840065002, -0.11432395875453949, 0.12258115410804749, -0.04765859246253967, 0.13174521923065186], [-0.17610466480255127, -0.07660135626792908, -0.15779352188110352, 0.1065514087677002, 0.1569594144821167, -0.01939423382282257, 0.2128775715827942, -0.16215038299560547, -0.21235141158103943, -0.00826174020767212, -0.2572384476661682, -0.04826171696186066, -0.057226210832595825, -0.10015232861042023, -0.21677282452583313], [0.15711462497711182, -0.2488459199666977, 0.09488347172737122, 0.22796601057052612, -0.09465840458869934, -0.11113102734088898, 0.15179923176765442, 0.075267493724823, -0.014374837279319763, 0.24669912457466125, -0.256919801235199, 0.21927273273468018, -0.23444199562072754, -0.23584121465682983, 0.19562116265296936]], [0.009722709655761719, 0.2126103937625885, -0.06524057686328888, 0.06617876887321472, -0.22369809448719025, 0.1744835078716278, 0.1408957839012146, 0.20760440826416016, 0.20950132608413696, -0.06504277884960175, 0.2379513382911682, -0.10898268222808838, 0.11074286699295044, 0.011083811521530151, -0.1966613531112671, -0.047433897852897644, 0.06048625707626343, -0.009199097752571106, 0.00027510523796081543, 0.12610644102096558]], [[[0.11116334795951843, -0.08157281577587128, 0.05742713809013367, -0.1559590995311737, 0.050325244665145874, -0.20170515775680542, 0.04806414246559143, 0.11103743314743042, -0.11676983535289764, -0.03415289521217346, -0.022937998175621033, -0.06259819865226746, -0.15184271335601807, -0.18636776506900787, -0.14975669980049133, 0.2213735282421112, -0.0984758734703064, -0.19680900871753693, -0.04604291915893555, -0.13294517993927002], [0.013404026627540588, -0.04271191358566284, 0.014292523264884949, 0.033247917890548706, 0.015570461750030518, -0.06887446343898773, -0.015455842018127441, 0.18589907884597778, 0.008786723017692566, 0.14556756615638733, -0.030504927039146423, 0.05298939347267151, 0.07264891266822815, 0.022434845566749573, 0.07593351602554321, 0.15365734696388245, -0.19523561000823975, 0.0559668242931366, -0.08541959524154663, -0.060878753662109375], [0.04648831486701965, -0.02195890247821808, 0.029646724462509155, 0.11633431911468506, 0.17327162623405457, 0.012615084648132324, 0.09683194756507874, -0.09516613185405731, -0.16424547135829926, -0.155488520860672, 0.16919896006584167, -0.22243894636631012, -0.12964250147342682, -0.20047809183597565, 0.13459017872810364, 0.14034375548362732, 0.06100815534591675, 0.029413670301437378, 0.16279193758964539, 0.19677478075027466], [-0.0038417428731918335, -0.15627378225326538, -0.1030978411436081, -0.08286483585834503, 0.010552972555160522, 0.20073440670967102, 0.11260166764259338, 0.053953856229782104, 0.15532028675079346, 0.04650026559829712, -0.13594681024551392, 0.04104265570640564, -0.05519838631153107, -0.12591378390789032, -0.21925197541713715, 0.16361519694328308, 0.14294365048408508, 0.04622897505760193, 0.15938448905944824, -0.13727827370166779], [-0.1752232015132904, -0.09766216576099396, -0.12480531632900238, -0.21296313405036926, 0.10146483778953552, 0.2170366644859314, -0.16177573800086975, 0.09966418147087097, -0.0020842552185058594, 0.040242135524749756, 0.034708648920059204, 0.10698205232620239, 0.10115334391593933, 0.11510244011878967, -0.20839793980121613, -0.10493502765893936, 0.15703937411308289, 0.05305132269859314, -0.12820790708065033, 0.05321231484413147], [0.1479772925376892, -0.14850464463233948, -0.09874973446130753, 0.16698023676872253, -0.13867835700511932, 0.05941060185432434, 0.15409740805625916, -0.19008217751979828, 0.07237276434898376, 0.11432179808616638, 0.16438022255897522, 0.07278648018836975, 0.07710051536560059, 0.06741517782211304, 0.16661682724952698, 0.01443268358707428, -0.09399572014808655, 0.16737455129623413, -0.05880418419837952, 0.005141779780387878], [0.13645842671394348, -0.12859642505645752, 0.14662981033325195, -0.12490575760602951, -0.1974441409111023, 0.18093454837799072, -0.09250466525554657, -0.18308386206626892, 0.000719711184501648, -0.002639263868331909, 0.10976067185401917, 0.0753338634967804, -0.07723964750766754, 0.07224386930465698, -0.1301645040512085, 0.00940290093421936, 0.002241477370262146, 0.12296450138092041, 0.08718276023864746, -0.049906596541404724], [0.0021850168704986572, -0.0691203624010086, 0.09294518828392029, -0.1806284338235855, -0.17024603486061096, 0.09771713614463806, 0.18097296357154846, -0.12445855140686035, -0.0658501535654068, 0.11574447154998779, 0.00646546483039856, -0.0365668386220932, 0.1344853937625885, -0.01703011989593506, -0.08594843745231628, -0.06482721865177155, -0.16322438418865204, -0.14406037330627441, -0.0697137713432312, 0.0236491858959198], [-0.2047153115272522, 0.2185058891773224, 0.0012666136026382446, -0.12125996500253677, -0.20078209042549133, -0.10027467459440231, 0.19603806734085083, -0.01473015546798706, -0.06936745345592499, 0.04869523644447327, 0.20450294017791748, -0.13983187079429626, 0.06729710102081299, -0.16134987771511078, -0.09372782707214355, -0.04001116752624512, 0.17487165331840515, 0.07390514016151428, -0.15994206070899963, 0.11480951309204102], [0.15850690007209778, -0.0771477073431015, 0.04151478409767151, 0.16010603308677673, 0.1978091299533844, 0.030741333961486816, -0.10891071707010269, 0.03364178538322449, 0.15304630994796753, 0.11853647232055664, 0.05170565843582153, 0.022143229842185974, 0.090050607919693, 0.11403942108154297, -0.05648721754550934, 0.06579384207725525, 0.055638253688812256, 0.09775817394256592, 0.1309700608253479, 0.02070094645023346], [-0.07116226851940155, 0.0434454083442688, -0.15058088302612305, -0.15804415941238403, -0.06528376042842865, 0.16901999711990356, -0.2203017771244049, -0.16634929180145264, 0.026681184768676758, -0.21530453860759735, 0.08390283584594727, 0.0642680823802948, 0.21272361278533936, -0.12152943015098572, 0.2053726613521576, -0.10699684172868729, 0.16839465498924255, -0.04530319571495056, 0.12116217613220215, 0.05408334732055664], [-0.10043572634458542, -0.07372838258743286, -0.0649762898683548, -0.1578827053308487, 0.1953989565372467, -0.1841411590576172, 0.016664966940879822, -0.028579294681549072, -0.10605847090482712, 0.1365286111831665, 0.006226867437362671, 0.016214042901992798, -0.06299906969070435, -0.20914041996002197, -0.06820368766784668, 0.05454263091087341, -0.13701742887496948, 0.005353838205337524, -0.10261691361665726, -0.07191470265388489], [-0.14527574181556702, 0.02658236026763916, -0.07146956026554108, -0.1771201491355896, -0.16492314636707306, -0.022651314735412598, -0.16028735041618347, 0.03914639353752136, 0.101656973361969, 0.057701706886291504, 0.162435382604599, 0.11063799262046814, -0.03009401261806488, 0.16682231426239014, -0.08835536241531372, -0.08710412681102753, -0.07880808413028717, 0.11080482602119446, -0.09367024898529053, 0.010543197393417358], [0.22173011302947998, -0.21365338563919067, 0.18520236015319824, 0.1831200122833252, -0.17165479063987732, -0.21665240824222565, -0.15791264176368713, 0.17922919988632202, 0.046956032514572144, -0.15137764811515808, -0.1719377040863037, 0.15126323699951172, -0.14657941460609436, 0.21612820029258728, -0.11119884252548218, -0.10149509459733963, -0.1594666838645935, -0.14829280972480774, 0.2172386646270752, 0.006535813212394714], [-0.11536389589309692, 0.03771671652793884, -0.01907607913017273, -0.05035880208015442, -0.15948420763015747, 0.09428903460502625, 0.12024688720703125, 0.14000442624092102, 0.05204096436500549, -0.1925479620695114, -0.08817160129547119, -0.030064135789871216, -0.2093387395143509, 0.043696075677871704, -0.1397390365600586, -0.21531584858894348, 0.06031912565231323, -0.2058921456336975, 0.06750458478927612, 0.006592556834220886], [0.04793119430541992, -0.03400065004825592, 0.21225246787071228, -0.1265440285205841, -0.21128852665424347, 0.03323754668235779, -0.1429089605808258, 0.1128866970539093, 0.06326279044151306, 0.21511051058769226, 0.007507294416427612, 0.012703850865364075, -0.00625649094581604, 0.12765780091285706, 0.017773345112800598, -0.18837811052799225, -0.07409924268722534, 0.1352548599243164, 0.049411773681640625, 0.1958930790424347], [0.09882164001464844, -0.1913442313671112, -0.03240285813808441, 0.19269859790802002, 0.0366990864276886, 0.10994750261306763, -0.051926374435424805, 0.06884226202964783, -0.10499206930398941, 0.1059187650680542, -0.12494038045406342, 0.06150662899017334, 0.17691972851753235, 0.14426833391189575, 0.05388486385345459, 0.15077710151672363, -0.16216763854026794, 0.01399269700050354, 0.14011052250862122, -0.14863786101341248], [-0.18992820382118225, 0.18986660242080688, 0.17002415657043457, 0.1689157485961914, -0.18474769592285156, 0.15247678756713867, -0.15884360671043396, 0.1734543740749359, 0.2196851670742035, 0.001661047339439392, 0.14998021721839905, -0.00024366378784179688, -0.2135370820760727, 0.09941679239273071, -0.053944021463394165, -0.15755608677864075, 0.09977644681930542, 0.13149860501289368, -0.1315041035413742, -0.012765511870384216], [-0.20984677970409393, 0.17556488513946533, -0.12093505263328552, -0.01894386112689972, 0.006179258227348328, -0.2202344834804535, -0.04019714891910553, 0.002205759286880493, -0.1044294685125351, -0.10589034855365753, -0.2142951339483261, 0.09314170479774475, 0.051777034997940063, -0.1974615454673767, -0.024881333112716675, -0.031352266669273376, 0.000818789005279541, 0.1492813527584076, 0.08401662111282349, 0.1822195053100586], [0.028959572315216064, -0.07506805658340454, 0.12884607911109924, 0.11705327033996582, 0.08496439456939697, -0.015139460563659668, 0.11058846116065979, 0.037063777446746826, 0.2170516848564148, 0.16223856806755066, -0.15960803627967834, -0.0358978807926178, 0.16189661622047424, 0.1021321713924408, 0.20499303936958313, -0.011214494705200195, -0.09095965325832367, 0.15232861042022705, -0.012673676013946533, -0.17910200357437134], [-0.16247478127479553, 0.09251677989959717, 0.07118278741836548, 0.17895644903182983, -0.004719823598861694, 0.1153092086315155, -0.1817581206560135, 0.18828114867210388, 0.21248459815979004, 0.09064802527427673, -0.04496599733829498, 0.03768542408943176, -0.00505693256855011, -0.21085110306739807, -0.0018593966960906982, 0.18969112634658813, -0.14031857252120972, -0.06502224504947662, -0.023810848593711853, 0.0018102377653121948], [-0.15321242809295654, 0.01565997302532196, 0.16354036331176758, 0.0032178908586502075, -0.04580901563167572, -0.14710736274719238, 0.09416940808296204, -0.013738423585891724, -0.16074147820472717, -0.13495409488677979, 0.09037187695503235, -0.05555424094200134, 0.01564459502696991, -0.12230042368173599, 0.02738213539123535, 0.03495979309082031, -0.037704676389694214, -0.04287908971309662, 0.08277082443237305, 0.15693706274032593], [-0.011573106050491333, 0.05593940615653992, 0.09681570529937744, 0.02487941086292267, -0.0034607499837875366, 0.19301244616508484, -0.21793213486671448, -0.0596284419298172, -0.05178995430469513, 0.06280866265296936, 0.14694949984550476, -0.12421669811010361, -0.11067291349172592, 0.007651761174201965, 0.0680970549583435, -0.14784714579582214, 0.11295264959335327, -0.21090686321258545, 0.06267905235290527, 0.20877420902252197], [-0.19932936131954193, 0.042408764362335205, -0.106550432741642, 0.0517517626285553, 0.015301719307899475, -0.20218397676944733, -0.06731854379177094, 0.042025208473205566, 0.11683031916618347, -0.1764487475156784, 0.006848722696304321, 0.16776633262634277, -0.08090098202228546, -0.17307798564434052, -0.13376131653785706, -0.11489400267601013, 0.1569940745830536, 0.009718328714370728, -0.027763620018959045, -0.15358740091323853], [0.22093802690505981, -0.09330834448337555, 0.1877393126487732, 0.18737339973449707, 0.041498661041259766, 0.014378681778907776, -0.029797464609146118, 0.15977069735527039, -0.09993883222341537, 0.15579161047935486, -0.10248064249753952, 0.16967439651489258, -0.07024069130420685, -0.19881780445575714, -0.1301770806312561, 0.1463998556137085, 0.10127657651901245, 0.053207218647003174, 0.10124048590660095, -0.06849527359008789], [-0.16758285462856293, 0.19767969846725464, -0.0915563702583313, -0.11171884834766388, 0.05662238597869873, -0.12691284716129303, 0.14835578203201294, -0.1844574362039566, -0.05546405911445618, -0.12913793325424194, -0.21786463260650635, -0.1659378558397293, 0.17506614327430725, -0.05094963312149048, 0.06995609402656555, 0.15504324436187744, -0.17324751615524292, -0.13378825783729553, 0.04601582884788513, -0.19635063409805298], [-0.11149115115404129, -0.0026665329933166504, 0.05553954839706421, -0.10201192647218704, 0.023399516940116882, -0.06527325510978699, 0.03620508313179016, 0.2014944851398468, 0.14647001028060913, 0.041789889335632324, 0.20447176694869995, 0.08546769618988037, 0.22330191731452942, 0.14414545893669128, 0.2029201090335846, 0.029786229133605957, 0.029308795928955078, -0.1025872454047203, -0.034289002418518066, -0.14696979522705078], [-0.0781945139169693, 0.0025551915168762207, -0.19677038490772247, 0.14621296525001526, -0.005704149603843689, -0.20824570953845978, 0.14897742867469788, -0.08863948285579681, -0.10366816818714142, -0.18918222188949585, 0.12542399764060974, 0.1389179825782776, -0.16719476878643036, 0.003964737057685852, -0.08881232142448425, 0.15110334753990173, 0.09975752234458923, -0.09827373921871185, -0.20052018761634827, 0.13785719871520996], [-0.08951205015182495, 0.17273327708244324, -0.052275151014328, -0.21263043582439423, -0.16217416524887085, 0.06244099140167236, -0.05737370252609253, -0.13721764087677002, -0.005934804677963257, -0.005548387765884399, 0.11430603265762329, 0.036982983350753784, 0.21904495358467102, -0.13536328077316284, -0.0656624287366867, -0.08767366409301758, 0.08493432402610779, 0.11223876476287842, 0.001147627830505371, -0.03562156856060028], [0.08262050151824951, -0.036385178565979004, 0.12474122643470764, 0.06998628377914429, -0.19901247322559357, -0.2193070948123932, -0.14136435091495514, -0.15915754437446594, -0.044091999530792236, 0.10774263739585876, 0.06235784292221069, 0.032627999782562256, -0.15095284581184387, -0.04599843919277191, -0.12604402005672455, -0.12475667148828506, -0.17055568099021912, -0.16173796355724335, -0.1633775532245636, -0.0005085170269012451]], [0.20655307173728943, -0.22067631781101227, -0.1513369381427765, 0.18087980151176453, -0.12115709483623505, 0.057649582624435425, 0.14140266180038452, -0.04504859447479248, 0.09626668691635132, -0.05014467239379883, -0.06549783051013947, -0.06267152726650238, -0.22105970978736877, -0.12080353498458862, 0.1592366099357605, -0.0305042564868927, -0.15246647596359253, -0.0784626454114914, -0.10000435262918472, 0.08035394549369812, -0.16911226511001587, 0.13826411962509155, 0.21941503882408142, 0.13585957884788513, -0.02708892524242401, -0.10658233612775803, -0.0381765216588974, 0.11418628692626953, -0.11090287566184998, -0.021860271692276]], [[[-0.0834910124540329, -0.1599106639623642, 0.1367102563381195, -0.1451563835144043, 0.01659683883190155, -0.1051882952451706, 0.18156731128692627, -0.08894377201795578, -0.017396584153175354, 0.025260895490646362, 0.006257236003875732, 0.10188782215118408, -0.1145876869559288, 0.1724441647529602, 0.054161444306373596, 0.12245383858680725, -0.02507747709751129, 0.11601918935775757, -0.12168414145708084, -0.15145398676395416, 0.14982691407203674, 0.11800014972686768, 0.08594223856925964, 0.1588028371334076, 0.15165984630584717, -0.17330238223075867, -0.0554882287979126, -0.06769028306007385, 0.11754119396209717, -0.1288105845451355], [0.06606532633304596, 0.09598258137702942, -0.09808513522148132, 0.09389573335647583, 0.0982542335987091, 0.1815851926803589, 0.06751370429992676, -0.11974559724330902, 0.0904877781867981, 0.03104880452156067, 0.03798595070838928, 0.13964909315109253, -0.07271338999271393, -0.12131939083337784, 0.13001134991645813, -0.14423683285713196, 0.13838255405426025, 0.06229296326637268, 0.042763158679008484, 0.034756600856781006, 0.08006638288497925, -0.06430300325155258, 0.15276265144348145, -0.1261056661605835, -0.01879444718360901, -0.12682035565376282, -0.1566559076309204, -0.177108496427536, -0.09567517042160034, -0.02963794767856598], [0.11490273475646973, 0.014644622802734375, 0.07152429223060608, 0.1163613498210907, 0.004037871956825256, 0.09217816591262817, 0.009249478578567505, -0.06065143644809723, 0.010089010000228882, 0.1003740131855011, -0.1267346441745758, -0.13289636373519897, 0.1331155002117157, -0.07103028893470764, 0.17583653330802917, -0.12956225872039795, 0.018376782536506653, -0.004198908805847168, 0.014812007546424866, -0.08353225886821747, -0.07128188759088516, -0.06317566335201263, 0.17439499497413635, 0.15253061056137085, -0.10860567539930344, 0.014265179634094238, -0.17831534147262573, -0.1437331736087799, -0.1504092812538147, -0.11930595338344574], [-0.14998455345630646, -0.16115032136440277, 0.09620383381843567, 0.011349767446517944, 0.13563677668571472, -0.14937226474285126, -0.14636199176311493, -0.0020014941692352295, 0.03317485749721527, 0.10039293766021729, 0.15708637237548828, 0.02648012340068817, 0.012827515602111816, 0.05906343460083008, -0.10933927446603775, 0.051937565207481384, -0.05234745144844055, 0.11813628673553467, 0.11773672699928284, -0.07148120552301407, 0.13424533605575562, 0.09961467981338501, 0.13518637418746948, 0.05873332917690277, -0.06089361011981964, 0.16736087203025818, 0.16426816582679749, -0.17175596952438354, 0.11044657230377197, 0.13683143258094788], [0.06191599369049072, -0.041026026010513306, 0.053792282938957214, 0.15724673867225647, 0.07151597738265991, -0.09573213011026382, 0.0634644627571106, 0.09124577045440674, 0.043716877698898315, 0.05272522568702698, 0.04934556782245636, -0.16182906925678253, 0.12725889682769775, 0.043264180421829224, -0.030365660786628723, 0.1132451593875885, 0.17467185854911804, -0.17363014817237854, 0.03184676170349121, -0.072978675365448, -0.03507457673549652, 0.02071841061115265, -0.04591016471385956, -0.16724909842014313, -0.07543854415416718, 0.05517172813415527, -0.02506658434867859, -0.13431264460086823, 0.11234599351882935, -0.05113036930561066], [0.11514198780059814, -0.1596003621816635, 0.08841988444328308, -0.15692085027694702, -0.16961508989334106, -0.019717305898666382, -0.1372779756784439, 0.032196104526519775, 0.09505361318588257, 0.14510005712509155, 0.13158667087554932, 0.1763472855091095, -0.03263738751411438, 0.14766806364059448, 0.1532067358493805, 0.1792202889919281, -0.08956440538167953, 0.016887888312339783, -0.004343941807746887, -0.0940205454826355, 0.1727239489555359, -0.15555651485919952, -0.04575087130069733, -0.0014297068119049072, 0.1564423143863678, -0.09345429390668869, 0.10455435514450073, 0.10687100887298584, 0.03692227602005005, 0.0756513774394989], [-0.17083266377449036, 0.13376381993293762, -0.10713469982147217, -0.08683177828788757, -0.009156346321105957, 0.0630851536989212, 0.15684601664543152, -0.09538406878709793, 0.12265786528587341, -0.13111969828605652, -0.1738903671503067, 0.0025436878204345703, -0.0995781421661377, 0.016964435577392578, 0.11231961846351624, -0.12593555450439453, -0.15995949506759644, 0.039592280983924866, 0.14252424240112305, -0.15299099683761597, 0.029894500970840454, -0.16160419583320618, -0.06407112628221512, -0.027410656213760376, -0.1574898064136505, -0.06493128091096878, -0.15778838098049164, -0.06922762095928192, -0.12296727299690247, 0.13073155283927917], [0.12855538725852966, 0.1360742151737213, -0.010695546865463257, -0.0625791847705841, 0.16443756222724915, 0.10230892896652222, -0.0861511155962944, 0.16592273116111755, -0.010215401649475098, -0.17593519389629364, -0.1622231900691986, 0.12211745977401733, 0.06435303390026093, 0.051271721720695496, -0.15324774384498596, -0.004870802164077759, -0.0844055786728859, -0.03494136035442352, 0.12771075963974, -0.05646389722824097, -0.0004734247922897339, -0.048954978585243225, -0.16802306473255157, 0.054239124059677124, 0.09603333473205566, -0.0848892331123352, 0.07659745216369629, -0.1260472536087036, -0.07041552662849426, 0.05869108438491821], [-0.10365085303783417, 0.05521295964717865, -0.059277333319187164, 0.02361389994621277, -0.08852519094944, -0.10352198034524918, 0.1409129500389099, -0.15902188420295715, 0.02909533679485321, -0.05167774856090546, -0.09643231332302094, 0.04408156871795654, -0.08785714954137802, -0.08242041617631912, -0.17752528190612793, -0.14952468872070312, -0.05937890708446503, 0.019671380519866943, 0.04852071404457092, -0.15561865270137787, 0.09177756309509277, 0.06648080050945282, -0.12624922394752502, -0.12857212126255035, -0.03996811807155609, 0.03504626452922821, -0.16414271295070648, 0.05825187265872955, 0.11096090078353882, 0.16075998544692993], [-0.06022295355796814, 0.10075733065605164, 0.022376298904418945, 0.06250420212745667, 0.0534825474023819, -0.10571297258138657, 0.10456159710884094, 0.1672557294368744, -0.13693714141845703, 0.08313760161399841, -0.06976819038391113, 0.1222490668296814, 0.047972068190574646, 0.004980683326721191, 0.12119975686073303, -0.14951778948307037, 0.06131558120250702, -0.14885711669921875, -0.08560454100370407, -0.08111869543790817, -0.11130200326442719, 0.07196184992790222, 0.026437386870384216, -0.039008915424346924, 0.12980502843856812, -0.08402901142835617, 0.09674561023712158, -0.10468560457229614, 0.07359170913696289, -0.06329715251922607], [0.07169279456138611, -0.008592471480369568, 0.13484889268875122, -0.011777818202972412, 0.06647942960262299, -0.020894482731819153, 0.025388658046722412, 0.02327507734298706, -0.028217852115631104, 0.03588949143886566, -0.15290674567222595, -0.023734688758850098, -0.0334552526473999, -0.1559203863143921, 0.16739848256111145, -0.11603522300720215, -0.034320682287216187, 0.03405351936817169, -0.12730106711387634, 0.03294585645198822, -0.008443623781204224, -0.15474551916122437, 0.16463524103164673, -0.0932413712143898, -0.14849931001663208, -0.0931544229388237, 0.1027144193649292, 0.013853907585144043, 0.033268123865127563, -0.09008980542421341], [-0.11806187033653259, -0.17589133977890015, -0.1350678950548172, -0.06396521627902985, -0.0538775771856308, -0.055053263902664185, -0.07067470252513885, -0.12681826949119568, 0.17051807045936584, -0.14142964780330658, -0.05407024919986725, 0.17215105891227722, -0.06770318746566772, -0.007032603025436401, 0.05777198076248169, -0.05518901348114014, 0.17136210203170776, -0.07944563776254654, -0.03302164375782013, -0.13340464234352112, 0.06267613172531128, -0.14336854219436646, -0.16925647854804993, 0.10756665468215942, -0.018555253744125366, 0.06140105426311493, -0.16445302963256836, 0.019725263118743896, 0.04254139959812164, -0.14538827538490295], [0.12832602858543396, 0.17201459407806396, 0.1427723467350006, 0.03974957764148712, 0.008073210716247559, -0.05840896815061569, -0.03537197411060333, -0.029908105731010437, 0.1725931465625763, -0.1219269260764122, -0.055717483162879944, 0.09183534979820251, -0.10862910002470016, -0.027638331055641174, -0.021649986505508423, -0.06653064489364624, 0.043666958808898926, 0.12146016955375671, 0.10070616006851196, -0.08607831597328186, 0.1423027217388153, 0.03274981677532196, -0.15799260139465332, 0.04829798638820648, -0.09869734942913055, 0.08071404695510864, -0.07078143209218979, -0.11181468516588211, 0.005095973610877991, 0.02640800178050995], [0.15981251001358032, -0.04225943982601166, -0.09208837151527405, -0.10367065668106079, -0.10824935138225555, -0.12256747484207153, -0.12507981061935425, -0.1548992246389389, 0.11766335368156433, 0.12444329261779785, -0.10829803347587585, 0.08644542098045349, -0.07121426612138748, -0.046548932790756226, 0.029300972819328308, -0.027891695499420166, -0.06380152702331543, -0.01841653883457184, -0.15022414922714233, -0.010825052857398987, 0.11774367094039917, -0.08253417909145355, 0.07959386706352234, -0.14444759488105774, 0.03690813481807709, -0.011211290955543518, 0.08835214376449585, -0.04670776426792145, -0.0045611560344696045, -0.007077828049659729], [-0.16952089965343475, -0.029935166239738464, -0.009738326072692871, 0.1375565528869629, -7.627904415130615e-05, 0.054447054862976074, 0.111858069896698, -0.0977361872792244, 0.09238561987876892, -0.15826183557510376, -0.13128581643104553, 0.17910954356193542, -0.0036497563123703003, 0.026936709880828857, 0.11668625473976135, 0.12765586376190186, -0.12583328783512115, -0.07104600220918655, -0.024425819516181946, -0.017463818192481995, -0.07873789966106415, -0.07861185818910599, 0.16571137309074402, 0.17780014872550964, -0.08665385842323303, 0.035972341895103455, -0.049848586320877075, -0.020124435424804688, -0.04584227502346039, 0.02427917718887329]], [-0.007377177476882935, -0.043100595474243164, -0.1269921213388443, -0.15112265944480896, -0.03760896623134613, 0.09667560458183289, 0.06607624888420105, 0.11903053522109985, -0.10723420977592468, -0.048694148659706116, 0.018214106559753418, -0.15445350110530853, 0.12371239066123962, -0.11986434459686279, -0.0030469298362731934]], [[[-0.07065567374229431, 0.19952204823493958, 0.05590611696243286, 0.22358790040016174, -0.10121823847293854, 0.0020855069160461426, -0.050262853503227234, -0.0916869193315506, 0.1757059097290039, -0.21016591787338257, -0.23053765296936035, 0.13344615697860718, 0.02431991696357727, -0.21243445575237274, -0.1459602564573288], [-0.08473917841911316, 0.2444322407245636, -0.06218497455120087, -0.23338653147220612, 0.07227486371994019, 0.0795011818408966, 0.018634945154190063, 0.08310449123382568, 0.12397381663322449, -0.004109293222427368, 0.09558653831481934, 0.13566932082176208, -0.10525499284267426, -0.025639832019805908, 0.18675082921981812], [-0.033430054783821106, 0.2213689386844635, -0.143922358751297, -0.04895903170108795, -0.18940959870815277, -0.15699052810668945, -0.10659199953079224, 0.1562185287475586, 0.25168177485466003, -0.15325886011123657, -0.24460595846176147, -0.2232181429862976, 0.033397942781448364, 0.08794841170310974, 0.1782541573047638], [-0.10705049335956573, 0.16947713494300842, 0.08300957083702087, 0.2158743143081665, -0.07021725177764893, 0.05683135986328125, 0.05516195297241211, -0.24043262004852295, 0.07628932595252991, -0.17849478125572205, 0.0928071141242981, -0.05819426476955414, -0.2351658195257187, -0.18836040794849396, 0.21282508969306946], [-0.1236373633146286, 0.07999736070632935, 0.08252069354057312, -0.07548020780086517, 0.22000965476036072, -0.07006202638149261, 0.17945295572280884, 0.023501813411712646, -0.1849912703037262, -0.18730559945106506, 0.047572165727615356, -0.15397092700004578, 0.17019253969192505, 0.23049142956733704, 0.006879240274429321], [0.09688770771026611, -0.0671425461769104, -0.005148261785507202, 0.07989293336868286, -0.004119753837585449, 0.08323624730110168, 0.14842817187309265, 0.16966325044631958, 0.1085692048072815, 0.029305875301361084, -0.15709970891475677, -0.23724901676177979, 0.08126083016395569, 0.09943225979804993, -0.06613487005233765], [-0.055685847997665405, -0.2176308035850525, 0.016348212957382202, -0.010375156998634338, 0.08471259474754333, -0.05752444267272949, 0.12817323207855225, 0.09969696402549744, 0.19457557797431946, 0.15968310832977295, 0.042286962270736694, -0.008649736642837524, -0.020636677742004395, 0.16094782948493958, 0.17159968614578247]], [0.105715811252594, 0.25077590346336365, -0.24766847491264343, -0.0988239049911499, 0.1858682632446289, -0.00298270583152771, 0.23514315485954285]], [[[0.23932471871376038, -0.10218825936317444, -0.02259993553161621, -0.12302350997924805, 0.259941428899765, 0.08813786506652832, 0.1316814124584198], [0.18560484051704407, 0.25289180874824524, 0.05692070722579956, -0.35015711188316345, -0.02492135763168335, 0.1558726727962494, -0.3257952332496643], [0.16458120942115784, -0.09936603903770447, 0.3609949052333832, -0.07160863280296326, -0.016325920820236206, -0.06237873435020447, 0.132600337266922]], [-0.34123143553733826, 0.28518590331077576, -0.3241279125213623]], [[[0.08410710096359253, -0.37011420726776123, 0.3196699023246765]], [0.5173382759094238]]]}