{
    "Layers": [
        [
            "fc1",
            "Linear",
            4,
            2
        ],
        [
            "fc2",
            "Linear",
            6,
            4
        ],
        [
            "fc3",
            "Linear",
            14,
            6
        ],
        [
            "fc4",
            "Linear",
            8,
            14
        ],
        [
            "fc5",
            "Linear",
            4,
            8
        ]
    ],
    "Activation functions": [
        [
            "fc1",
            "relu"
        ],
        [
            "fc2",
            "sigmoid"
        ],
        [
            "fc3",
            "relu"
        ],
        [
            "fc4",
            "relu"
        ],
        [
            "fc5",
            ""
        ]
    ],
    "Weights": [
        [
            [
                0.29193413257598877,
                0.07584857940673828,
                0.03974491357803345,
                0.029646873474121094
            ],
            [
                -0.41624748706817627,
                0.34159594774246216,
                0.044882237911224365,
                -0.30050525069236755
            ]
        ],
        [
            [
                -0.1829301118850708,
                -0.4077174663543701,
                0.13995593786239624,
                -0.1768583059310913,
                0.08639794588088989,
                -0.3924331068992615
            ],
            [
                -0.35690295696258545,
                -0.11606621742248535,
                0.3371592164039612,
                0.3573859930038452,
                -0.2880581021308899,
                -0.2310715913772583
            ],
            [
                -0.03719204664230347,
                0.473480761051178,
                0.0076593756675720215,
                0.2789519429206848,
                -0.1804603934288025,
                -0.13249999284744263
            ],
            [
                0.31529563665390015,
                -0.15579932928085327,
                0.08884954452514648,
                0.1622183918952942,
                0.07396543025970459,
                0.01642817258834839
            ]
        ],
        [
            [
                -0.34046506881713867,
                0.2754552960395813,
                -0.09935393929481506,
                0.2890808582305908,
                -0.3904772102832794,
                -0.14578849077224731,
                -0.38844045996665955,
                -0.0653027892112732,
                -0.11360067129135132,
                -0.3382566571235657,
                -0.03315770626068115,
                0.32979661226272583,
                -0.007556617259979248,
                0.03704279661178589
            ],
            [
                0.29498910903930664,
                -0.13158133625984192,
                -0.26904600858688354,
                -0.09053358435630798,
                -0.19161152839660645,
                -0.22742235660552979,
                -0.2623783349990845,
                -0.39356064796447754,
                -0.3332424461841583,
                0.07565581798553467,
                0.18264323472976685,
                -0.07083442807197571,
                -0.2968536615371704,
                0.18027955293655396
            ],
            [
                -0.14708027243614197,
                0.12411057949066162,
                -0.24181629717350006,
                -0.27312880754470825,
                -0.23514239490032196,
                -0.12406641244888306,
                -0.016087979078292847,
                0.04040902853012085,
                0.2673949599266052,
                -0.03115752339363098,
                -0.26015231013298035,
                0.2296161651611328,
                0.06824469566345215,
                0.04608258605003357
            ],
            [
                -0.07206374406814575,
                0.24839270114898682,
                -0.3461661636829376,
                -0.051134854555130005,
                -0.24786414206027985,
                0.002167224884033203,
                -0.08060747385025024,
                0.4043864607810974,
                0.343875527381897,
                0.1504136323928833,
                0.1984519362449646,
                -0.1603645533323288,
                -0.3812984228134155,
                0.03792116045951843
            ],
            [
                -0.1249907910823822,
                0.38648873567581177,
                0.20794916152954102,
                -0.32478368282318115,
                0.3942754864692688,
                -0.1443597376346588,
                -0.12984293699264526,
                0.18676310777664185,
                -0.001958996057510376,
                -0.12852561473846436,
                0.012356072664260864,
                0.06608211994171143,
                0.31738585233688354,
                -0.28013041615486145
            ],
            [
                0.3470986485481262,
                -0.35050249099731445,
                0.35498738288879395,
                -0.30183568596839905,
                0.2891274094581604,
                0.18572300672531128,
                0.07894492149353027,
                -0.3275650143623352,
                0.08807587623596191,
                -0.1747877448797226,
                0.2603272795677185,
                -0.06001979112625122,
                0.009057790040969849,
                0.21968507766723633
            ]
        ],
        [
            [
                -0.05856850743293762,
                0.08301633596420288,
                0.225762277841568,
                -0.22460152208805084,
                0.25456175208091736,
                -0.25614696741104126,
                0.1296587586402893,
                -0.1279849261045456
            ],
            [
                0.04261329770088196,
                -0.2491588145494461,
                -0.06619474291801453,
                0.14564266800880432,
                0.24723532795906067,
                0.1324610710144043,
                -0.11308950185775757,
                0.006669193506240845
            ],
            [
                -0.0820641815662384,
                -0.04722009599208832,
                0.18556106090545654,
                -0.22680416703224182,
                0.0964680016040802,
                -0.2364509105682373,
                -0.20750792324543,
                -0.07655772566795349
            ],
            [
                0.05313202738761902,
                -0.1220913976430893,
                0.028097003698349,
                0.24691519141197205,
                -0.2101912796497345,
                0.14936980605125427,
                0.16976183652877808,
                -0.16148672997951508
            ],
            [
                -0.07611483335494995,
                -0.19100376963615417,
                -0.09711654484272003,
                -0.23374678194522858,
                0.17816707491874695,
                0.17962273955345154,
                0.22196635603904724,
                0.25977233052253723
            ],
            [
                0.1315825879573822,
                -0.059385672211647034,
                0.1855335831642151,
                -0.2047928124666214,
                0.20966169238090515,
                -0.13280870020389557,
                -0.22631171345710754,
                0.08334475755691528
            ],
            [
                0.00955548882484436,
                -0.2397545427083969,
                0.2509751617908478,
                -0.14541196823120117,
                0.2626568377017975,
                0.07088679075241089,
                -0.2286536991596222,
                -0.16180332005023956
            ],
            [
                -0.040448471903800964,
                0.08155253529548645,
                0.06291341781616211,
                0.07815632224082947,
                0.0009560286998748779,
                0.2505718171596527,
                -0.07914753258228302,
                -0.1958998739719391
            ],
            [
                0.18847748637199402,
                -0.16601435840129852,
                0.15805336833000183,
                0.15663093328475952,
                0.22507861256599426,
                -0.15370520949363708,
                -0.09351031482219696,
                0.017320215702056885
            ],
            [
                0.06544587016105652,
                -0.16489820182323456,
                0.13641461730003357,
                -0.16255930066108704,
                -0.1638353168964386,
                0.17199328541755676,
                -0.0726800411939621,
                -0.014019012451171875
            ],
            [
                0.23106583952903748,
                -0.10422509908676147,
                -0.08470869064331055,
                0.10161241888999939,
                -0.23846572637557983,
                -0.2474532276391983,
                0.2237403392791748,
                0.15922486782073975
            ],
            [
                -0.08963371813297272,
                0.17251941561698914,
                -0.21455354988574982,
                0.055911362171173096,
                0.15960994362831116,
                0.09573954343795776,
                0.07962152361869812,
                0.1776205599308014
            ],
            [
                -0.08324985206127167,
                0.26680901646614075,
                -0.0756794661283493,
                0.19191959500312805,
                0.25317123532295227,
                0.09028267860412598,
                -0.009269684553146362,
                -0.06810633838176727
            ],
            [
                -0.12803733348846436,
                -0.12208971381187439,
                0.1904987394809723,
                0.1883063018321991,
                0.23333445191383362,
                -0.2609565854072571,
                -0.03366556763648987,
                -0.06965862214565277
            ]
        ],
        [
            [
                -0.3080291450023651,
                0.09996524453163147,
                -0.24716120958328247,
                0.049501895904541016
            ],
            [
                -0.1300627738237381,
                0.028910517692565918,
                0.31147798895835876,
                0.26528307795524597
            ],
            [
                -0.048434942960739136,
                0.23966678977012634,
                -0.06522828340530396,
                -0.25669726729393005
            ],
            [
                0.28767016530036926,
                -0.04312419891357422,
                0.2293761670589447,
                0.06724196672439575
            ],
            [
                0.1586671769618988,
                0.11058005690574646,
                -0.025746792554855347,
                -0.031376004219055176
            ],
            [
                0.14596647024154663,
                -0.21374951303005219,
                0.30896010994911194,
                0.03362259268760681
            ],
            [
                0.20183798670768738,
                0.17609789967536926,
                -0.2444213628768921,
                -0.14599743485450745
            ],
            [
                -0.15070313215255737,
                0.2033909261226654,
                0.3208841383457184,
                0.03555658459663391
            ]
        ]
    ]
}